{"learner":{"attributes":{},"feature_names":["year","avg_grid_pos_track","track_avg_lap_time","temperature","years_since_reg_change","driver_ALB","driver_ALO","driver_BEA","driver_BOT","driver_COL","driver_DOO","driver_GAS","driver_HAM","driver_HUL","driver_LAW","driver_LEC","driver_MAG","driver_NOR","driver_OCO","driver_PER","driver_PIA","driver_RIC","driver_RUS","driver_SAI","driver_SAR","driver_STR","driver_TSU","driver_VER","driver_ZHO","track_Abu Dhabi","track_Austin","track_Australia","track_Austria","track_Bahrain","track_Baku","track_Brazil","track_Canada","track_China","track_France","track_Hockenheim","track_Hungary","track_Imola","track_Jeddah","track_Las Vegas","track_Mexico","track_Miami","track_Monaco","track_Monza","track_Nürburgring","track_Portugal","track_Qatar","track_Russia","track_Silverstone","track_Singapore","track_Spa-Francorchamps","track_Spain","track_Suzuka","track_Turkey","track_Zandvoort","rain_Dry","rain_Wet","year_x_avg_time"],"feature_types":["float","float","float","float","float","float","float","float","float","float","float","float","float","float","float","float","float","float","float","float","float","float","float","float","float","float","float","float","float","float","float","float","float","float","float","float","float","float","float","float","float","float","float","float","float","float","float","float","float","float","float","float","float","float","float","float","float","float","float","float","float","float"],"gradient_booster":{"model":{"gbtree_model_param":{"num_parallel_tree":"1","num_trees":"50"},"iteration_indptr":[0,1,2,3,4,5,6,7,8,9,10,11,12,13,14,15,16,17,18,19,20,21,22,23,24,25,26,27,28,29,30,31,32,33,34,35,36,37,38,39,40,41,42,43,44,45,46,47,48,49,50],"tree_info":[0,0,0,0,0,0,0,0,0,0,0,0,0,0,0,0,0,0,0,0,0,0,0,0,0,0,0,0,0,0,0,0,0,0,0,0,0,0,0,0,0,0,0,0,0,0,0,0,0,0],"trees":[{"base_weights":[-3.2402518E-6,-7.847877E0,1.1475671E1,-1.123032E1,-1.8035905E0,5.2160087E0,1.53426895E1,-1.6250175E1,-8.965561E0,1.1000923E1,-3.3635013E0,2.6718898E0,4.3466277E0,1.3710648E1,2.458255E1,-4.3598895E0,-1.8491293E1,-1.046277E1,-4.051171E0,-7.338943E-1,1.7836313E1,-4.1127048E0,2.373747E0,4.487415E0,-4.6003513E0,2.2345247E1,1.2007752E1,5.4060116E0,7.8518734E0,-5.9116373E0,-4.69696E0,-8.930323E0,-1.2153926E1,1.4978473E-1,-1.0388028E1,-4.7956812E-1,-2.1099043E-1,5.9926567E0,2.2901149E0,-5.1977797E0,-1.2689553E-1,3.071505E0,-1.3529814E0,3.1152275E0,5.320165E0,7.224219E-1,-2.9377337E0,1.6647326E1,8.856002E0,1.7658575E1,1.0800194E1,-1.0818261E0,-2.7587895E0,-3.7857192E0,-2.3441896E0,4.79821E-1,-1.0090281E0,-1.9979408E0,-3.6892617E0,-1.1470919E-1,-2.7620941E-3,-2.5125554E-1,-1.7388617E0,1.1904203E0,-5.437236E-1,-5.1464903E-1,-2.3432729E-1,8.53449E-1,3.2667081E0,2.1893146E0,1.4629343E0,7.50723E-2,2.6161376E-1,6.0072627E0,4.022404E0,5.9716816E0,4.3136353E0,2.8696697E0,5.1017675E0],"categories":[],"categories_nodes":[],"categories_segments":[],"categories_sizes":[],"default_left":[0,0,0,0,0,0,0,0,0,0,0,0,0,0,0,0,0,0,0,0,0,0,0,0,0,0,0,0,0,0,0,0,0,0,0,0,0,0,0,0,0,0,0,0,0,0,0,0,0,0,0,0,0,0,0,0,0,0,0,0,0,0,0,0,0,0,0,0,0,0,0,0,0,0,0,0,0,0,0],"id":0,"left_children":[1,3,5,7,9,11,13,15,17,19,21,-1,23,25,27,-1,29,31,33,35,37,39,41,43,45,47,49,-1,-1,-1,-1,51,53,55,57,-1,59,-1,-1,61,63,-1,65,67,69,71,-1,73,-1,75,77,-1,-1,-1,-1,-1,-1,-1,-1,-1,-1,-1,-1,-1,-1,-1,-1,-1,-1,-1,-1,-1,-1,-1,-1,-1,-1,-1,-1],"loss_changes":[1.8736256E5,2.5238922E4,2.0372414E4,8.858352E3,8.915547E3,1.0012822E3,7.531039E3,6.741328E2,3.989711E3,3.9038271E3,1.7162207E3,0E0,3.535713E2,6.2851484E3,3.3266406E2,0E0,4.466797E1,9.783789E2,3.4515684E3,8.169505E0,5.1735645E2,1.5195986E3,1.3764054E3,2.8134814E2,1.3388159E2,2.462586E3,2.3643594E3,0E0,0E0,0E0,0E0,2.8336133E2,2.982793E2,4.07299E2,2.8600977E2,0E0,4.4175E-1,0E0,0E0,7.160176E2,5.334254E2,0E0,5.3824615E0,1.8107404E2,1.0554541E2,7.6448917E-3,0E0,1.9715039E2,0E0,1.8805273E2,2.2207969E3,0E0,0E0,0E0,0E0,0E0,0E0,0E0,0E0,0E0,0E0,0E0,0E0,0E0,0E0,0E0,0E0,0E0,0E0,0E0,0E0,0E0,0E0,0E0,0E0,0E0,0E0,0E0,0E0],"parents":[2147483647,0,0,1,1,2,2,3,3,4,4,5,5,6,6,7,7,8,8,9,9,10,10,12,12,13,13,14,14,16,16,17,17,18,18,19,19,20,20,21,21,22,22,23,23,24,24,25,25,26,26,31,31,32,32,33,33,34,34,36,36,39,39,40,40,42,42,43,43,44,44,45,45,47,47,49,49,50,50],"right_children":[2,4,6,8,10,12,14,16,18,20,22,-1,24,26,28,-1,30,32,34,36,38,40,42,44,46,48,50,-1,-1,-1,-1,52,54,56,58,-1,60,-1,-1,62,64,-1,66,68,70,72,-1,74,-1,76,78,-1,-1,-1,-1,-1,-1,-1,-1,-1,-1,-1,-1,-1,-1,-1,-1,-1,-1,-1,-1,-1,-1,-1,-1,-1,-1,-1,-1],"split_conditions":[2.3764977E-1,-6.057069E-1,8.5162085E-1,-1.160351E0,-2.075805E0,-1.7147672E0,4.4848228E0,-1.3537295E0,4.315873E0,-5.5743486E-1,4.910001E0,2.6718898E0,1.8114188E0,-2.075805E0,8.124968E-1,-4.3598895E0,-1.1656058E0,-6.026644E-1,-9.926918E-1,-9.3250316E-1,7.495096E-1,4.93319E0,9.0421356E-2,5.6114197E-1,5.9052175E-1,1.0234729E0,8.601229E-1,5.4060116E0,7.8518734E0,-5.9116373E0,-4.69696E0,-1.3735574E0,4.93319E0,-1.7147672E0,8.124968E-1,-4.7956812E-1,2.9028478E-1,5.9926567E0,2.2901149E0,-6.1842006E-1,-1.7147672E0,3.071505E0,-1.7216572E-1,2.0782726E0,4.0876085E-1,-1.7165734E-1,-2.9377337E0,9.0064126E-1,8.856002E0,2.1094616E-1,1.5999303E0,-1.0818261E0,-2.7587895E0,-3.7857192E0,-2.3441896E0,4.79821E-1,-1.0090281E0,-1.9979408E0,-3.6892617E0,-1.1470919E-1,-2.7620941E-3,-2.5125554E-1,-1.7388617E0,1.1904203E0,-5.437236E-1,-5.1464903E-1,-2.3432729E-1,8.53449E-1,3.2667081E0,2.1893146E0,1.4629343E0,7.50723E-2,2.6161376E-1,6.0072627E0,4.022404E0,5.9716816E0,4.3136353E0,2.8696697E0,5.1017675E0],"split_indices":[2,2,2,61,0,0,54,0,55,2,29,0,4,0,0,0,2,3,0,1,1,31,0,61,2,2,61,0,0,0,0,3,31,0,0,0,1,0,0,61,0,0,3,1,59,1,0,2,0,4,2,0,0,0,0,0,0,0,0,0,0,0,0,0,0,0,0,0,0,0,0,0,0,0,0,0,0,0,0],"split_type":[0,0,0,0,0,0,0,0,0,0,0,0,0,0,0,0,0,0,0,0,0,0,0,0,0,0,0,0,0,0,0,0,0,0,0,0,0,0,0,0,0,0,0,0,0,0,0,0,0,0,0,0,0,0,0,0,0,0,0,0,0,0,0,0,0,0,0,0,0,0,0,0,0,0,0,0,0,0,0],"sum_hessian":[2.0784275E3,1.2345034E3,8.439242E2,7.909961E2,4.4350732E2,3.2316147E2,5.207627E2,2.4399785E2,5.469982E2,4.750562E1,3.960017E2,5.9853775E1,2.633077E2,4.4469913E2,7.606359E1,1.4238382E2,1.0161404E2,4.1840012E2,1.2859811E2,1.7814608E1,2.9691011E1,3.5051285E2,4.5488857E1,2.5971927E2,3.5884275E0,7.125843E1,3.734407E2,1.7242872E1,5.8820713E1,6.697599E1,3.463805E1,2.2279456E2,1.9560556E2,7.7918915E1,5.0679195E1,5.9382024E0,1.1876405E1,2.375281E1,5.9382024E0,2.7527063E2,7.5242226E1,1.40633545E1,3.1425503E1,9.9880066E1,1.598392E2,2.1969965E0,1.3914311E0,4.1567417E1,2.9691011E1,6.3353203E1,3.100875E2,1.1280268E1,2.115143E2,1.7494781E2,2.065775E1,5.5544807E1,2.2374105E1,1.8685114E1,3.199408E1,5.9382024E0,5.9382024E0,3.3509884E1,2.4176073E2,2.154483E1,5.3697395E1,1.8009672E1,1.3415832E1,9.7842735E1,2.0373344E0,2.646116E1,1.3337804E2,1.1717315E0,1.025265E0,1.7814608E1,2.375281E1,3.4587597E1,2.8765604E1,2.6075208E2,4.9335415E1],"tree_param":{"num_deleted":"0","num_feature":"62","num_nodes":"79","size_leaf_vector":"1"}},{"base_weights":[1.7191302E-2,-5.511718E0,8.101904E0,-7.9005623E0,-1.2430204E0,3.675401E0,1.0836479E1,-1.1436222E1,-6.3054304E0,7.859094E0,-2.3519847E0,5.916418E0,2.947341E0,9.68079E0,1.7379822E1,-1.02034855E1,-1.304729E1,-3.330928E0,-7.584668E0,-5.4545915E-1,1.2755293E1,-3.1880817E0,8.651576E-1,1.0332458E0,1.8358892E0,3.0623384E0,-3.7871163E0,1.3233489E1,7.412981E0,6.1233854E0,4.3483844E0,-3.3629775E0,-2.73678E0,-1.3880788E1,-3.3274107E0,-5.5715995E0,1.1280687E0,-4.57103E0,-7.9907346E0,-3.5643357E-1,-1.5681697E-1,4.2674885E0,1.7021024E0,-4.161727E0,-8.034493E-2,2.5214074E0,-8.919086E-1,2.9588764E0,3.0794244E0,-2.3935046E0,4.900502E-1,1.5903033E1,1.1195074E1,6.3525496E0,3.6016438E0,-4.2040596E0,-1.5572959E0,-1.9783152E0,-1.3755215E0,-1.60989E-1,4.5243338E-1,-1.4316647E0,-1.0084461E-1,-2.564267E0,-1.772452E0,-8.5256636E-2,-2.052961E-3,-1.780621E-1,-1.4213059E0,4.676625E-1,-7.9318166E-1,-4.34798E-1,3.8367376E-1,5.917541E-1,1.0905145E0,3.5666232E0,6.2857666E0,4.049573E0,2.980979E0,3.342315E0,1.6553515E0],"categories":[],"categories_nodes":[],"categories_segments":[],"categories_sizes":[],"default_left":[0,0,0,0,0,0,0,0,0,0,0,0,0,0,0,0,0,0,0,0,0,0,0,0,0,0,0,0,0,0,0,0,0,0,0,0,0,0,0,0,0,0,0,0,0,0,0,0,0,0,0,0,0,0,0,0,0,0,0,0,0,0,0,0,0,0,0,0,0,0,0,0,0,0,0,0,0,0,0,0,0],"id":1,"left_children":[1,3,5,7,9,11,13,15,17,19,21,23,25,27,29,31,33,35,37,39,41,43,45,-1,-1,47,49,51,53,-1,-1,-1,-1,55,-1,57,59,61,63,-1,65,-1,-1,67,69,-1,71,73,-1,-1,-1,75,77,79,-1,-1,-1,-1,-1,-1,-1,-1,-1,-1,-1,-1,-1,-1,-1,-1,-1,-1,-1,-1,-1,-1,-1,-1,-1,-1,-1],"loss_changes":[9.299431E4,1.2588922E4,1.0187648E4,4.394629E3,4.5053057E3,5.114624E2,3.7773516E3,3.534414E2,2.0599238E3,2.0029812E3,1.0706306E3,1.835913E1,2.0262646E2,3.492832E3,3.7817773E2,5.3716797E1,1.3328125E1,1.6706499E3,4.3144922E2,4.5128584E0,2.3871191E2,9.537776E2,1.10279E3,0E0,0E0,1.5076245E2,1.1727743E2,7.5999805E2,1.2596699E3,0E0,0E0,0E0,0E0,5.6660156E0,0E0,8.180322E1,3.6582733E1,3.9075012E1,3.387422E2,0E0,2.4402577E-1,0E0,0E0,4.9058398E2,3.2451385E2,0E0,8.408535E1,1.535918E2,0E0,0E0,0E0,1.2155996E3,1.5901562E2,8.3778516E2,0E0,0E0,0E0,0E0,0E0,0E0,0E0,0E0,0E0,0E0,0E0,0E0,0E0,0E0,0E0,0E0,0E0,0E0,0E0,0E0,0E0,0E0,0E0,0E0,0E0,0E0,0E0],"parents":[2147483647,0,0,1,1,2,2,3,3,4,4,5,5,6,6,7,7,8,8,9,9,10,10,11,11,12,12,13,13,14,14,15,15,16,16,17,17,18,18,19,19,20,20,21,21,22,22,25,25,26,26,27,27,28,28,33,33,35,35,36,36,37,37,38,38,40,40,43,43,44,44,46,46,47,47,51,51,52,52,53,53],"right_children":[2,4,6,8,10,12,14,16,18,20,22,24,26,28,30,32,34,36,38,40,42,44,46,-1,-1,48,50,52,54,-1,-1,-1,-1,56,-1,58,60,62,64,-1,66,-1,-1,68,70,-1,72,74,-1,-1,-1,76,78,80,-1,-1,-1,-1,-1,-1,-1,-1,-1,-1,-1,-1,-1,-1,-1,-1,-1,-1,-1,-1,-1,-1,-1,-1,-1,-1,-1],"split_conditions":[2.3764977E-1,-6.057069E-1,8.5162085E-1,-1.160351E0,-2.075805E0,-1.3537295E0,4.4848228E0,-1.3537295E0,-1.7147672E0,-5.5743486E-1,1.1631493E-1,-1.5438972E0,1.8114188E0,-1.3537295E0,4.0876085E-1,-1.1656058E0,-1.1656058E0,4.315873E0,-1.0431747E0,-9.3250316E-1,7.495096E-1,4.93319E0,9.0421356E-2,1.0332458E0,1.8358892E0,2.5320628E0,-5.7262963E-1,-2.075805E0,1.5999303E0,6.1233854E0,4.3483844E0,-3.3629775E0,-2.73678E0,1.8114188E0,-3.3274107E0,-5.249072E-1,-1.4406395E0,6.230111E0,4.315873E0,-3.5643357E-1,2.9028478E-1,4.2674885E0,1.7021024E0,-6.1842006E-1,-9.926918E-1,2.5214074E0,-2.1991748E-2,5.6114197E-1,3.0794244E0,-2.3935046E0,4.900502E-1,1.0234729E0,9.0064126E-1,8.601229E-1,3.6016438E0,-4.2040596E0,-1.5572959E0,-1.9783152E0,-1.3755215E0,-1.60989E-1,4.5243338E-1,-1.4316647E0,-1.0084461E-1,-2.564267E0,-1.772452E0,-8.5256636E-2,-2.052961E-3,-1.780621E-1,-1.4213059E0,4.676625E-1,-7.9318166E-1,-4.34798E-1,3.8367376E-1,5.917541E-1,1.0905145E0,3.5666232E0,6.2857666E0,4.049573E0,2.980979E0,3.342315E0,1.6553515E0],"split_indices":[2,2,2,61,0,0,54,0,0,2,2,1,4,0,59,2,2,55,3,1,1,31,0,0,0,1,3,0,2,0,0,0,0,4,0,1,1,28,55,0,1,0,0,61,0,0,3,61,0,0,0,2,2,61,0,0,0,0,0,0,0,0,0,0,0,0,0,0,0,0,0,0,0,0,0,0,0,0,0,0,0],"split_type":[0,0,0,0,0,0,0,0,0,0,0,0,0,0,0,0,0,0,0,0,0,0,0,0,0,0,0,0,0,0,0,0,0,0,0,0,0,0,0,0,0,0,0,0,0,0,0,0,0,0,0,0,0,0,0,0,0,0,0,0,0,0,0,0,0,0,0,0,0,0,0,0,0,0,0,0,0,0,0,0,0],"sum_hessian":[2.0784275E3,1.2345034E3,8.439242E2,7.909961E2,4.4350732E2,3.2316147E2,5.207627E2,2.4399785E2,5.469982E2,4.750562E1,3.960017E2,7.749634E1,2.4566513E2,4.4469913E2,7.606359E1,1.4238382E2,1.0161404E2,1.6558394E2,3.814143E2,1.7814608E1,2.9691011E1,3.1432214E2,8.167954E1,7.2493925E0,7.024694E1,2.420767E2,3.5884275E0,1.713814E2,2.7331775E2,3.4129528E1,4.193406E1,6.88784E1,7.350542E1,6.697599E1,3.463805E1,1.1003912E2,5.5544807E1,4.6745747E1,3.3466855E2,5.9382024E0,1.1876405E1,2.375281E1,5.9382024E0,2.3907993E2,7.5242226E1,1.4722453E1,6.695709E1,2.4003937E2,2.0373344E0,1.7575972E0,1.8308305E0,7.125843E1,1.00122955E2,2.2398232E2,4.9335415E1,6.536486E1,1.6111307E0,5.1235844E1,5.880328E1,1.0247169E1,4.529764E1,4.4504597E1,2.2411497E0,2.6161526E2,7.30533E1,5.9382024E0,5.9382024E0,3.3509884E1,2.0557004E2,4.6134624E1,2.9107603E1,5.354126E1,1.3415832E1,9.921992E1,1.4081946E2,4.1567417E1,2.9691011E1,3.1937998E1,6.818496E1,3.1415203E1,1.9256711E2],"tree_param":{"num_deleted":"0","num_feature":"62","num_nodes":"81","size_leaf_vector":"1"}},{"base_weights":[2.3398975E-2,-3.8728108E0,5.7206645E0,-5.6297636E0,-9.438855E-1,2.5904489E0,7.6544447E0,-8.067352E0,-4.488156E0,5.6152883E0,-1.7046914E0,3.9484537E0,1.7797018E0,6.8337264E0,1.2301763E1,-7.394945E0,-2.9046025E0,-3.2974017E0,-6.2905383E0,-4.0540716E-1,9.123212E0,-2.2767198E0,6.354886E-1,3.7684026E0,3.258322E0,1.881354E0,-3.065821E0,1.0030427E1,5.5244966E0,3.1930997E0,4.5557027E0,-2.4659336E0,-1.9714491E0,-4.4537196E0,-6.8259776E-1,-6.620373E0,-9.39642E-1,-2.6491618E-1,-1.1655192E-1,3.0389636E0,1.2650685E0,-2.9041782E-1,-3.1571002E0,6.043652E0,-6.250875E-1,4.5887065E0,2.396007E0,1.3262322E0,2.3854856E0,3.3988017E-1,-2.2190835E0,1.141622E1,2.0732243E0,4.9519763E0,2.542616E0,-1.021086E0,-1.5396075E0,1.08559735E-1,-1.3503561E0,-1.6150229E0,-2.0422359E0,-6.336558E-2,-1.5260081E-3,-2.6194927E-1,4.421482E0,-1.0848352E0,-3.9072105E-1,1.4989953E0,2.894493E0,-3.0674982E-1,2.7655578E-1,1.3013928E0,2.6003408E0,2.6121458E-1,8.353138E-1,3.37129E-1,1.1989447E0,5.0691116E-1,8.260941E-1,4.098187E0,2.517775E0,2.5206418E0,1.2602084E0],"categories":[],"categories_nodes":[],"categories_segments":[],"categories_sizes":[],"default_left":[0,0,0,0,0,0,0,0,0,0,0,0,0,0,0,0,0,0,0,0,0,0,0,0,0,0,0,0,0,0,0,0,0,0,0,0,0,0,0,0,0,0,0,0,0,0,0,0,0,0,0,0,0,0,0,0,0,0,0,0,0,0,0,0,0,0,0,0,0,0,0,0,0,0,0,0,0,0,0,0,0,0,0],"id":2,"left_children":[1,3,5,7,9,11,13,15,17,19,21,23,25,27,29,31,-1,33,35,37,39,41,43,45,-1,47,49,51,53,-1,-1,-1,-1,55,57,59,-1,-1,61,-1,-1,63,65,67,69,71,73,75,77,-1,-1,79,-1,81,-1,-1,-1,-1,-1,-1,-1,-1,-1,-1,-1,-1,-1,-1,-1,-1,-1,-1,-1,-1,-1,-1,-1,-1,-1,-1,-1,-1,-1],"loss_changes":[4.6180754E4,6.3525645E3,5.094625E3,2.112246E3,2.3272922E3,3.498745E2,1.9060059E3,1.9439941E2,1.1125693E3,1.028144E3,5.595873E2,1.08875244E2,1.0664386E2,1.8099316E3,2.0687012E2,6.633789E1,0E0,9.6474365E2,1.9696191E2,2.4929442E0,1.0886694E2,5.8535986E2,5.674375E2,1.2278967E2,0E0,5.3146362E1,9.1822296E1,4.7566602E2,4.9599023E2,0E0,0E0,0E0,0E0,1.404873E2,3.9777884E2,6.9316406E0,0E0,0E0,1.3479792E-1,0E0,0E0,9.242473E2,1.929707E2,1.1128601E1,4.2720734E1,3.735327E1,2.5151184E1,4.850006E1,2.2038147E1,0E0,0E0,4.777002E2,0E0,6.621963E2,0E0,0E0,0E0,0E0,0E0,0E0,0E0,0E0,0E0,0E0,0E0,0E0,0E0,0E0,0E0,0E0,0E0,0E0,0E0,0E0,0E0,0E0,0E0,0E0,0E0,0E0,0E0,0E0,0E0],"parents":[2147483647,0,0,1,1,2,2,3,3,4,4,5,5,6,6,7,7,8,8,9,9,10,10,11,11,12,12,13,13,14,14,15,15,17,17,18,18,19,19,20,20,21,21,22,22,23,23,25,25,26,26,27,27,28,28,33,33,34,34,35,35,38,38,41,41,42,42,43,43,44,44,45,45,46,46,47,47,48,48,51,51,53,53],"right_children":[2,4,6,8,10,12,14,16,18,20,22,24,26,28,30,32,-1,34,36,38,40,42,44,46,-1,48,50,52,54,-1,-1,-1,-1,56,58,60,-1,-1,62,-1,-1,64,66,68,70,72,74,76,78,-1,-1,80,-1,82,-1,-1,-1,-1,-1,-1,-1,-1,-1,-1,-1,-1,-1,-1,-1,-1,-1,-1,-1,-1,-1,-1,-1,-1,-1,-1,-1,-1,-1],"split_conditions":[2.3764977E-1,-6.718887E-1,8.5162085E-1,-1.160351E0,-2.075805E0,-3.2254472E-1,4.4848228E0,-6.527224E-1,-5.225716E-1,-5.5743486E-1,1.1631493E-1,2.170661E0,1.8114188E0,-1.7147672E0,2.9096355E0,-1.6609832E0,-2.9046025E0,4.315873E0,4.93319E0,-9.3250316E-1,7.495096E-1,-1.3537295E0,9.0421356E-2,8.124968E-1,3.258322E0,5.9052175E-1,5.9052175E-1,5.638106E0,1.5999303E0,3.1930997E0,4.5557027E0,-2.4659336E0,-1.9714491E0,-1.1097162E0,-9.926918E-1,-3.2254472E-1,-9.39642E-1,-2.6491618E-1,2.9028478E-1,3.0389636E0,1.2650685E0,9.913499E-1,-1.4235185E-1,-2.7061635E-1,-2.1991748E-2,4.6341996E0,5.2494293E-1,4.163595E0,-2.9393613E-1,3.3988017E-1,-2.2190835E0,-2.075805E0,2.0732243E0,8.601229E-1,2.542616E0,-1.021086E0,-1.5396075E0,1.08559735E-1,-1.3503561E0,-1.6150229E0,-2.0422359E0,-6.336558E-2,-1.5260081E-3,-2.6194927E-1,4.421482E0,-1.0848352E0,-3.9072105E-1,1.4989953E0,2.894493E0,-3.0674982E-1,2.7655578E-1,1.3013928E0,2.6003408E0,2.6121458E-1,8.353138E-1,3.37129E-1,1.1989447E0,5.0691116E-1,8.260941E-1,4.098187E0,2.517775E0,2.5206418E0,1.2602084E0],"split_indices":[2,61,2,61,0,4,54,3,3,2,2,1,4,0,2,61,0,55,31,1,1,0,0,0,0,2,2,51,2,0,0,0,0,61,0,4,0,0,1,0,0,1,2,0,3,52,2,11,1,0,0,0,0,61,0,0,0,0,0,0,0,0,0,0,0,0,0,0,0,0,0,0,0,0,0,0,0,0,0,0,0,0,0],"split_type":[0,0,0,0,0,0,0,0,0,0,0,0,0,0,0,0,0,0,0,0,0,0,0,0,0,0,0,0,0,0,0,0,0,0,0,0,0,0,0,0,0,0,0,0,0,0,0,0,0,0,0,0,0,0,0,0,0,0,0,0,0,0,0,0,0,0,0,0,0,0,0,0,0,0,0,0,0,0,0,0,0,0,0],"sum_hessian":[2.0784275E3,1.2345034E3,8.439242E2,7.7105457E2,4.6344885E2,3.2316147E2,5.207627E2,2.4399785E2,5.270567E2,4.750562E1,4.1594324E2,1.19361046E2,2.0380042E2,4.4469913E2,7.606359E1,1.7620076E2,6.779709E1,3.1908252E2,2.0797417E2,1.7814608E1,2.9691011E1,3.342637E2,8.167954E1,1.1783693E2,1.5241175E0,2.0021199E2,3.5884275E0,1.2727499E2,3.1742413E2,5.127429E1,2.4789299E1,8.353907E1,9.26617E1,2.2075641E2,9.8326126E1,1.8731642E2,2.065775E1,5.9382024E0,1.1876405E1,2.375281E1,5.9382024E0,1.03063385E2,2.312003E2,1.4722453E1,6.695709E1,7.228651E1,4.5550423E1,9.701509E1,1.0319691E2,2.1969965E0,1.3914311E0,8.6286316E1,4.0988674E1,2.680887E2,4.9335415E1,8.8996544E1,1.3175986E2,7.7918915E1,2.0407207E1,2.8519884E1,1.5879652E2,5.9382024E0,5.9382024E0,1.00122955E2,2.9404266E0,1.8457124E2,4.6629055E1,1.3257789E1,1.4646643E0,5.354126E1,1.3415832E1,7.004454E1,2.2419682E0,9.902266E0,3.564816E1,9.149818E1,5.516909E0,3.764389E1,6.555302E1,4.750562E1,3.8780697E1,4.6117336E1,2.2197137E2],"tree_param":{"num_deleted":"0","num_feature":"62","num_nodes":"83","size_leaf_vector":"1"}},{"base_weights":[2.9502276E-2,-2.6550052E0,4.1319275E0,-3.6745272E0,9.6020335E-3,1.9253358E0,5.4017344E0,-5.677113E0,-2.9318163E0,4.9713836E0,-8.608591E-1,2.8325171E0,1.3173728E0,6.3881373E0,3.3831162E0,-4.9897428E0,-6.5822587E0,-1.6258478E0,-3.7549808E0,6.5264864E0,2.6338608E0,1.974119E-4,-2.7593937E0,2.6600811E0,2.6193402E0,1.4092015E0,-2.5556276E0,2.45443E0,6.841658E0,2.4712348E0,1.7863764E0,-1.5976158E0,-1.1107811E0,-2.1132302E0,-1.6549932E0,-1.8204911E0,3.4316633E0,-5.214894E-2,-3.860277E0,2.1641064E0,9.4024825E-1,5.927195E-1,1.3195097E0,1.0090868E0,-5.5258113E-1,-1.1445212E0,-3.2308822E0,3.3170264E0,1.5688148E0,9.509451E-1,1.9333401E0,-1.7765706E0,4.879036E-1,4.506892E-1,2.6954281E0,6.0747533E0,9.653656E0,8.9103734E-1,3.1663966E0,-7.922129E-1,2.3009056E-1,-1.905235E-1,3.0605477E-1,-1.0942994E0,-1.4887965E0,1.5266152E-2,1.3529997E0,-2.3979089E-1,2.0002018E-1,-4.2302486E-1,-5.026923E-3,-6.740461E-1,-1.0339687E0,9.322122E-1,2.0608644E0,1.103853E-1,5.224222E-1,3.8669136E-1,-1.282116E-1,5.378362E-1,1.7726986E0,8.3547455E-1,3.05802E-1,2.085056E0,1.3165314E0,2.5175118E0,3.6190665E0,5.5767983E-1,-1.5376504E-1,1.0165612E0,8.4243216E-2],"categories":[],"categories_nodes":[],"categories_segments":[],"categories_sizes":[],"default_left":[0,0,0,0,0,0,0,0,0,0,0,0,0,0,0,0,0,0,0,0,0,0,0,0,0,0,0,0,0,0,0,0,0,0,0,0,0,0,0,0,0,0,0,0,0,0,0,0,0,0,0,0,0,0,0,0,0,0,0,0,0,0,0,0,0,0,0,0,0,0,0,0,0,0,0,0,0,0,0,0,0,0,0,0,0,0,0,0,0,0,0],"id":3,"left_children":[1,3,5,7,9,11,13,15,17,19,21,23,25,27,29,31,33,35,37,39,41,43,45,47,-1,49,51,53,55,57,-1,-1,-1,-1,-1,59,-1,61,63,-1,-1,-1,-1,65,67,69,71,73,75,77,79,-1,-1,-1,81,83,85,87,89,-1,-1,-1,-1,-1,-1,-1,-1,-1,-1,-1,-1,-1,-1,-1,-1,-1,-1,-1,-1,-1,-1,-1,-1,-1,-1,-1,-1,-1,-1,-1,-1],"loss_changes":[2.291169E4,3.416296E3,2.29529E3,1.3361504E3,1.5116255E3,1.62901E2,1.01730664E3,1.19586426E2,7.0936816E2,1.7269214E2,4.8676965E2,9.9197815E1,6.860248E1,6.064844E2,3.9187573E2,4.2226562E1,1.1640625E1,6.7964026E2,1.5866699E2,4.8938232E1,1.7490707E1,1.1536137E2,6.704303E1,7.966339E1,0E0,4.1197998E1,7.42254E1,4.595566E0,6.156885E2,1.3966699E2,0E0,0E0,0E0,0E0,0E0,5.456139E2,0E0,8.32421E0,7.4754395E1,0E0,0E0,0E0,0E0,2.4539124E2,4.073466E1,6.7283382E0,7.40271E0,3.302234E1,8.972511E0,4.600689E1,3.556949E1,0E0,0E0,0E0,1.4817047E0,3.361787E2,9.737891E1,5.6681038E1,5.6541565E1,0E0,0E0,0E0,0E0,0E0,0E0,0E0,0E0,0E0,0E0,0E0,0E0,0E0,0E0,0E0,0E0,0E0,0E0,0E0,0E0,0E0,0E0,0E0,0E0,0E0,0E0,0E0,0E0,0E0,0E0,0E0,0E0],"parents":[2147483647,0,0,1,1,2,2,3,3,4,4,5,5,6,6,7,7,8,8,9,9,10,10,11,11,12,12,13,13,14,14,15,15,16,16,17,17,18,18,19,19,20,20,21,21,22,22,23,23,25,25,26,26,27,27,28,28,29,29,35,35,37,37,38,38,43,43,44,44,45,45,46,46,47,47,48,48,49,49,50,50,54,54,55,55,56,56,57,57,58,58],"right_children":[2,4,6,8,10,12,14,16,18,20,22,24,26,28,30,32,34,36,38,40,42,44,46,48,-1,50,52,54,56,58,-1,-1,-1,-1,-1,60,-1,62,64,-1,-1,-1,-1,66,68,70,72,74,76,78,80,-1,-1,-1,82,84,86,88,90,-1,-1,-1,-1,-1,-1,-1,-1,-1,-1,-1,-1,-1,-1,-1,-1,-1,-1,-1,-1,-1,-1,-1,-1,-1,-1,-1,-1,-1,-1,-1,-1],"split_conditions":[3.4280038E-1,-5.5743486E-1,8.5162085E-1,-1.160351E0,-5.738529E-1,-3.2254472E-1,-4.4247887E-1,-1.3537295E0,-1.3537295E0,-2.075805E0,4.6538734E0,8.998365E0,1.8114188E0,-1.633859E0,1.5999303E0,-1.1831762E0,-1.1656058E0,1.2821016E0,-1.3735574E0,7.495096E-1,4.0928707E0,9.0421356E-2,-1.7147672E0,-7.6285E-1,2.6193402E0,1.5441945E-1,-5.7262963E-1,-6.316541E-1,9.0421356E-2,9.0064126E-1,1.7863764E0,-1.5976158E0,-1.1107811E0,-2.1132302E0,-1.6549932E0,4.315873E0,3.4316633E0,7.0875E-1,4.557789E0,2.1641064E0,9.4024825E-1,5.927195E-1,1.3195097E0,1.1631493E-1,2.3764977E-1,-3.4284765E-1,-1.3537295E0,-7.728616E-1,-1.427053E0,4.6341996E0,3.6559513E0,-1.7765706E0,4.879036E-1,4.506892E-1,3.772202E0,1.0833293E0,2.7941555E-1,1.1735345E0,9.991912E-1,-7.922129E-1,2.3009056E-1,-1.905235E-1,3.0605477E-1,-1.0942994E0,-1.4887965E0,1.5266152E-2,1.3529997E0,-2.3979089E-1,2.0002018E-1,-4.2302486E-1,-5.026923E-3,-6.740461E-1,-1.0339687E0,9.322122E-1,2.0608644E0,1.103853E-1,5.224222E-1,3.8669136E-1,-1.282116E-1,5.378362E-1,1.7726986E0,8.3547455E-1,3.05802E-1,2.085056E0,1.3165314E0,2.5175118E0,3.6190665E0,5.5767983E-1,-1.5376504E-1,1.0165612E0,8.4243216E-2],"split_indices":[2,2,2,61,61,4,3,0,0,0,44,24,4,3,2,61,2,1,3,1,16,0,0,3,0,1,3,0,0,2,0,0,0,0,0,55,0,1,46,0,0,0,0,2,2,1,0,3,1,52,19,0,0,0,23,61,1,0,3,0,0,0,0,0,0,0,0,0,0,0,0,0,0,0,0,0,0,0,0,0,0,0,0,0,0,0,0,0,0,0,0],"split_type":[0,0,0,0,0,0,0,0,0,0,0,0,0,0,0,0,0,0,0,0,0,0,0,0,0,0,0,0,0,0,0,0,0,0,0,0,0,0,0,0,0,0,0,0,0,0,0,0,0,0,0,0,0,0,0,0,0,0,0,0,0,0,0,0,0,0,0,0,0,0,0,0,0,0,0,0,0,0,0,0,0,0,0,0,0,0,0,0,0,0,0],"sum_hessian":[2.0784275E3,1.2565383E3,8.218892E2,9.0853796E2,3.480004E2,3.0112653E2,5.207627E2,2.4399785E2,6.645401E2,5.1235844E1,2.9676453E2,1.19361046E2,1.8176549E2,3.4836743E2,1.7239526E2,1.4238382E2,1.0161404E2,2.580744E2,4.064657E2,2.9691011E1,2.154483E1,2.0485503E2,9.190952E1,1.1738059E2,1.9804533E0,1.7817706E2,3.5884275E0,3.6674583E1,3.1169287E2,1.2871283E2,4.3682438E1,1.10445816E2,3.1937998E1,6.697599E1,3.463805E1,2.5513397E2,2.9404266E0,1.1280268E1,3.9518542E2,2.375281E1,5.9382024E0,1.7235865E1,4.308966E0,7.221967E1,1.3263535E2,2.154483E1,7.036469E1,7.199801E1,4.5382587E1,9.6564575E1,8.161249E1,1.7575972E0,1.8308305E0,8.868934E0,2.7805649E1,2.473849E2,6.430796E1,4.002112E1,8.869171E1,1.9370831E2,6.1425663E1,7.571882E0,3.708386E0,3.3490274E2,6.028268E1,5.749722E1,1.4722453E1,1.1060041E2,2.2034933E1,1.7235865E1,4.308966E0,1.4702133E1,5.566256E1,6.975604E1,2.2419682E0,6.09647E0,3.9286118E1,7.759867E1,1.8965902E1,8.022713E1,1.3853593E0,2.5768314E1,2.0373344E0,1.6079059E2,8.659431E1,4.5148163E1,1.9159798E1,2.349492E1,1.65262E1,8.219018E1,6.5015283E0],"tree_param":{"num_deleted":"0","num_feature":"62","num_nodes":"91","size_leaf_vector":"1"}},{"base_weights":[3.0309416E-2,-2.0689764E0,2.6443458E0,-2.4709399E0,1.212308E0,1.140698E0,3.808855E0,-4.0004144E0,-1.9899757E0,3.5760047E0,-4.4228357E-1,1.6965541E0,3.6266696E-1,4.503557E0,2.3871605E0,-3.368086E0,-4.4910297E0,-9.0446186E-1,-2.4059563E0,4.6696877E0,1.9285208E0,5.660439E-1,-1.3997623E0,1.6089559E0,2.9526343E0,-6.58385E-1,7.0917857E-1,7.5980597E0,4.14344E0,1.7414633E0,1.262457E0,-3.5926657E0,-2.2653496E0,-4.9585705E0,-3.606623E0,-4.030055E-1,-7.489238E-1,-2.9024434E0,-1.642875E0,5.1370077E0,6.988294E-1,1.4155145E0,9.9821955E-1,-3.5380572E-1,9.8826814E-1,-1.9806472E0,-1.0642474E0,2.4385176E0,1.5291667E0,-9.432943E-1,-2.8297022E-1,5.8259124E-1,2.264827E0,5.5960956E0,2.6130986E0,6.0288844E0,3.5131793E0,6.3357264E-1,2.2287486E0,-1.118044E0,-7.7611965E-1,-8.524303E-1,-3.7756765E-1,-1.5030861E0,-4.1870725E-1,-8.0781335E-1,-1.1724274E0,-5.350746E-1,1.990579E-2,-6.875652E-1,-1.0850235E0,-5.5535406E-1,6.600694E-1,9.104822E-1,1.6917442E0,4.7469586E-1,2.1339345E-1,3.7122637E-1,-2.2912934E-2,-6.238226E-1,-2.2296056E-1,-4.8377332E-1,-1.953112E-1,4.8277622E-1,-8.889777E-1,-1.4989603E-1,-3.5969853E-1,-3.1594347E-2,-1.928075E-1,2.0148742E-1,-3.196085E-1,1.7887546E0,2.588917E-1,5.676572E-1,2.1034906E0,2.3124223E0,6.405873E-1,5.4976195E-1,1.1669043E0,6.1601114E-1,-1.3181734E-2,7.1525806E-1,6.2339146E-2],"categories":[],"categories_nodes":[],"categories_segments":[],"categories_sizes":[],"default_left":[0,0,0,0,0,0,0,0,0,0,0,0,0,0,0,0,0,0,0,0,0,0,0,0,0,0,0,0,0,0,0,0,0,0,0,0,0,0,0,0,0,0,0,0,0,0,0,0,0,0,0,0,0,0,0,0,0,0,0,0,0,0,0,0,0,0,0,0,0,0,0,0,0,0,0,0,0,0,0,0,0,0,0,0,0,0,0,0,0,0,0,0,0,0,0,0,0,0,0,0,0,0,0],"id":4,"left_children":[1,3,5,7,9,11,13,15,17,19,21,23,25,27,29,31,33,35,37,39,41,43,45,47,-1,49,51,53,55,57,-1,59,61,63,65,67,-1,69,71,73,-1,75,-1,-1,77,79,81,-1,83,85,87,89,91,93,-1,95,97,99,101,-1,-1,-1,-1,-1,-1,-1,-1,-1,-1,-1,-1,-1,-1,-1,-1,-1,-1,-1,-1,-1,-1,-1,-1,-1,-1,-1,-1,-1,-1,-1,-1,-1,-1,-1,-1,-1,-1,-1,-1,-1,-1,-1,-1],"loss_changes":[1.1416557E4,1.5248394E3,1.6181504E3,7.4843115E2,4.966729E2,1.7490002E2,5.045703E2,6.087964E1,3.5194702E2,8.511438E1,7.354412E1,1.5287836E2,6.0753227E1,3.5784766E2,1.965556E2,1.9360474E1,3.79209E1,1.7371675E2,2.0980469E2,2.1598816E1,1.1468941E1,2.8738478E1,5.4813538E0,1.09878784E2,0E0,4.4064083E0,2.3828072E1,2.9680176E1,3.533164E2,6.861447E1,0E0,2.572754E0,8.890503E0,8.783691E0,3.3462524E0,1.08742905E2,0E0,1.4078442E2,1.846344E2,9.012939E0,0E0,1.0165443E0,0E0,0E0,8.230318E0,5.500412E-2,5.0324783E0,0E0,8.878461E1,2.1702118E0,1.228377E0,1.8239792E1,4.287092E1,6.734836E1,0E0,4.9061914E2,1.438435E2,3.954966E1,2.7680908E1,0E0,0E0,0E0,0E0,0E0,0E0,0E0,0E0,0E0,0E0,0E0,0E0,0E0,0E0,0E0,0E0,0E0,0E0,0E0,0E0,0E0,0E0,0E0,0E0,0E0,0E0,0E0,0E0,0E0,0E0,0E0,0E0,0E0,0E0,0E0,0E0,0E0,0E0,0E0,0E0,0E0,0E0,0E0,0E0],"parents":[2147483647,0,0,1,1,2,2,3,3,4,4,5,5,6,6,7,7,8,8,9,9,10,10,11,11,12,12,13,13,14,14,15,15,16,16,17,17,18,18,19,19,20,20,21,21,22,22,23,23,25,25,26,26,27,27,28,28,29,29,31,31,32,32,33,33,34,34,35,35,37,37,38,38,39,39,41,41,44,44,45,45,46,46,48,48,49,49,50,50,51,51,52,52,53,53,55,55,56,56,57,57,58,58],"right_children":[2,4,6,8,10,12,14,16,18,20,22,24,26,28,30,32,34,36,38,40,42,44,46,48,-1,50,52,54,56,58,-1,60,62,64,66,68,-1,70,72,74,-1,76,-1,-1,78,80,82,-1,84,86,88,90,92,94,-1,96,98,100,102,-1,-1,-1,-1,-1,-1,-1,-1,-1,-1,-1,-1,-1,-1,-1,-1,-1,-1,-1,-1,-1,-1,-1,-1,-1,-1,-1,-1,-1,-1,-1,-1,-1,-1,-1,-1,-1,-1,-1,-1,-1,-1,-1,-1],"split_conditions":[1.1631493E-1,4.93319E0,8.5162085E-1,-1.160351E0,-1.7147672E0,1.1735345E0,-4.4247887E-1,-1.7147672E0,-1.7147672E0,-2.075805E0,-6.316541E-1,2.3961973E0,2.3764977E-1,4.0876085E-1,1.5999303E0,3.6559513E0,-1.1656058E0,4.755906E0,-6.718887E-1,7.495096E-1,4.0928707E0,-1.5058548E0,-1.6215412E-1,-1.5637778E0,2.9526343E0,1.8974444E-1,4.163595E0,1.2452908E-1,-8.560356E-1,9.0064126E-1,1.262457E0,-1.1831762E0,-2.075805E0,1.8114188E0,-1.3537295E0,-1.1130117E0,-7.489238E-1,-2.522585E-1,4.0928707E0,-1.5085722E0,6.988294E-1,3.6160417E0,9.9821955E-1,-3.5380572E-1,3.6160417E0,1.4451401E0,-3.3469573E-1,2.4385176E0,1.8114188E0,1.6411917E-1,1.480465E0,4.5208917E0,-1.3234994E0,-3.2254472E-1,2.6130986E0,5.638106E0,-1.1332791E0,-2.7061635E-1,9.991912E-1,-1.118044E0,-7.7611965E-1,-8.524303E-1,-3.7756765E-1,-1.5030861E0,-4.1870725E-1,-8.0781335E-1,-1.1724274E0,-5.350746E-1,1.990579E-2,-6.875652E-1,-1.0850235E0,-5.5535406E-1,6.600694E-1,9.104822E-1,1.6917442E0,4.7469586E-1,2.1339345E-1,3.7122637E-1,-2.2912934E-2,-6.238226E-1,-2.2296056E-1,-4.8377332E-1,-1.953112E-1,4.8277622E-1,-8.889777E-1,-1.4989603E-1,-3.5969853E-1,-3.1594347E-2,-1.928075E-1,2.0148742E-1,-3.196085E-1,1.7887546E0,2.588917E-1,5.676572E-1,2.1034906E0,2.3124223E0,6.405873E-1,5.4976195E-1,1.1669043E0,6.1601114E-1,-1.3181734E-2,7.1525806E-1,6.2339146E-2],"split_indices":[2,31,2,61,0,0,3,0,0,0,0,1,2,59,2,19,2,36,61,1,16,1,3,3,0,1,11,1,4,2,0,61,0,4,0,61,0,3,16,1,0,8,0,0,8,1,1,0,4,2,1,22,3,4,0,51,3,0,3,0,0,0,0,0,0,0,0,0,0,0,0,0,0,0,0,0,0,0,0,0,0,0,0,0,0,0,0,0,0,0,0,0,0,0,0,0,0,0,0,0,0,0,0],"split_type":[0,0,0,0,0,0,0,0,0,0,0,0,0,0,0,0,0,0,0,0,0,0,0,0,0,0,0,0,0,0,0,0,0,0,0,0,0,0,0,0,0,0,0,0,0,0,0,0,0,0,0,0,0,0,0,0,0,0,0,0,0,0,0,0,0,0,0,0,0,0,0,0,0,0,0,0,0,0,0,0,0,0,0,0,0,0,0,0,0,0,0,0,0,0,0,0,0,0,0,0,0,0,0],"sum_hessian":[2.0784275E3,1.1528239E3,9.256037E2,1.0272329E3,1.2559099E2,4.04841E2,5.207627E2,2.4399785E2,7.8323505E2,5.1235844E1,7.435515E1,2.3544746E2,1.6939355E2,3.4836743E2,1.7239526E2,1.1003912E2,1.3395872E2,2.1787027E2,5.6536475E2,2.9691011E1,2.154483E1,3.6415035E1,3.794011E1,2.3412717E2,1.3203021E0,4.2692684E1,1.2670087E2,3.4219463E1,3.1414798E2,1.2871283E2,4.3682438E1,8.9544785E1,2.0494337E1,8.4618546E1,4.9340183E1,1.6663443E2,5.1235844E1,3.40815E2,2.2454973E2,2.375281E1,5.9382024E0,1.7235865E1,4.308966E0,6.743884E0,2.9671152E1,1.2095529E1,2.584458E1,1.6111307E0,2.3251604E2,2.3412117E1,1.9280567E1,1.1843777E2,8.2631E0,1.4375805E1,1.9843658E1,7.6557625E1,2.3759035E2,4.002112E1,8.869171E1,7.661789E1,1.2926899E1,1.1876405E1,8.617932E0,8.3007416E1,1.6111307E0,1.4702133E1,3.463805E1,4.1567417E1,1.2506701E2,1.8602013E2,1.5479488E2,2.1349606E2,1.1053669E1,5.9382024E0,1.7814608E1,1.2926899E1,4.308966E0,2.3912704E1,5.758447E0,1.0571412E1,1.5241175E0,9.859047E0,1.5985532E1,2.2907407E2,3.4419613E0,9.640284E0,1.3771833E1,1.3771833E1,5.5087333E0,1.1292903E2,5.5087333E0,1.3771833E0,6.8859167E0,4.6210575E0,9.754747E0,5.2804817E1,2.375281E1,4.455808E1,1.9303227E2,1.2272352E1,2.7748768E1,8.219018E1,6.5015283E0],"tree_param":{"num_deleted":"0","num_feature":"62","num_nodes":"103","size_leaf_vector":"1"}},{"base_weights":[2.7120674E-2,-1.2669907E0,2.1574275E0,-1.986589E0,-2.0264661E-1,1.802653E0,3.995085E0,-2.2839265E0,-4.949746E-1,2.3030841E0,-4.5773953E-1,2.9109094E0,1.1259949E0,5.460541E0,3.393848E0,-5.578851E-1,-2.414146E0,4.2149267E-1,-3.1910925E0,4.299443E-1,3.37634E0,-1.1274587E0,2.983656E-2,2.3542116E0,4.39718E0,3.6762998E0,1.0129647E0,4.0714827E0,6.220614E0,3.8727326E0,2.975292E0,-7.32045E-1,4.8211083E-1,-3.1999254E0,-2.1778586E0,-1.0975603E-1,1.2645878E0,-9.8090625E-1,-4.0182707E-1,1.4025953E-3,1.8771067E-1,3.701035E0,5.193971E-1,-1.5953454E0,-1.3199735E-1,1.262914E0,-2.5325894E-1,1.8423709E0,3.661105E0,1.9958228E0,2.420571E0,2.4594007E0,2.246311E0,4.50346E-1,1.4150218E0,4.2765626E-1,1.5243642E0,6.514584E0,7.100143E-1,5.104773E-1,1.2028123E0,5.842301E-1,9.48651E-1,-6.698415E-1,-5.0109696E-2,-7.5831205E-1,-1.0727662E0,-8.2857716E-1,-5.4575604E-1,4.498328E-2,-2.647082E-1,5.564407E-1,1.6401991E-1,9.1438353E-1,1.4815854E0,-1.8376529E-1,-5.256212E-1,6.561888E-1,-1.04605265E-1,1.9859204E-1,2.5156617E0,-2.7138576E-1,9.951038E-2,3.40629E-1,6.377838E-1,1.1955553E0,7.6349336E-1,-7.100482E-2,8.3261406E-1,1.5331516E0,4.662148E-1,1.4935738E-1,-7.900399E-1,4.0084347E-1,1.183684E0,2.0474956E0,8.014185E-1],"categories":[],"categories_nodes":[],"categories_segments":[],"categories_sizes":[],"default_left":[0,0,0,0,0,0,0,0,0,0,0,0,0,0,0,0,0,0,0,0,0,0,0,0,0,0,0,0,0,0,0,0,0,0,0,0,0,0,0,0,0,0,0,0,0,0,0,0,0,0,0,0,0,0,0,0,0,0,0,0,0,0,0,0,0,0,0,0,0,0,0,0,0,0,0,0,0,0,0,0,0,0,0,0,0,0,0,0,0,0,0,0,0,0,0,0,0],"id":5,"left_children":[1,3,5,7,9,11,13,15,17,19,21,23,25,27,29,31,33,35,37,39,41,43,45,47,49,51,53,55,57,59,61,63,-1,65,67,69,71,-1,-1,-1,-1,73,-1,75,77,79,81,83,85,-1,87,89,-1,91,93,-1,-1,95,-1,-1,-1,-1,-1,-1,-1,-1,-1,-1,-1,-1,-1,-1,-1,-1,-1,-1,-1,-1,-1,-1,-1,-1,-1,-1,-1,-1,-1,-1,-1,-1,-1,-1,-1,-1,-1,-1,-1],"loss_changes":[5.7354126E3,9.908462E2,5.0536523E2,3.4128662E2,3.3546338E2,4.9226416E2,9.283618E1,1.4327832E2,3.2156946E2,9.606198E1,1.553576E2,1.963977E2,1.1501758E2,1.1762207E1,6.971924E0,1.8686245E1,1.0406421E2,4.385499E1,4.222107E-1,1.5633862E0,9.9852295E0,9.3141174E1,9.674927E1,1.1629608E2,2.8233044E2,6.0902634E1,8.889963E1,3.368341E1,8.159119E0,4.9609985E0,4.128357E0,3.665629E1,0E0,2.5363403E1,9.194702E1,1.2330679E1,1.5004894E1,0E0,0E0,0E0,0E0,4.953888E0,0E0,1.9913666E1,3.3516712E1,2.1593501E2,8.621776E1,2.4486725E1,8.215637E0,0E0,3.577397E1,2.6744995E1,0E0,2.5697124E1,4.0714172E1,0E0,0E0,4.1536255E0,0E0,0E0,0E0,0E0,0E0,0E0,0E0,0E0,0E0,0E0,0E0,0E0,0E0,0E0,0E0,0E0,0E0,0E0,0E0,0E0,0E0,0E0,0E0,0E0,0E0,0E0,0E0,0E0,0E0,0E0,0E0,0E0,0E0,0E0,0E0,0E0,0E0,0E0,0E0],"parents":[2147483647,0,0,1,1,2,2,3,3,4,4,5,5,6,6,7,7,8,8,9,9,10,10,11,11,12,12,13,13,14,14,15,15,16,16,17,17,18,18,19,19,20,20,21,21,22,22,23,23,24,24,25,25,26,26,27,27,28,28,29,29,30,30,31,31,33,33,34,34,35,35,36,36,41,41,43,43,44,44,45,45,46,46,47,47,48,48,50,50,51,51,53,53,54,54,57,57],"right_children":[2,4,6,8,10,12,14,16,18,20,22,24,26,28,30,32,34,36,38,40,42,44,46,48,50,52,54,56,58,60,62,64,-1,66,68,70,72,-1,-1,-1,-1,74,-1,76,78,80,82,84,86,-1,88,90,-1,92,94,-1,-1,96,-1,-1,-1,-1,-1,-1,-1,-1,-1,-1,-1,-1,-1,-1,-1,-1,-1,-1,-1,-1,-1,-1,-1,-1,-1,-1,-1,-1,-1,-1,-1,-1,-1,-1,-1,-1,-1,-1,-1],"split_conditions":[5.334472E-1,-6.718887E-1,1.5999303E0,4.315873E0,-2.075805E0,-1.3537295E0,4.0876085E-1,-1.0431747E0,8.124968E-1,-5.5743486E-1,-1.8524387E-1,1.0234729E0,-8.560356E-1,1.2452908E-1,-6.326992E-1,3.6866817E0,-1.1656058E0,-2.2205474E-2,1.5348111E0,-9.3250316E-1,7.495096E-1,-1.3760968E-1,-1.3537295E0,4.7985272E0,-2.075805E0,4.7985272E0,-9.5572755E-2,-3.2254472E-1,4.5208917E0,1.8235157E0,-6.6892445E-1,-4.2980146E-1,4.8211083E-1,-1.7147672E0,-4.2980146E-1,2.1094616E-1,2.1094616E-1,-9.8090625E-1,-4.0182707E-1,1.4025953E-3,1.8771067E-1,6.5440387E-1,5.193971E-1,-6.2195754E-1,9.0421356E-2,9.913499E-1,-1.4235185E-1,-1.0004358E0,3.8633811E0,1.9958228E0,-1.11728E0,5.9052175E-1,2.246311E0,1.8114188E0,2.667928E0,4.2765626E-1,1.5243642E0,4.065501E0,7.100143E-1,5.104773E-1,1.2028123E0,5.842301E-1,9.48651E-1,-6.698415E-1,-5.0109696E-2,-7.5831205E-1,-1.0727662E0,-8.2857716E-1,-5.4575604E-1,4.498328E-2,-2.647082E-1,5.564407E-1,1.6401991E-1,9.1438353E-1,1.4815854E0,-1.8376529E-1,-5.256212E-1,6.561888E-1,-1.04605265E-1,1.9859204E-1,2.5156617E0,-2.7138576E-1,9.951038E-2,3.40629E-1,6.377838E-1,1.1955553E0,7.6349336E-1,-7.100482E-2,8.3261406E-1,1.5331516E0,4.662148E-1,1.4935738E-1,-7.900399E-1,4.0084347E-1,1.183684E0,2.0474956E0,8.014185E-1],"split_indices":[61,61,2,55,0,0,59,3,0,2,1,2,4,1,3,12,2,1,1,1,1,61,0,53,0,53,1,4,17,2,1,1,0,0,1,4,4,0,0,0,0,1,0,61,0,1,2,1,21,0,1,2,0,4,1,0,0,25,0,0,0,0,0,0,0,0,0,0,0,0,0,0,0,0,0,0,0,0,0,0,0,0,0,0,0,0,0,0,0,0,0,0,0,0,0,0,0],"split_type":[0,0,0,0,0,0,0,0,0,0,0,0,0,0,0,0,0,0,0,0,0,0,0,0,0,0,0,0,0,0,0,0,0,0,0,0,0,0,0,0,0,0,0,0,0,0,0,0,0,0,0,0,0,0,0,0,0,0,0,0,0,0,0,0,0,0,0,0,0,0,0,0,0,0,0,0,0,0,0,0,0,0,0,0,0,0,0,0,0,0,0,0,0,0,0,0,0],"sum_hessian":[2.0784275E3,1.2932275E3,7.852001E2,7.7105457E2,5.22173E2,6.59801E2,1.25399E2,6.424564E2,1.2859811E2,4.750562E1,4.7466736E2,2.4887772E2,4.1092334E2,3.4129528E1,9.126948E1,4.5439926E1,5.9701654E2,9.660403E1,3.199408E1,1.7814608E1,2.9691011E1,1.9942757E2,2.752398E2,1.8293974E2,6.593797E1,1.6101408E1,3.9482193E2,1.4318573E1,1.9810953E1,3.8718105E1,5.2551373E1,4.266921E1,2.7707186E0,1.3512206E2,4.6189447E2,5.979561E1,3.680842E1,2.9956745E1,2.0373344E0,5.9382024E0,1.1876405E1,2.375281E1,5.9382024E0,1.3525322E2,6.417434E1,5.074575E1,2.2449405E2,1.3318715E2,4.9752605E1,2.9691011E1,3.6246964E1,1.345181E1,2.6495988E0,1.6543727E2,2.2938466E2,4.6210575E0,9.6975155E0,1.7765444E1,2.0455103E0,3.088998E0,3.562911E1,9.841643E0,4.270973E1,1.0863175E1,3.1806032E1,5.1235844E1,8.3886215E1,1.7318222E2,2.8871222E2,4.535581E1,1.4439801E1,1.9330898E1,1.7477522E1,1.7814608E1,5.9382024E0,1.9277292E1,1.1597594E2,4.7063165E0,5.946802E1,4.780532E1,2.9404266E0,1.0595993E2,1.1853412E2,3.9562786E1,9.362436E1,3.656501E1,1.3187595E1,4.308966E0,3.1937998E1,2.2419682E0,1.1209842E1,1.637529E2,1.684364E0,2.239328E2,5.451852E0,1.57199335E1,2.0455103E0],"tree_param":{"num_deleted":"0","num_feature":"62","num_nodes":"97","size_leaf_vector":"1"}},{"base_weights":[2.898905E-2,-8.8911813E-1,1.5309122E0,-1.3962159E0,-1.3467784E-1,1.2744348E0,2.8658407E0,-1.6041014E0,-3.5328802E-1,-4.4392622E-1,1.0786258E0,2.0604265E0,7.980842E-1,3.9792552E0,2.4108737E0,-5.274006E-1,-1.7354252E0,3.0017576E-1,-2.2756758E0,1.5443299E0,-4.9297032E-1,1.9774565E0,2.0052549E-1,1.6639156E0,3.1192229E0,4.3600727E-2,9.925105E-1,3.2281845E0,5.068899E0,1.6203488E0,2.5488198E0,4.0489024E-1,-8.468874E-1,-1.1982113E0,-2.066965E0,-8.0936426E-1,5.116445E-1,-7.1872467E-1,-4.231139E-1,-8.990361E-1,1.458415E-2,2.4584303E0,1.234979E0,5.994738E-1,-1.11263E0,1.2969487E0,2.6013718E0,4.721953E0,1.7148501E0,1.140643E0,-1.12437695E-1,1.6804712E0,7.93032E-1,1.4633154E0,1.1221769E0,1.6309352E0,6.3993645E-1,1.6808743E0,1.15909845E-1,1.9198312E0,8.3072394E-1,-1.363495E-1,6.340226E-1,-3.5390675E-1,-9.098035E-2,-4.5250687E-1,-1.0098108E-1,-2.7352282E-1,-6.4858013E-1,-1.4622079E-1,-2.9109305E-1,5.7766017E-2,2.8343934E-1,-2.8627692E-2,-4.4772145E-1,2.20078E-1,-3.9284624E-2,8.062565E-1,3.8603696E-1,2.522675E-1,7.0680475E-1,-1.3776301E-1,2.5209242E-1,-5.489344E-1,-2.2025453E-1,2.409594E-1,4.4846985E-1,5.7582355E-1,8.735814E-1,1.0781751E0,1.8010472E0,3.4653455E-2,6.2925154E-1,5.305453E-1,-1.7434773E-1,-9.6781895E-2,2.7558511E-1,4.313615E-1,2.5434606E0,2.4925694E-1,-7.209616E-1,2.204922E-1,5.2188385E-1,1.534775E-1,5.317589E-1,6.0382736E-1,2.8047326E-1],"categories":[],"categories_nodes":[],"categories_segments":[],"categories_sizes":[],"default_left":[0,0,0,0,0,0,0,0,0,0,0,0,0,0,0,0,0,0,0,0,0,0,0,0,0,0,0,0,0,0,0,0,0,0,0,0,0,0,0,0,0,0,0,0,0,0,0,0,0,0,0,0,0,0,0,0,0,0,0,0,0,0,0,0,0,0,0,0,0,0,0,0,0,0,0,0,0,0,0,0,0,0,0,0,0,0,0,0,0,0,0,0,0,0,0,0,0,0,0,0,0,0,0,0,0,0,0],"id":6,"left_children":[1,3,5,7,9,11,13,15,17,19,21,23,25,27,29,31,33,35,37,-1,39,41,43,45,47,49,51,53,55,57,59,61,63,65,67,69,71,-1,-1,73,75,77,79,81,83,85,87,89,91,93,95,97,99,101,-1,-1,-1,103,-1,105,-1,-1,-1,-1,-1,-1,-1,-1,-1,-1,-1,-1,-1,-1,-1,-1,-1,-1,-1,-1,-1,-1,-1,-1,-1,-1,-1,-1,-1,-1,-1,-1,-1,-1,-1,-1,-1,-1,-1,-1,-1,-1,-1,-1,-1,-1,-1],"loss_changes":[2.8687388E3,4.937815E2,2.6657263E2,1.6682178E2,1.9563261E2,2.469093E2,5.4435913E1,9.006763E1,1.6348563E2,1.1639716E2,8.321269E1,9.97146E1,6.083087E1,1.2386658E1,5.932007E0,2.1605686E1,9.959119E1,2.3315231E1,4.916382E-2,0E0,8.502653E1,1.5617966E1,2.9321924E1,5.9904297E1,1.4256854E2,1.4862318E1,4.394156E1,1.5822632E1,1.9779968E0,5.794716E-1,5.3259583E0,2.870556E1,9.319546E0,5.856955E1,3.6755493E1,3.567791E-1,1.123358E1,0E0,0E0,1.09133865E2,1.9382833E1,4.7795715E0,7.9788437E0,1.1247961E1,2.2107964E0,1.1914505E1,5.159912E0,2.2791504E1,2.2552673E1,1.2711298E1,1.6822676E1,1.08629364E2,3.3144943E1,1.1830044E-1,0E0,0E0,0E0,7.421417E-1,0E0,2.4012756E-1,0E0,0E0,0E0,0E0,0E0,0E0,0E0,0E0,0E0,0E0,0E0,0E0,0E0,0E0,0E0,0E0,0E0,0E0,0E0,0E0,0E0,0E0,0E0,0E0,0E0,0E0,0E0,0E0,0E0,0E0,0E0,0E0,0E0,0E0,0E0,0E0,0E0,0E0,0E0,0E0,0E0,0E0,0E0,0E0,0E0,0E0,0E0],"parents":[2147483647,0,0,1,1,2,2,3,3,4,4,5,5,6,6,7,7,8,8,9,9,10,10,11,11,12,12,13,13,14,14,15,15,16,16,17,17,18,18,20,20,21,21,22,22,23,23,24,24,25,25,26,26,27,27,28,28,29,29,30,30,31,31,32,32,33,33,34,34,35,35,36,36,39,39,40,40,41,41,42,42,43,43,44,44,45,45,46,46,47,47,48,48,49,49,50,50,51,51,52,52,53,53,57,57,59,59],"right_children":[2,4,6,8,10,12,14,16,18,20,22,24,26,28,30,32,34,36,38,-1,40,42,44,46,48,50,52,54,56,58,60,62,64,66,68,70,72,-1,-1,74,76,78,80,82,84,86,88,90,92,94,96,98,100,102,-1,-1,-1,104,-1,106,-1,-1,-1,-1,-1,-1,-1,-1,-1,-1,-1,-1,-1,-1,-1,-1,-1,-1,-1,-1,-1,-1,-1,-1,-1,-1,-1,-1,-1,-1,-1,-1,-1,-1,-1,-1,-1,-1,-1,-1,-1,-1,-1,-1,-1,-1,-1],"split_conditions":[5.293508E-1,-6.718887E-1,1.5999303E0,4.315873E0,4.93319E0,-1.3537295E0,4.0876085E-1,4.0876085E-1,8.124968E-1,-1.7339749E0,-1.7147672E0,1.0234729E0,-9.161993E-1,2.7941555E-1,-3.2254472E-1,-1.1533023E0,-1.7147672E0,-1.4406395E0,1.0375441E0,1.5443299E0,-1.4235185E-1,-2.075805E0,-2.7061635E-1,4.7985272E0,-2.075805E0,4.0876085E-1,-3.2254472E-1,-3.2254472E-1,4.065501E0,3.772202E0,-5.9283984E-1,4.3973663E-1,4.93319E0,4.557789E0,-1.0431747E0,-8.560356E-1,5.6596417E-2,-7.1872467E-1,-4.231139E-1,-6.1134505E-1,9.0421356E-2,7.495096E-1,4.0928707E0,-1.5058548E0,8.124968E-1,-1.0004358E0,-2.075805E0,-6.607725E-1,-9.161993E-1,8.124968E-1,1.1227993E0,2.667928E0,1.8114188E0,-6.6892445E-1,1.1221769E0,1.6309352E0,6.3993645E-1,-1.4080318E0,1.15909845E-1,1.2779279E0,8.3072394E-1,-1.363495E-1,6.340226E-1,-3.5390675E-1,-9.098035E-2,-4.5250687E-1,-1.0098108E-1,-2.7352282E-1,-6.4858013E-1,-1.4622079E-1,-2.9109305E-1,5.7766017E-2,2.8343934E-1,-2.8627692E-2,-4.4772145E-1,2.20078E-1,-3.9284624E-2,8.062565E-1,3.8603696E-1,2.522675E-1,7.0680475E-1,-1.3776301E-1,2.5209242E-1,-5.489344E-1,-2.2025453E-1,2.409594E-1,4.4846985E-1,5.7582355E-1,8.735814E-1,1.0781751E0,1.8010472E0,3.4653455E-2,6.2925154E-1,5.305453E-1,-1.7434773E-1,-9.6781895E-2,2.7558511E-1,4.313615E-1,2.5434606E0,2.4925694E-1,-7.209616E-1,2.204922E-1,5.2188385E-1,1.534775E-1,5.317589E-1,6.0382736E-1,2.8047326E-1],"split_indices":[61,61,2,55,31,0,59,59,0,3,0,2,1,1,4,3,0,1,1,0,2,0,0,53,0,59,4,4,25,23,1,1,31,46,3,4,1,0,0,61,0,1,16,1,0,1,0,1,1,0,61,1,4,1,0,0,0,1,0,4,0,0,0,0,0,0,0,0,0,0,0,0,0,0,0,0,0,0,0,0,0,0,0,0,0,0,0,0,0,0,0,0,0,0,0,0,0,0,0,0,0,0,0,0,0,0,0],"split_type":[0,0,0,0,0,0,0,0,0,0,0,0,0,0,0,0,0,0,0,0,0,0,0,0,0,0,0,0,0,0,0,0,0,0,0,0,0,0,0,0,0,0,0,0,0,0,0,0,0,0,0,0,0,0,0,0,0,0,0,0,0,0,0,0,0,0,0,0,0,0,0,0,0,0,0,0,0,0,0,0,0,0,0,0,0,0,0,0,0,0,0,0,0,0,0,0,0,0,0,0,0,0,0,0,0,0,0],"sum_hessian":[2.0784275E3,1.2901703E3,7.8825726E2,7.7105457E2,5.191157E2,6.628583E2,1.25399E2,6.424564E2,1.2859811E2,4.141825E2,1.04933235E2,2.4887772E2,4.1398056E2,3.4129528E1,9.126948E1,7.0386444E1,5.7207E2,9.660403E1,3.199408E1,2.6972518E0,4.1148526E2,5.1235844E1,5.3697395E1,1.8293974E2,6.593797E1,8.507314E1,3.289074E2,2.254932E1,1.1580207E1,1.5453984E1,7.581549E1,1.789626E1,5.249018E1,2.2007825E2,3.5199176E2,1.5011887E1,8.159214E1,2.6542229E1,5.451852E0,2.2816887E2,1.8331639E2,2.9691011E1,2.154483E1,4.1601868E1,1.2095529E1,1.3318715E2,4.9752605E1,2.9691011E1,3.6246964E1,9.807887E0,7.526525E1,7.2262955E1,2.5664447E2,5.9413595E0,1.660796E1,9.534697E0,2.0455103E0,1.4386203E1,1.0677817E0,2.2183378E1,5.3632114E1,1.2395351E1,5.5009084E0,3.1832432E1,2.065775E1,1.6127496E2,5.880328E1,2.7543667E1,3.244481E2,6.345833E0,8.666053E0,4.7813736E1,3.3778408E1,9.740808E1,1.3076079E2,3.0178408E1,1.5313799E2,2.375281E1,5.9382024E0,1.7235865E1,4.308966E0,7.541858E0,3.406001E1,2.853414E0,9.242115E0,3.9562786E1,9.362436E1,1.7814608E1,3.1937998E1,1.7814608E1,1.1876405E1,7.2493925E0,2.899757E1,7.1672826E0,2.6406043E0,6.3091824E1,1.217343E1,7.094265E1,1.3203021E0,2.5437424E2,2.2702298E0,2.6406043E0,3.3007553E0,1.5241175E0,1.2862085E1,1.9317238E1,2.8661413E0],"tree_param":{"num_deleted":"0","num_feature":"62","num_nodes":"107","size_leaf_vector":"1"}},{"base_weights":[2.7725065E-2,-7.224753E-1,9.6185833E-1,-8.854033E-1,6.066112E-1,3.7830883E-1,1.4139153E0,-1.4702268E0,-7.0157325E-1,1.4254043E0,3.0977484E-2,1.7808541E0,3.414718E-1,1.6874576E0,8.0971587E-1,-6.686191E-1,-1.2795782E0,-2.3327222E-1,-1.0134859E0,5.5692375E-1,1.6240898E0,4.9046004E-1,-4.1130516E-1,3.1216028E-1,1.2331101E0,1.4776236E0,2.520533E0,5.891681E-2,1.3332456E0,-1.1508107E0,-1.6405795E0,-1.2538359E0,-4.078197E-2,-1.2958385E0,-4.6671778E-1,2.3491122E-1,4.6955105E-2,1.9624254E0,1.0757835E0,3.0439156E-1,5.0710344E-1,-4.2699018E-1,-2.9184446E-1,7.164116E-1,1.17329046E-1,1.7186712E0,3.5118333E-1,2.0612395E0,1.0732735E0,5.133414E-1,-5.8946216E-1,1.7009159E0,1.0911362E0,-4.8015097E-1,-3.1591654E-1,-6.6969854E-1,-4.287265E-1,-2.9140922E-1,-5.246681E-1,-5.8109287E-2,2.5090706E-1,-3.9494345E-1,5.7776064E-1,4.7985724E-1,-2.1922822E-1,6.687344E-1,2.8691694E-1,4.0289858E-1,5.1653218E-2,-1.0443352E-1,1.355371E-1,-1.5513247E-1,-3.249647E-2,2.4079332E-1,-1.6664608E-1,4.491146E-2,-5.6123924E-1,5.931775E-1,3.048441E-1,-4.7292314E-2,2.7377057E-1,5.125385E-1,7.949883E-1,1.5143354E-2,3.6060384E-1,-2.055305E-1,1.3370955E-1,6.054981E-1,4.1627085E-1,2.195022E-2,4.3980107E-1],"categories":[],"categories_nodes":[],"categories_segments":[],"categories_sizes":[],"default_left":[0,0,0,0,0,0,0,0,0,0,0,0,0,0,0,0,0,0,0,0,0,0,0,0,0,0,0,0,0,0,0,0,0,0,0,0,0,0,0,0,0,0,0,0,0,0,0,0,0,0,0,0,0,0,0,0,0,0,0,0,0,0,0,0,0,0,0,0,0,0,0,0,0,0,0,0,0,0,0,0,0,0,0,0,0,0,0,0,0,0,0],"id":7,"left_children":[1,3,5,7,9,11,13,15,17,19,21,-1,23,25,27,-1,29,31,33,35,37,39,41,43,-1,45,47,49,51,53,55,57,59,61,63,-1,-1,65,67,69,-1,-1,71,73,75,77,79,81,-1,83,85,87,89,-1,-1,-1,-1,-1,-1,-1,-1,-1,-1,-1,-1,-1,-1,-1,-1,-1,-1,-1,-1,-1,-1,-1,-1,-1,-1,-1,-1,-1,-1,-1,-1,-1,-1,-1,-1,-1,-1],"loss_changes":[1.4579309E3,2.5039233E2,2.4390118E2,1.0951178E2,5.9621338E1,8.106305E1,8.486719E1,3.257672E1,1.1431601E2,8.109032E0,1.5515488E1,0E0,4.3372982E1,5.889795E1,6.459111E1,0E0,7.322418E0,6.1794655E1,7.201871E1,8.957317E-1,5.678215E0,7.8387804E0,4.292231E0,3.1592937E1,0E0,7.775226E1,2.6931E1,2.0526123E1,6.7686615E0,4.881851E0,3.0351562E0,5.2823563E0,3.582624E1,2.3125793E1,8.942159E1,0E0,0E0,4.509262E0,4.171894E0,3.3899744E0,0E0,0E0,1.435848E0,1.4770363E1,1.7825851E1,4.1127136E1,1.5032947E1,6.1929016E0,0E0,1.2973289E1,3.1515388E0,8.475723E-1,2.325016E1,0E0,0E0,0E0,0E0,0E0,0E0,0E0,0E0,0E0,0E0,0E0,0E0,0E0,0E0,0E0,0E0,0E0,0E0,0E0,0E0,0E0,0E0,0E0,0E0,0E0,0E0,0E0,0E0,0E0,0E0,0E0,0E0,0E0,0E0,0E0,0E0,0E0,0E0],"parents":[2147483647,0,0,1,1,2,2,3,3,4,4,5,5,6,6,7,7,8,8,9,9,10,10,12,12,13,13,14,14,16,16,17,17,18,18,19,19,20,20,21,21,22,22,23,23,25,25,26,26,27,27,28,28,29,29,30,30,31,31,32,32,33,33,34,34,37,37,38,38,39,39,42,42,43,43,44,44,45,45,46,46,47,47,49,49,50,50,51,51,52,52],"right_children":[2,4,6,8,10,12,14,16,18,20,22,-1,24,26,28,-1,30,32,34,36,38,40,42,44,-1,46,48,50,52,54,56,58,60,62,64,-1,-1,66,68,70,-1,-1,72,74,76,78,80,82,-1,84,86,88,90,-1,-1,-1,-1,-1,-1,-1,-1,-1,-1,-1,-1,-1,-1,-1,-1,-1,-1,-1,-1,-1,-1,-1,-1,-1,-1,-1,-1,-1,-1,-1,-1,-1,-1,-1,-1,-1,-1],"split_conditions":[1.1631493E-1,4.93319E0,8.5162085E-1,-1.160351E0,-1.7147672E0,-1.5637778E0,-2.822933E-1,-5.656668E-1,-3.2254472E-1,1.1365985E-1,-6.316541E-1,1.7808541E0,2.667928E0,1.6084273E0,1.1227993E0,-6.686191E-1,-7.728616E-1,-1.1363012E0,4.3973663E-1,-2.075805E0,-2.075805E0,7.794E-1,-8.560356E-1,-6.316541E-1,1.2331101E0,1.0921004E0,5.3212506E-1,8.124968E-1,1.1928091E0,-1.6700406E0,-1.6489068E0,-1.3400992E0,4.1349006E0,3.0463093E1,-1.3537295E0,2.3491122E-1,4.6955105E-2,7.495096E-1,3.6160417E0,-1.5085722E0,5.0710344E-1,-4.2699018E-1,-2.9393613E-1,8.043045E-3,1.8114188E0,5.638106E0,1.1798891E0,2.9096355E0,1.0732735E0,3.038713E-1,6.230111E0,1.1735345E0,1.5999303E0,-4.8015097E-1,-3.1591654E-1,-6.6969854E-1,-4.287265E-1,-2.9140922E-1,-5.246681E-1,-5.8109287E-2,2.5090706E-1,-3.9494345E-1,5.7776064E-1,4.7985724E-1,-2.1922822E-1,6.687344E-1,2.8691694E-1,4.0289858E-1,5.1653218E-2,-1.0443352E-1,1.355371E-1,-1.5513247E-1,-3.249647E-2,2.4079332E-1,-1.6664608E-1,4.491146E-2,-5.6123924E-1,5.931775E-1,3.048441E-1,-4.7292314E-2,2.7377057E-1,5.125385E-1,7.949883E-1,1.5143354E-2,3.6060384E-1,-2.055305E-1,1.3370955E-1,6.054981E-1,4.1627085E-1,2.195022E-2,4.3980107E-1],"split_indices":[2,31,2,61,0,3,3,1,4,1,0,0,1,61,61,0,3,1,1,0,0,1,4,0,0,61,1,0,61,61,61,1,6,7,0,0,0,1,8,1,0,0,1,3,4,51,2,2,0,1,28,0,2,0,0,0,0,0,0,0,0,0,0,0,0,0,0,0,0,0,0,0,0,0,0,0,0,0,0,0,0,0,0,0,0,0,0,0,0,0,0],"split_type":[0,0,0,0,0,0,0,0,0,0,0,0,0,0,0,0,0,0,0,0,0,0,0,0,0,0,0,0,0,0,0,0,0,0,0,0,0,0,0,0,0,0,0,0,0,0,0,0,0,0,0,0,0,0,0,0,0,0,0,0,0,0,0,0,0,0,0,0,0,0,0,0,0,0,0,0,0,0,0,0,0,0,0,0,0,0,0,0,0,0,0],"sum_hessian":[2.0784275E3,1.1528239E3,9.256037E2,1.0272329E3,1.2559099E2,4.04841E2,5.207627E2,2.4399785E2,7.8323505E2,5.1235844E1,7.435515E1,1.6111307E0,4.032299E2,3.572364E2,1.6352634E2,4.686264E1,1.9713522E2,3.1381924E2,4.6941577E2,1.0247169E1,4.0988674E1,3.6415035E1,3.794011E1,4.0119254E2,2.0373344E0,2.8757587E2,6.966052E1,6.763824E1,9.58881E1,1.4839221E2,4.8743004E1,4.8922638E1,2.648966E2,3.0865527E2,1.607605E2,5.9382024E0,4.308966E0,2.375281E1,1.7235865E1,3.261158E1,3.8034577E0,2.853414E0,3.5086693E1,1.296036E2,2.7158893E2,2.3645168E2,5.112418E1,5.0617058E1,1.9043463E1,3.988947E1,2.7748768E1,3.567946E1,6.0208637E1,2.375281E1,1.24639404E2,1.0318064E1,3.842494E1,3.3035336E1,1.5887302E1,2.2623515E2,3.8661446E1,3.072781E2,1.3771833E0,1.764256E1,1.4311794E2,1.7814608E1,5.9382024E0,1.2926899E1,4.308966E0,5.758447E0,2.6853132E1,1.4935973E1,2.015072E1,1.21720116E2,7.8834963E0,2.6814697E2,3.4419613E0,1.7150801E2,6.4943665E1,2.719477E1,2.3929409E1,3.409086E1,1.65262E1,2.4497637E1,1.5391832E1,2.5711433E1,2.0373344E0,1.50217085E1,2.065775E1,1.65262E1,4.3682438E1],"tree_param":{"num_deleted":"0","num_feature":"62","num_nodes":"91","size_leaf_vector":"1"}},{"base_weights":[2.2647705E-2,-5.067086E-1,6.8178743E-1,-6.2244874E-1,4.37391E-1,2.7115193E-1,9.99884E-1,-9.3972385E-1,-4.416746E-1,1.0301768E0,2.0670192E-2,1.4512053E0,2.409857E-1,8.7042487E-1,1.7356391E0,-1.0628642E0,-2.3817082E-1,-8.844384E-1,-2.6967397E-1,4.1491032E-1,1.1704487E0,3.1542614E-1,-3.5196984E-1,2.174116E-1,9.849727E-1,1.6998034E0,6.785884E-1,1.5341951E0,9.8273057E-1,-1.354621E0,-8.140504E-1,1.1038369E-1,-4.6934783E-1,7.409279E-1,-9.084168E-1,-5.7531543E-2,-7.420784E-1,1.745957E-1,3.5522852E-2,1.4123069E0,7.7797365E-1,4.5711723E-1,-4.501104E-1,-6.906971E-1,-1.309043E-1,-3.7773108E-1,3.068294E-1,1.0207042E0,2.8253272E0,1.5110782E0,5.2112406E-1,1.3033687E0,5.845633E-1,-3.4406152E-1,-4.9685913E-1,-3.8074303E-1,-1.7726228E-1,-8.774514E-2,9.453715E-2,3.208328E-1,1.5991662E-2,-2.2543438E-1,-3.3764613E-1,2.1500934E-2,-2.2781E-1,-2.5663534E-1,1.3574061E-1,4.7877783E-1,2.1324737E-1,1.3916999E-1,4.366011E-1,2.0948911E-2,2.9719254E-1,1.0510236E-3,-3.3350438E-1,-3.3213633E-1,-1.399764E-1,-7.428907E-2,1.4750476E-1,-3.706363E-1,-5.7371095E-2,4.9698138E-1,7.7178575E-2,1.8237491E-1,7.269105E-1,6.034181E-1,1.138561E0,5.0992674E-1,1.3756637E-1,-7.709643E-2,1.8387893E-1,3.540691E-1,8.201334E-1],"categories":[],"categories_nodes":[],"categories_segments":[],"categories_sizes":[],"default_left":[0,0,0,0,0,0,0,0,0,0,0,0,0,0,0,0,0,0,0,0,0,0,0,0,0,0,0,0,0,0,0,0,0,0,0,0,0,0,0,0,0,0,0,0,0,0,0,0,0,0,0,0,0,0,0,0,0,0,0,0,0,0,0,0,0,0,0,0,0,0,0,0,0,0,0,0,0,0,0,0,0,0,0,0,0,0,0,0,0,0,0,0,0],"id":8,"left_children":[1,3,5,7,9,11,13,15,17,19,21,-1,23,25,27,29,31,33,35,37,39,41,43,45,-1,47,49,51,-1,53,55,57,-1,59,61,63,65,-1,-1,67,69,71,73,75,77,79,81,83,85,87,89,91,-1,-1,-1,-1,-1,-1,-1,-1,-1,-1,-1,-1,-1,-1,-1,-1,-1,-1,-1,-1,-1,-1,-1,-1,-1,-1,-1,-1,-1,-1,-1,-1,-1,-1,-1,-1,-1,-1,-1,-1,-1],"loss_changes":[7.2589886E2,1.2635086E2,1.2076343E2,5.8559357E1,3.1249989E1,5.473686E1,4.8187195E1,3.1911896E1,4.978871E1,4.0225716E0,8.387869E0,0E0,2.8276953E1,6.975958E1,1.888327E1,2.1868683E1,2.646948E1,7.8190155E0,4.751578E1,4.8824942E-1,2.886963E0,4.8267665E0,2.4370623E0,2.151912E1,0E0,6.060289E1,4.6880997E1,4.1582947E0,0E0,7.131653E0,1.6851074E1,3.8846903E0,0E0,6.6955554E-1,5.326187E0,2.9848804E1,2.0292603E1,0E0,0E0,2.0538712E0,3.2044039E0,7.4612427E0,3.7716603E0,7.055621E-1,1.6956679E0,8.238899E0,2.3004581E1,2.9420803E1,1.6594315E1,1.060257E1,2.2111214E1,5.2274017E0,0E0,0E0,0E0,0E0,0E0,0E0,0E0,0E0,0E0,0E0,0E0,0E0,0E0,0E0,0E0,0E0,0E0,0E0,0E0,0E0,0E0,0E0,0E0,0E0,0E0,0E0,0E0,0E0,0E0,0E0,0E0,0E0,0E0,0E0,0E0,0E0,0E0,0E0,0E0,0E0,0E0],"parents":[2147483647,0,0,1,1,2,2,3,3,4,4,5,5,6,6,7,7,8,8,9,9,10,10,12,12,13,13,14,14,15,15,16,16,17,17,18,18,19,19,20,20,21,21,22,22,23,23,25,25,26,26,27,27,29,29,30,30,31,31,33,33,34,34,35,35,36,36,39,39,40,40,41,41,42,42,43,43,44,44,45,45,46,46,47,47,48,48,49,49,50,50,51,51],"right_children":[2,4,6,8,10,12,14,16,18,20,22,-1,24,26,28,30,32,34,36,38,40,42,44,46,-1,48,50,52,-1,54,56,58,-1,60,62,64,66,-1,-1,68,70,72,74,76,78,80,82,84,86,88,90,92,-1,-1,-1,-1,-1,-1,-1,-1,-1,-1,-1,-1,-1,-1,-1,-1,-1,-1,-1,-1,-1,-1,-1,-1,-1,-1,-1,-1,-1,-1,-1,-1,-1,-1,-1,-1,-1,-1,-1,-1,-1],"split_conditions":[1.1631493E-1,4.93319E0,8.5162085E-1,-4.2980146E-1,-1.7147672E0,-1.5637778E0,4.4848228E0,4.315873E0,-1.1570903E0,1.1365985E-1,-2.7061635E-1,1.4512053E0,2.667928E0,-8.560356E-1,1.9886013E0,-9.605434E-1,8.124968E-1,4.0876085E-1,1.1735345E0,-2.075805E0,-2.075805E0,3.6160417E0,1.1735345E0,-1.3672723E0,9.849727E-1,5.932521E0,8.4309137E-1,2.9096355E0,9.8273057E-1,-6.026644E-1,-1.1933646E0,-1.4406395E0,-4.6934783E-1,6.299481E-1,-1.3537295E0,4.755906E0,6.230111E0,1.745957E-1,3.5522852E-2,7.495096E-1,4.0928707E0,3.3647898E-1,-1.3537295E0,8.124968E-1,1.1734095E0,-1.0932328E0,1.17033094E-1,-2.075805E0,-6.607725E-1,3.8633811E0,9.0064126E-1,4.3319693E0,5.845633E-1,-3.4406152E-1,-4.9685913E-1,-3.8074303E-1,-1.7726228E-1,-8.774514E-2,9.453715E-2,3.208328E-1,1.5991662E-2,-2.2543438E-1,-3.3764613E-1,2.1500934E-2,-2.2781E-1,-2.5663534E-1,1.3574061E-1,4.7877783E-1,2.1324737E-1,1.3916999E-1,4.366011E-1,2.0948911E-2,2.9719254E-1,1.0510236E-3,-3.3350438E-1,-3.3213633E-1,-1.399764E-1,-7.428907E-2,1.4750476E-1,-3.706363E-1,-5.7371095E-2,4.9698138E-1,7.7178575E-2,1.8237491E-1,7.269105E-1,6.034181E-1,1.138561E0,5.0992674E-1,1.3756637E-1,-7.709643E-2,1.8387893E-1,3.540691E-1,8.201334E-1],"split_indices":[2,31,2,1,0,3,54,55,61,1,0,0,1,4,1,2,0,59,0,0,0,8,0,1,0,37,61,2,0,3,1,1,0,1,0,36,28,0,0,1,16,1,0,0,1,3,61,0,1,21,2,13,0,0,0,0,0,0,0,0,0,0,0,0,0,0,0,0,0,0,0,0,0,0,0,0,0,0,0,0,0,0,0,0,0,0,0,0,0,0,0,0,0],"split_type":[0,0,0,0,0,0,0,0,0,0,0,0,0,0,0,0,0,0,0,0,0,0,0,0,0,0,0,0,0,0,0,0,0,0,0,0,0,0,0,0,0,0,0,0,0,0,0,0,0,0,0,0,0,0,0,0,0,0,0,0,0,0,0,0,0,0,0,0,0,0,0,0,0,0,0,0,0,0,0,0,0,0,0,0,0,0,0,0,0,0,0,0,0],"sum_hessian":[2.0784275E3,1.1528239E3,9.256037E2,1.0272329E3,1.2559099E2,4.04841E2,5.207627E2,3.713251E2,6.559078E2,5.1235844E1,7.435515E1,1.6111307E0,4.032299E2,4.4469913E2,7.606359E1,3.1544202E2,5.5883064E1,1.8235297E2,4.735548E2,1.0247169E1,4.0988674E1,4.1601868E1,3.275328E1,4.0119254E2,2.0373344E0,8.206064E1,3.626385E2,6.903074E1,7.0328507E0,1.4314597E2,1.7229607E2,4.4979362E1,1.0903704E1,2.2163882E0,1.8013657E2,3.275734E2,1.4598143E2,5.9382024E0,4.308966E0,2.375281E1,1.7235865E1,3.544443E1,6.157434E0,1.2095529E1,2.065775E1,5.198291E1,3.4920966E2,5.236963E1,2.9691011E1,5.6314747E1,3.0632373E2,4.6995804E1,2.2034933E1,8.760183E1,5.554413E1,5.51498E1,1.1714627E2,1.5011887E1,2.9967476E1,1.1240784E0,1.0923097E0,1.0713E2,7.300658E1,2.774038E2,5.0169582E1,1.3358678E2,1.23946495E1,1.7814608E1,5.9382024E0,1.2926899E1,4.308966E0,2.1191977E1,1.4252454E1,2.9404266E0,3.2170076E0,2.853414E0,9.242115E0,1.7903383E1,2.7543666E0,8.279452E0,4.3703457E1,1.1221273E1,3.3798837E2,4.1567417E1,1.0802211E1,1.7814608E1,1.1876405E1,4.723277E1,9.081976E0,3.2137623E1,2.7418613E2,4.495123E1,2.044575E0],"tree_param":{"num_deleted":"0","num_feature":"62","num_nodes":"93","size_leaf_vector":"1"}},{"base_weights":[1.961228E-2,-3.1127748E-1,5.642917E-1,-5.0700814E-1,-2.2382716E-2,6.0961775E-2,6.984138E-1,-5.9910333E-1,-4.6258554E-2,1.0508697E0,-4.735378E-2,1.3572873E-1,-9.630144E-1,1.0810616E0,4.7479466E-1,1.7340386E-1,-6.5814966E-1,3.177007E-1,-1.1215311E0,2.549128E-1,-3.138233E-1,1.9482613E-2,6.477725E-1,-8.2156366E-1,-4.396071E-1,1.0241508E0,1.8536319E0,2.8862366E-1,1.2238413E0,3.2604262E-1,-4.9209407E-1,-4.0657696E-1,-8.037938E-1,4.48015E-2,7.481173E-1,-1.1654929E0,-1.9513277E-2,-1.483177E-1,7.2749203E-1,-1.5707491E-1,-1.266822E0,1.2841526E-1,-9.6425474E-1,8.7941086E-1,-4.3050073E-2,-8.2109606E-1,2.6239252E-1,5.731947E-1,1.2619021E0,1.4344358E0,2.2227094E-1,1.0981867E0,1.6539346E0,1.337202E-1,-5.6076115E-1,-1.6246101E-1,7.940553E-2,-8.614978E-2,-2.659155E-1,-8.614347E-4,3.5302544E-1,3.0464995E-1,1.2402814E-1,-3.620922E-1,-1.13340296E-1,-1.9879259E-1,4.0034864E-2,6.1537904E-1,1.4564581E-1,-1.7604686E-2,-2.1287572E-1,-4.8000476E-1,-2.2890648E-1,6.0878444E-2,-2.2264896E-1,-1.7933974E-1,-3.9858058E-1,9.399058E-2,2.8126255E-1,1.5209249E-1,-1.2193052E-1,-3.0287844E-1,4.8507333E-2,2.3032765E-1,1.7369144E-2,4.3581954E-1,1.9403008E-1,1.6019991E-1,4.556607E-1,8.389333E-2,-2.7083704E-1,3.388162E-1,1.1875385E-1,5.133418E-1,1.6878833E-1],"categories":[],"categories_nodes":[],"categories_segments":[],"categories_sizes":[],"default_left":[0,0,0,0,0,0,0,0,0,0,0,0,0,0,0,0,0,0,0,0,0,0,0,0,0,0,0,0,0,0,0,0,0,0,0,0,0,0,0,0,0,0,0,0,0,0,0,0,0,0,0,0,0,0,0,0,0,0,0,0,0,0,0,0,0,0,0,0,0,0,0,0,0,0,0,0,0,0,0,0,0,0,0,0,0,0,0,0,0,0,0,0,0,0,0],"id":9,"left_children":[1,3,5,7,9,11,13,15,17,-1,19,21,23,25,27,29,31,33,35,37,39,41,43,-1,45,47,-1,49,51,53,-1,55,57,59,61,63,-1,65,67,69,71,73,75,77,79,81,-1,83,85,87,89,91,93,-1,-1,-1,-1,-1,-1,-1,-1,-1,-1,-1,-1,-1,-1,-1,-1,-1,-1,-1,-1,-1,-1,-1,-1,-1,-1,-1,-1,-1,-1,-1,-1,-1,-1,-1,-1,-1,-1,-1,-1,-1,-1],"loss_changes":[3.749485E2,7.317146E1,5.3031998E1,3.2707855E1,4.627242E1,1.2879013E1,5.2597107E1,2.943782E1,5.1075237E1,0E0,4.2048843E1,9.276574E0,9.441064E0,5.9862854E1,5.452498E1,1.3391407E1,2.156311E1,1.1431089E1,1.4565964E0,4.673459E1,4.123594E1,1.3863707E1,4.65339E0,0E0,5.750842E0,2.3596802E1,0E0,2.3744001E1,2.400673E0,1.2307344E1,0E0,2.0171566E1,1.5846634E1,3.2841163E0,2.9636497E0,5.770569E-1,0E0,1.9342505E1,3.514859E1,1.2969608E1,5.3320465E0,7.6960154E0,9.2813396E-1,4.1863632E-1,1.844221E0,1.7000022E0,0E0,7.9901047E0,1.639775E1,4.921379E-1,1.9640251E1,9.414673E-1,1.5300751E-2,0E0,0E0,0E0,0E0,0E0,0E0,0E0,0E0,0E0,0E0,0E0,0E0,0E0,0E0,0E0,0E0,0E0,0E0,0E0,0E0,0E0,0E0,0E0,0E0,0E0,0E0,0E0,0E0,0E0,0E0,0E0,0E0,0E0,0E0,0E0,0E0,0E0,0E0,0E0,0E0,0E0,0E0],"parents":[2147483647,0,0,1,1,2,2,3,3,4,4,5,5,6,6,7,7,8,8,10,10,11,11,12,12,13,13,14,14,15,15,16,16,17,17,18,18,19,19,20,20,21,21,22,22,24,24,25,25,27,27,28,28,29,29,31,31,32,32,33,33,34,34,35,35,37,37,38,38,39,39,40,40,41,41,42,42,43,43,44,44,45,45,47,47,48,48,49,49,50,50,51,51,52,52],"right_children":[2,4,6,8,10,12,14,16,18,-1,20,22,24,26,28,30,32,34,36,38,40,42,44,-1,46,48,-1,50,52,54,-1,56,58,60,62,64,-1,66,68,70,72,74,76,78,80,82,-1,84,86,88,90,92,94,-1,-1,-1,-1,-1,-1,-1,-1,-1,-1,-1,-1,-1,-1,-1,-1,-1,-1,-1,-1,-1,-1,-1,-1,-1,-1,-1,-1,-1,-1,-1,-1,-1,-1,-1,-1,-1,-1,-1,-1,-1,-1],"split_conditions":[5.334472E-1,-6.7689866E-1,-9.161993E-1,4.315873E0,-1.7339749E0,1.2779279E0,-3.2254472E-1,-1.0431747E0,8.124968E-1,1.0508697E0,-6.316541E-1,1.1008716E0,-5.7262963E-1,2.667928E0,1.5899162E0,5.053994E0,-1.7147672E0,-2.2205474E-2,3.8633811E0,2.9028478E-1,4.0253825E0,1.0833293E0,4.6857655E-1,-8.2156366E-1,4.1067486E0,8.5162085E-1,1.8536319E0,4.0876085E-1,1.0049365E0,4.5208917E0,-4.9209407E-1,4.1349006E0,4.0876085E-1,9.0421356E-2,2.1094616E-1,4.0928707E0,-1.9513277E-2,-6.148825E-1,-6.1842006E-1,4.6538734E0,2.9028478E-1,4.6341996E0,-1.3537295E0,-1.1332791E0,-1.481399E0,1.1798891E0,2.6239252E-1,-6.12676E-1,-5.926528E-1,-3.8360724E-1,5.779914E0,4.052006E0,1.2779279E0,1.337202E-1,-5.6076115E-1,-1.6246101E-1,7.940553E-2,-8.614978E-2,-2.659155E-1,-8.614347E-4,3.5302544E-1,3.0464995E-1,1.2402814E-1,-3.620922E-1,-1.13340296E-1,-1.9879259E-1,4.0034864E-2,6.1537904E-1,1.4564581E-1,-1.7604686E-2,-2.1287572E-1,-4.8000476E-1,-2.2890648E-1,6.0878444E-2,-2.2264896E-1,-1.7933974E-1,-3.9858058E-1,9.399058E-2,2.8126255E-1,1.5209249E-1,-1.2193052E-1,-3.0287844E-1,4.8507333E-2,2.3032765E-1,1.7369144E-2,4.3581954E-1,1.9403008E-1,1.6019991E-1,4.556607E-1,8.389333E-2,-2.7083704E-1,3.388162E-1,1.1875385E-1,5.133418E-1,1.6878833E-1],"split_indices":[61,2,1,55,3,4,4,3,0,0,0,61,3,1,61,5,0,1,21,1,40,61,3,0,33,2,0,59,1,22,0,6,59,0,4,16,0,61,61,44,1,52,0,3,1,2,0,3,3,1,56,27,4,0,0,0,0,0,0,0,0,0,0,0,0,0,0,0,0,0,0,0,0,0,0,0,0,0,0,0,0,0,0,0,0,0,0,0,0,0,0,0,0,0,0],"split_type":[0,0,0,0,0,0,0,0,0,0,0,0,0,0,0,0,0,0,0,0,0,0,0,0,0,0,0,0,0,0,0,0,0,0,0,0,0,0,0,0,0,0,0,0,0,0,0,0,0,0,0,0,0,0,0,0,0,0,0,0,0,0,0,0,0,0,0,0,0,0,0,0,0,0,0,0,0,0,0,0,0,0,0,0,0,0,0,0,0,0,0,0,0,0,0],"sum_hessian":[2.0784275E3,1.2932275E3,7.852001E2,7.704683E2,5.227592E2,1.6551482E2,6.1968524E2,6.4187024E2,1.2859811E2,2.6972518E0,5.2006195E2,1.5506033E2,1.0454484E1,2.2715414E2,3.925311E2,4.5439926E1,5.964303E2,9.660403E1,3.199408E1,2.4368457E2,2.7637738E2,1.2721708E2,2.7843256E1,1.4166603E0,9.037824E0,2.2583383E2,1.3203021E0,3.1550064E2,7.703045E1,4.266921E1,2.7707186E0,2.2007825E2,3.7635205E2,5.979561E1,3.680842E1,3.0616898E1,1.3771833E0,1.3186029E2,1.1182428E2,2.383402E2,3.8037167E1,1.1531708E2,1.1899997E1,2.0647118E1,7.196137E0,7.295409E0,1.742414E0,7.913844E1,1.4669539E2,1.614157E1,2.9935907E2,6.236382E1,1.4666633E1,4.1218792E1,1.4504166E0,1.8339854E2,3.6679707E1,5.249018E1,3.2386188E2,5.8336197E1,1.4594111E0,1.9330898E1,1.7477522E1,2.8579563E1,2.0373344E0,4.619197E1,8.566832E1,1.6128021E1,9.569626E1,2.0325093E2,3.5089268E1,2.1585487E1,1.6451681E1,1.0693169E2,8.385389E0,7.2493925E0,4.6506042E0,2.5177305E0,1.8129389E1,2.7056615E0,4.490475E0,6.0984488E0,1.1969607E0,5.709194E1,2.20465E1,1.10922844E2,3.5772552E1,2.0117543E0,1.4129815E1,2.855487E2,1.3810374E1,5.9129055E1,3.2347627E0,1.3396439E1,1.2701938E0],"tree_param":{"num_deleted":"0","num_feature":"62","num_nodes":"95","size_leaf_vector":"1"}},{"base_weights":[1.5073485E-2,-2.64348E-1,3.4239393E-1,-3.3006522E-1,2.55192E-1,9.697749E-1,2.7436817E-1,-3.6284032E-1,4.1503635E-1,6.272794E-1,-6.123796E-3,1.0775656E0,8.6579794E-1,5.3814596E-1,1.1332228E-1,-1.7666724E-1,-5.0551975E-1,1.7088989E0,-1.21995725E-1,7.9720396E-1,3.68132E-1,-5.03282E-1,9.6890956E-2,6.9084746E-1,2.4695141E0,5.0391906E-1,1.537205E0,1.5295334E-2,7.026998E-1,-5.3822184E-1,-5.359128E-2,-5.4412797E-2,-5.598864E-1,-4.7470987E-1,8.195423E-1,1.3817787E-1,1.2271377E0,1.6900831E-1,2.9482922E-1,-2.544429E-1,-3.2439572E-1,8.49048E-3,5.8217794E-1,9.42354E-1,-7.097234E-2,1.1234143E0,2.6554847E-1,3.6606583E-1,9.065217E-1,-5.1902022E-2,7.938296E-1,6.1731493E-1,1.0453396E0,-1.9735813E-1,2.3445029E-2,-4.2353682E-2,1.6969007E-1,2.4719648E-1,-1.8349963E-1,-3.1925374E-1,-1.502709E-1,1.7199664E-1,-2.4388959E-1,3.7407812E-1,1.277438E-1,5.621254E-1,1.2109726E-1,7.792993E-2,-3.0273004E-2,-1.0696803E-1,-1.8273795E-2,-1.2049501E-2,1.7954499E-1,2.814491E-1,5.86842E-2,6.0522266E-2,3.6930668E-1,-1.094572E-1,7.398351E-1,7.497811E-2,2.4444887E-1,5.056244E-1,1.313514E-1,-2.8703082E-2,2.6017636E-1,4.653695E-1,3.8348638E-2,1.9693589E-1,5.3280927E-2,3.2892787E-1,1.0106435E-1],"categories":[],"categories_nodes":[],"categories_segments":[],"categories_sizes":[],"default_left":[0,0,0,0,0,0,0,0,0,0,0,0,0,0,0,0,0,0,0,0,0,0,0,0,0,0,0,0,0,0,0,0,0,0,0,0,0,0,0,0,0,0,0,0,0,0,0,0,0,0,0,0,0,0,0,0,0,0,0,0,0,0,0,0,0,0,0,0,0,0,0,0,0,0,0,0,0,0,0,0,0,0,0,0,0,0,0,0,0,0,0],"id":10,"left_children":[1,3,5,7,9,11,13,15,17,19,21,-1,23,25,27,29,31,-1,33,35,37,39,41,43,45,47,-1,49,51,53,55,57,59,61,63,-1,65,67,-1,-1,69,71,73,75,77,-1,-1,79,81,83,85,87,89,-1,-1,-1,-1,-1,-1,-1,-1,-1,-1,-1,-1,-1,-1,-1,-1,-1,-1,-1,-1,-1,-1,-1,-1,-1,-1,-1,-1,-1,-1,-1,-1,-1,-1,-1,-1,-1,-1],"loss_changes":[1.9027573E2,3.8404587E1,4.0622475E1,2.4492416E1,1.2312574E1,2.2334305E1,3.6716118E1,2.5286484E1,1.2113316E2,2.0067577E0,3.9080496E0,0E0,2.3849281E1,4.888948E1,3.1119349E1,1.8483269E1,1.3220184E1,0E0,1.3514675E1,3.8764057E0,2.593117E0,5.327406E-1,2.7088687E0,1.606815E1,1.4001072E1,1.7794838E1,0E0,2.4263344E1,1.6020279E0,7.8341217E0,1.6973156E1,2.949105E1,1.3806046E1,1.0883467E1,1.3432746E0,0E0,6.099991E0,4.72942E-1,0E0,0E0,6.508076E-2,1.5893005E0,1.1558497E0,1.3189529E1,1.7048069E1,0E0,0E0,1.2564285E1,2.942643E1,1.726989E1,1.8389477E1,9.836807E-1,1.3304043E-1,0E0,0E0,0E0,0E0,0E0,0E0,0E0,0E0,0E0,0E0,0E0,0E0,0E0,0E0,0E0,0E0,0E0,0E0,0E0,0E0,0E0,0E0,0E0,0E0,0E0,0E0,0E0,0E0,0E0,0E0,0E0,0E0,0E0,0E0,0E0,0E0,0E0,0E0],"parents":[2147483647,0,0,1,1,2,2,3,3,4,4,5,5,6,6,7,7,8,8,9,9,10,10,12,12,13,13,14,14,15,15,16,16,18,18,19,19,20,20,21,21,22,22,23,23,24,24,25,25,27,27,28,28,29,29,30,30,31,31,32,32,33,33,34,34,36,36,37,37,40,40,41,41,42,42,43,43,44,44,47,47,48,48,49,49,50,50,51,51,52,52],"right_children":[2,4,6,8,10,12,14,16,18,20,22,-1,24,26,28,30,32,-1,34,36,38,40,42,44,46,48,-1,50,52,54,56,58,60,62,64,-1,66,68,-1,-1,70,72,74,76,78,-1,-1,80,82,84,86,88,90,-1,-1,-1,-1,-1,-1,-1,-1,-1,-1,-1,-1,-1,-1,-1,-1,-1,-1,-1,-1,-1,-1,-1,-1,-1,-1,-1,-1,-1,-1,-1,-1,-1,-1,-1,-1,-1,-1],"split_conditions":[-1.4137623E-1,4.93319E0,4.0876085E-1,1.6271996E0,-1.7147672E0,-8.560356E-1,-3.2254472E-1,-3.2254472E-1,-1.3537295E0,-2.075805E0,-3.2254472E-1,1.0775656E0,1.3772074E0,2.667928E0,1.5999303E0,-1.1831762E0,4.0876085E-1,1.7088989E0,6.230111E0,6.5440387E-1,4.0928707E0,8.124968E-1,9.804807E-1,4.192851E0,1.8235157E0,1.1099135E0,1.537205E0,4.0928707E0,8.5548455E-1,3.6559513E0,4.1349006E0,9.0421356E-2,-1.6489068E0,-3.2254472E-1,4.5856494E-1,1.3817787E-1,7.495096E-1,3.6160417E0,2.9482922E-1,-2.544429E-1,1.4451401E0,4.0928707E0,-6.316541E-1,-3.2254472E-1,4.3319693E0,1.1234143E0,2.6554847E-1,4.7985272E0,-2.075805E0,4.315873E0,-9.926918E-1,4.052006E0,5.053994E0,-1.9735813E-1,2.3445029E-2,-4.2353682E-2,1.6969007E-1,2.4719648E-1,-1.8349963E-1,-3.1925374E-1,-1.502709E-1,1.7199664E-1,-2.4388959E-1,3.7407812E-1,1.277438E-1,5.621254E-1,1.2109726E-1,7.792993E-2,-3.0273004E-2,-1.0696803E-1,-1.8273795E-2,-1.2049501E-2,1.7954499E-1,2.814491E-1,5.86842E-2,6.0522266E-2,3.6930668E-1,-1.094572E-1,7.398351E-1,7.497811E-2,2.4444887E-1,5.056244E-1,1.313514E-1,-2.8703082E-2,2.6017636E-1,4.653695E-1,3.8348638E-2,1.9693589E-1,5.3280927E-2,3.2892787E-1,1.0106435E-1],"split_indices":[61,31,59,1,0,4,4,4,0,0,4,0,1,1,2,61,59,0,28,1,16,0,1,35,2,2,0,16,1,19,6,0,61,4,3,0,1,8,0,0,1,16,0,4,13,0,0,53,0,18,0,27,5,0,0,0,0,0,0,0,0,0,0,0,0,0,0,0,0,0,0,0,0,0,0,0,0,0,0,0,0,0,0,0,0,0,0,0,0,0,0],"split_type":[0,0,0,0,0,0,0,0,0,0,0,0,0,0,0,0,0,0,0,0,0,0,0,0,0,0,0,0,0,0,0,0,0,0,0,0,0,0,0,0,0,0,0,0,0,0,0,0,0,0,0,0,0,0,0,0,0,0,0,0,0,0,0,0,0,0,0,0,0,0,0,0,0,0,0,0,0,0,0,0,0,0,0,0,0,0,0,0,0,0,0],"sum_hessian":[2.0784275E3,1.1213578E3,9.5706976E2,9.9576685E2,1.2559099E2,9.232535E1,8.647444E2,9.5430255E2,4.1464294E1,5.1235844E1,7.435515E1,2.2419682E0,9.008338E1,3.2692722E2,5.378172E2,4.150149E2,5.3928766E2,2.9404266E0,3.852387E1,2.9691011E1,2.154483E1,1.2095529E1,6.2259617E1,8.251279E1,7.5705957E0,3.256069E2,1.3203021E0,4.620017E2,7.581549E1,1.0453986E2,3.1047504E2,5.821871E1,4.8106894E2,2.8385902E1,1.0137967E1,1.7814608E1,1.1876405E1,1.7235865E1,4.308966E0,2.853414E0,9.242115E0,5.3526634E1,8.732982E0,6.1855038E1,2.065775E1,3.4390457E0,4.13155E0,2.4397713E2,8.1629776E1,4.2615268E2,3.584903E1,6.293414E1,1.2881351E1,8.7490524E1,1.7049337E1,2.7267755E2,3.779748E1,2.2411947E1,3.5806767E1,4.8590565E1,4.324784E2,6.756621E0,2.1629282E1,3.8221483E0,6.3158183E0,5.9382024E0,5.9382024E0,1.2926899E1,4.308966E0,7.921813E0,1.3203021E0,5.0309628E1,3.2170076E0,3.8034577E0,4.9295235E0,1.782408E1,4.4030956E1,1.9280567E1,1.3771833E0,1.9505449E2,4.8922638E1,2.9691011E1,5.1938763E1,4.0763492E2,1.8517744E1,1.6151615E1,1.9697416E1,5.7337692E1,5.5964475E0,1.1504168E1,1.3771833E0],"tree_param":{"num_deleted":"0","num_feature":"62","num_nodes":"91","size_leaf_vector":"1"}},{"base_weights":[1.5558052E-2,-1.8239193E-1,2.474359E-1,-4.1107327E-1,-6.262084E-2,5.1178034E-2,4.1038504E-1,-2.3388588E-1,-5.725874E-1,6.807113E-1,-9.180288E-2,-3.6590147E-1,9.840669E-2,9.782396E-1,3.3400908E-1,-5.5552375E-1,-9.1487765E-2,-6.175295E-1,1.8728755E-1,-4.8244104E-1,1.426147E0,-1.494893E-1,2.4588318E-1,1.0164342E0,-6.022479E-1,2.3010124E-1,-5.4298002E-2,7.1496874E-1,1.8457329E0,2.2063473E-1,6.827573E-1,-4.1292322E-1,-3.6341065E-1,-5.317496E-1,1.0199442E-2,-3.945171E-1,-5.7238567E-1,-1.7140265E-1,4.190146E-1,1.8172234E0,-7.464268E-2,9.32444E-1,-1.7316058E-1,4.29625E-1,-7.217103E-2,1.4188523E0,-1.0254548E-1,-3.5051453E-1,-1.4358999E0,1.5780571E-1,7.3369837E-1,-1.5339886E-1,2.7354825E-1,5.040816E-1,1.3792368E0,2.809846E-1,7.786951E-1,3.7626877E-1,-4.063732E-2,5.7788974E-1,1.643569E0,-2.1132326E-1,-1.9695323E-2,-2.2059338E-1,-1.3392042E-2,4.3120906E-2,-9.2825845E-2,-1.5928267E-1,-3.9652613E-1,-7.158933E-2,2.2094334E-3,1.6583714E-1,-1.0656813E-2,7.1076296E-2,-1.982094E-1,3.5473797E-1,-2.0608623E-1,-4.4561625E-2,-3.5327327E-1,1.4966838E-1,-3.502203E-2,-9.871152E-2,8.210588E-3,5.04258E-1,1.1035026E-1,-1.9030426E-1,1.5974781E-1,-4.8461986E-1,-8.6319596E-2,3.978903E-2,4.882084E-1,-3.5587707E-1,2.8887725E-1,1.2450335E-1,-6.324519E-2,1.8432564E-1,3.2030746E-2,1.17920265E-1,6.9687223E-1,1.3368676E0,1.1649861E-1,1.0002992E-1,1.2747935E0,-4.6441253E-2,4.4601902E-1,2.2855489E-1,1.3060378E-1,8.9920723E-1,3.3810854E-1],"categories":[],"categories_nodes":[],"categories_segments":[],"categories_sizes":[],"default_left":[0,0,0,0,0,0,0,0,0,0,0,0,0,0,0,0,0,0,0,0,0,0,0,0,0,0,0,0,0,0,0,0,0,0,0,0,0,0,0,0,0,0,0,0,0,0,0,0,0,0,0,0,0,0,0,0,0,0,0,0,0,0,0,0,0,0,0,0,0,0,0,0,0,0,0,0,0,0,0,0,0,0,0,0,0,0,0,0,0,0,0,0,0,0,0,0,0,0,0,0,0,0,0,0,0,0,0,0,0],"id":11,"left_children":[1,3,5,7,9,11,13,15,17,19,21,23,25,27,29,31,33,35,37,-1,39,41,43,45,47,49,51,53,55,57,59,61,-1,63,65,-1,67,69,71,-1,73,75,77,79,81,83,-1,85,87,89,91,93,95,97,99,-1,-1,101,103,105,107,-1,-1,-1,-1,-1,-1,-1,-1,-1,-1,-1,-1,-1,-1,-1,-1,-1,-1,-1,-1,-1,-1,-1,-1,-1,-1,-1,-1,-1,-1,-1,-1,-1,-1,-1,-1,-1,-1,-1,-1,-1,-1,-1,-1,-1,-1,-1,-1],"loss_changes":[9.549131E1,3.0714985E1,3.0618134E1,1.0901283E1,1.6065887E1,8.619597E0,2.2369553E1,8.448354E0,6.9809494E0,5.0046124E1,1.3882476E1,1.5162651E1,7.900201E0,1.2731167E1,1.814767E1,4.807104E0,5.817372E0,5.2314224E0,1.0686715E0,0E0,1.5087666E2,1.5724783E1,6.113554E0,4.24271E0,7.6101284E0,7.558587E0,5.969139E0,6.145214E0,6.9033356E0,1.4276951E1,1.0441975E1,4.8257627E0,0E0,2.3843622E0,4.587578E0,0E0,4.89637E0,6.685762E-2,4.8032796E-1,0E0,3.32145E0,6.1434326E0,1.4552649E1,2.560439E0,1.0053526E0,8.956518E-1,0E0,8.111647E0,1.316658E0,6.6508503E0,1.2667565E1,4.680438E0,2.3621488E0,6.8889055E0,3.2390297E1,0E0,0E0,3.5065094E1,2.3218393E1,2.3817444E0,4.0227222E0,0E0,0E0,0E0,0E0,0E0,0E0,0E0,0E0,0E0,0E0,0E0,0E0,0E0,0E0,0E0,0E0,0E0,0E0,0E0,0E0,0E0,0E0,0E0,0E0,0E0,0E0,0E0,0E0,0E0,0E0,0E0,0E0,0E0,0E0,0E0,0E0,0E0,0E0,0E0,0E0,0E0,0E0,0E0,0E0,0E0,0E0,0E0,0E0],"parents":[2147483647,0,0,1,1,2,2,3,3,4,4,5,5,6,6,7,7,8,8,9,9,10,10,11,11,12,12,13,13,14,14,15,15,16,16,17,17,18,18,20,20,21,21,22,22,23,23,24,24,25,25,26,26,27,27,28,28,29,29,30,30,31,31,33,33,34,34,36,36,37,37,38,38,40,40,41,41,42,42,43,43,44,44,45,45,47,47,48,48,49,49,50,50,51,51,52,52,53,53,54,54,57,57,58,58,59,59,60,60],"right_children":[2,4,6,8,10,12,14,16,18,20,22,24,26,28,30,32,34,36,38,-1,40,42,44,46,48,50,52,54,56,58,60,62,-1,64,66,-1,68,70,72,-1,74,76,78,80,82,84,-1,86,88,90,92,94,96,98,100,-1,-1,102,104,106,108,-1,-1,-1,-1,-1,-1,-1,-1,-1,-1,-1,-1,-1,-1,-1,-1,-1,-1,-1,-1,-1,-1,-1,-1,-1,-1,-1,-1,-1,-1,-1,-1,-1,-1,-1,-1,-1,-1,-1,-1,-1,-1,-1,-1,-1,-1,-1,-1],"split_conditions":[-1.4137623E-1,-4.2980146E-1,-2.2205474E-2,-1.3537295E0,-4.2164955E-1,-1.0932328E0,-8.560356E-1,-1.1097162E0,6.6296015E0,-8.560356E-1,4.93319E0,-1.7640097E0,-5.926528E-1,3.6559513E0,1.1227993E0,-1.1130117E0,-1.6444376E0,-1.6489068E0,-1.04663E0,-4.8244104E-1,-1.1097162E0,-1.1533023E0,-9.926918E-1,4.163595E0,-2.9393613E-1,4.1349006E0,1.1227993E0,-6.026644E-1,5.932521E0,1.1735345E0,1.9886013E0,-1.1831762E0,-3.6341065E-1,-5.5743486E-1,4.755906E0,-3.945171E-1,6.2762494E0,4.178152E0,3.772202E0,1.8172234E0,-6.316541E-1,5.053994E0,6.2762494E0,3.8633811E0,-1.6215412E-1,-4.2980146E-1,-1.0254548E-1,-5.9283984E-1,-9.5572755E-2,4.3319693E0,5.9052175E-1,4.0876085E-1,1.1928091E0,4.6341996E0,-5.926528E-1,2.809846E-1,7.786951E-1,2.667928E0,4.163595E0,-6.326992E-1,1.1735345E0,-2.1132326E-1,-1.9695323E-2,-2.2059338E-1,-1.3392042E-2,4.3120906E-2,-9.2825845E-2,-1.5928267E-1,-3.9652613E-1,-7.158933E-2,2.2094334E-3,1.6583714E-1,-1.0656813E-2,7.1076296E-2,-1.982094E-1,3.5473797E-1,-2.0608623E-1,-4.4561625E-2,-3.5327327E-1,1.4966838E-1,-3.502203E-2,-9.871152E-2,8.210588E-3,5.04258E-1,1.1035026E-1,-1.9030426E-1,1.5974781E-1,-4.8461986E-1,-8.6319596E-2,3.978903E-2,4.882084E-1,-3.5587707E-1,2.8887725E-1,1.2450335E-1,-6.324519E-2,1.8432564E-1,3.2030746E-2,1.17920265E-1,6.9687223E-1,1.3368676E0,1.1649861E-1,1.0002992E-1,1.2747935E0,-4.6441253E-2,4.4601902E-1,2.2855489E-1,1.3060378E-1,8.9920723E-1,3.3810854E-1],"split_indices":[61,1,1,0,1,3,4,61,41,4,31,3,3,19,61,61,1,61,1,0,61,3,0,11,1,6,61,3,37,0,1,61,0,2,36,0,58,15,23,0,0,5,58,21,3,1,0,1,1,13,2,59,61,52,3,0,0,1,11,3,0,0,0,0,0,0,0,0,0,0,0,0,0,0,0,0,0,0,0,0,0,0,0,0,0,0,0,0,0,0,0,0,0,0,0,0,0,0,0,0,0,0,0,0,0,0,0,0,0],"split_type":[0,0,0,0,0,0,0,0,0,0,0,0,0,0,0,0,0,0,0,0,0,0,0,0,0,0,0,0,0,0,0,0,0,0,0,0,0,0,0,0,0,0,0,0,0,0,0,0,0,0,0,0,0,0,0,0,0,0,0,0,0,0,0,0,0,0,0,0,0,0,0,0,0,0,0,0,0,0,0,0,0,0,0,0,0,0,0,0,0,0,0,0,0,0,0,0,0,0,0,0,0,0,0,0,0,0,0,0,0],"sum_hessian":[2.0784275E3,1.1213578E3,9.5706976E2,3.846004E2,7.3675745E2,4.3475717E2,5.2231256E2,1.8456898E2,2.0003142E2,2.6987923E1,7.097695E2,4.3536438E1,3.9122073E2,6.052224E1,4.6179034E2,5.5748158E1,1.2882083E2,1.8903825E2,1.0993173E1,6.345833E0,2.064209E1,6.066873E2,1.0308221E2,5.8748994E0,3.766154E1,2.0978905E2,1.814317E2,4.7830574E1,1.2691666E1,3.497296E2,1.1206073E2,4.7130222E1,8.617932E0,2.3377415E1,1.0544341E2,9.780904E0,1.7925734E2,4.4167743E0,6.5763984E0,4.308966E0,1.6333124E1,1.2167359E1,5.9451996E2,6.5114426E1,3.7967785E1,4.497716E0,1.3771833E0,3.0017712E1,7.643829E0,1.8460136E2,2.5187693E1,1.3972725E2,4.170444E1,3.763981E1,1.0190764E1,6.7534637E0,5.9382024E0,2.1889719E2,1.3083241E2,1.0247733E2,9.583402E0,2.5064E1,2.2066223E1,1.6128021E1,7.2493925E0,7.4759254E1,3.0684156E1,1.7148212E2,7.7752295E0,2.966358E0,1.4504166E0,4.9139905E0,1.6624079E0,1.1052851E1,5.280273E0,1.0773824E1,1.3935354E0,5.814153E2,1.3104675E1,5.786503E1,7.2493925E0,9.959966E0,2.8007818E1,3.1205328E0,1.3771833E0,2.2929031E1,7.08868E0,6.2584696E0,1.3853593E0,1.8256403E2,2.0373344E0,2.2411497E0,2.2946543E1,1.2248292E1,1.27478966E2,1.2819451E1,2.8884989E1,3.662073E1,1.0190765E0,1.6305224E0,8.560243E0,2.1757689E2,1.3203021E0,1.2256931E2,8.2631E0,4.2842415E1,5.9634914E1,1.3203021E0,8.2631E0],"tree_param":{"num_deleted":"0","num_feature":"62","num_nodes":"109","size_leaf_vector":"1"}},{"base_weights":[1.4059558E-2,-1.3056107E-1,1.785463E-1,-2.9268485E-1,-4.4510525E-2,5.96557E-1,1.3406272E-1,-2.5731125E-1,-8.2631093E-1,9.370409E-2,-1.5115952E-1,1.7399728E0,4.370565E-1,3.5132498E-2,3.1302837E-1,-1.9230786E-1,-4.782919E-1,-2.1266358E-1,-1.019916E0,3.854143E-2,1.3363101E0,-1.6201551E-1,5.3257084E-1,5.950273E-1,2.6161418E0,7.7924204E-1,3.4518492E-1,4.9454805E-2,-1.6286596E0,3.6418363E-1,-6.144361E-1,-2.358952E-1,6.7346506E-2,-4.0257868E-1,-3.7785196E-1,1.0126971E-1,-1.529726E-1,-1.2216591E0,-3.2724333E-1,8.401606E-1,-1.1732169E-2,-1.7561062E-1,1.3482556E0,2.9646802E-1,-3.9880823E-2,1.0428385E0,1.1638168E0,4.018448E-1,-5.09305E-1,7.874243E-2,-7.3710585E-1,-1.5546274E0,4.2339513E-1,4.163425E-1,-5.085211E-1,-2.6696512E-1,-7.8133196E-1,-5.872134E-2,-2.1193503E-1,3.444681E-2,-2.0595746E-1,-6.3977174E-2,-2.70694E-1,7.647858E-2,-1.2115788E-2,-4.0986747E-3,-3.9775792E-1,7.1509585E-2,-1.5761472E-1,-3.711236E-1,5.7626605E-1,-1.9391312E-1,1.3823235E-2,-6.22479E-2,1.2057649E-1,6.782136E-1,-3.9409764E-2,-1.7755488E-1,7.4570656E-1,1.4443736E-1,-2.8061688E-1,8.2405634E-2,2.218779E-3,-8.048901E-2,-2.7310136E-1,1.1164766E-1,1.3033789E0,-6.338526E-2,-5.487069E-1,-1.6231322E-1,-8.246542E-3],"categories":[],"categories_nodes":[],"categories_segments":[],"categories_sizes":[],"default_left":[0,0,0,0,0,0,0,0,0,0,0,0,0,0,0,0,0,0,0,0,0,0,0,0,0,0,0,0,0,0,0,0,0,0,0,0,0,0,0,0,0,0,0,0,0,0,0,0,0,0,0,0,0,0,0,0,0,0,0,0,0,0,0,0,0,0,0,0,0,0,0,0,0,0,0,0,0,0,0,0,0,0,0,0,0,0,0,0,0,0,0],"id":12,"left_children":[1,3,5,7,9,11,13,15,17,19,21,23,25,27,29,31,33,35,37,39,-1,41,-1,43,45,-1,47,49,51,53,55,57,59,-1,61,63,-1,65,67,69,71,73,75,-1,-1,-1,77,79,-1,81,83,-1,-1,85,87,89,-1,-1,-1,-1,-1,-1,-1,-1,-1,-1,-1,-1,-1,-1,-1,-1,-1,-1,-1,-1,-1,-1,-1,-1,-1,-1,-1,-1,-1,-1,-1,-1,-1,-1,-1],"loss_changes":[4.94891E1,1.5432129E1,1.8018425E1,7.0301056E0,1.0692417E1,1.6259785E1,1.5587015E1,5.0978184E0,2.563302E0,7.587296E1,8.8469515E0,9.567692E0,1.5624166E1,1.3627185E1,1.5097855E1,3.1943874E0,6.558092E0,6.932577E-1,2.049265E0,1.2631638E1,0E0,8.612041E0,0E0,1.8778858E0,3.4327736E0,0E0,1.0057166E1,1.3064544E1,6.004373E1,1.3764793E1,1.0893633E1,4.4100285E0,1.5514814E0,0E0,6.226159E0,1.012442E-1,0E0,1.6442566E0,7.213171E-1,4.3899704E1,1.0878476E1,7.543522E0,5.365713E0,0E0,0E0,0E0,1.012805E1,8.926472E0,0E0,7.6203356E0,1.409647E0,0E0,0E0,4.7241867E1,6.380992E0,9.947784E-1,0E0,0E0,0E0,0E0,0E0,0E0,0E0,0E0,0E0,0E0,0E0,0E0,0E0,0E0,0E0,0E0,0E0,0E0,0E0,0E0,0E0,0E0,0E0,0E0,0E0,0E0,0E0,0E0,0E0,0E0,0E0,0E0,0E0,0E0,0E0],"parents":[2147483647,0,0,1,1,2,2,3,3,4,4,5,5,6,6,7,7,8,8,9,9,10,10,11,11,12,12,13,13,14,14,15,15,16,16,17,17,18,18,19,19,21,21,23,23,24,24,26,26,27,27,28,28,29,29,30,30,31,31,32,32,34,34,35,35,37,37,38,38,39,39,40,40,41,41,42,42,46,46,47,47,49,49,50,50,53,53,54,54,55,55],"right_children":[2,4,6,8,10,12,14,16,18,20,22,24,26,28,30,32,34,36,38,40,-1,42,-1,44,46,-1,48,50,52,54,56,58,60,-1,62,64,-1,66,68,70,72,74,76,-1,-1,-1,78,80,-1,82,84,-1,-1,86,88,90,-1,-1,-1,-1,-1,-1,-1,-1,-1,-1,-1,-1,-1,-1,-1,-1,-1,-1,-1,-1,-1,-1,-1,-1,-1,-1,-1,-1,-1,-1,-1,-1,-1,-1,-1],"split_conditions":[-3.476364E-1,-4.2980146E-1,4.0876085E-1,4.5208917E0,-1.3537295E0,-1.1332791E0,3.5821745E-1,2.1094616E-1,4.0876085E-1,1.2821016E0,3.0463093E1,1.2452908E-1,-8.560356E-1,1.8114188E0,5.779914E0,-5.5743486E-1,-1.7259567E0,-6.933802E-1,1.2895275E0,-4.2164955E-1,1.3363101E0,1.6664333E1,5.3257084E-1,-4.1893223E-1,9.3156916E-1,7.7924204E-1,1.9928444E1,4.6341996E0,-5.7262963E-1,8.287038E0,2.260332E0,-6.2195754E-1,3.772202E0,-4.0257868E-1,3.6160417E0,-6.026644E-1,-1.529726E-1,-1.1636118E0,-3.2254472E-1,-2.075805E0,-1.6700406E0,6.230111E0,-1.1476442E0,2.9646802E-1,-3.9880823E-2,1.0428385E0,1.9886013E0,5.053994E0,-5.09305E-1,-1.7147672E0,-6.316541E-1,-1.5546274E0,4.2339513E-1,2.667928E0,2.667928E0,1.1735345E0,-7.8133196E-1,-5.872134E-2,-2.1193503E-1,3.444681E-2,-2.0595746E-1,-6.3977174E-2,-2.70694E-1,7.647858E-2,-1.2115788E-2,-4.0986747E-3,-3.9775792E-1,7.1509585E-2,-1.5761472E-1,-3.711236E-1,5.7626605E-1,-1.9391312E-1,1.3823235E-2,-6.22479E-2,1.2057649E-1,6.782136E-1,-3.9409764E-2,-1.7755488E-1,7.4570656E-1,1.4443736E-1,-2.8061688E-1,8.2405634E-2,2.218779E-3,-8.048901E-2,-2.7310136E-1,1.1164766E-1,1.3033789E0,-6.338526E-2,-5.487069E-1,-1.6231322E-1,-8.246542E-3],"split_indices":[61,1,59,17,0,3,1,4,59,1,7,1,4,4,56,2,1,1,3,1,0,9,0,1,1,0,14,52,3,43,1,61,23,0,8,3,0,61,4,0,61,28,2,0,0,0,1,5,0,0,0,0,0,1,1,0,0,0,0,0,0,0,0,0,0,0,0,0,0,0,0,0,0,0,0,0,0,0,0,0,0,0,0,0,0,0,0,0,0,0,0],"split_type":[0,0,0,0,0,0,0,0,0,0,0,0,0,0,0,0,0,0,0,0,0,0,0,0,0,0,0,0,0,0,0,0,0,0,0,0,0,0,0,0,0,0,0,0,0,0,0,0,0,0,0,0,0,0,0,0,0,0,0,0,0,0,0,0,0,0,0,0,0,0,0,0,0,0,0,0,0,0,0,0,0,0,0,0,0,0,0,0,0,0,0],"sum_hessian":[2.0784275E3,1.106113E3,9.723145E2,3.826947E2,7.2341833E2,9.232535E1,8.799892E2,3.6029337E2,2.2401333E1,3.1513376E2,4.082846E2,1.0089262E1,8.2236084E1,5.6748566E2,3.125035E2,2.7984482E2,8.044855E1,5.8758345E0,1.65255E1,3.1219333E2,2.9404266E0,4.069074E2,1.3771833E0,5.101688E0,4.9875746E0,2.2419682E0,7.999412E1,5.636043E2,3.8813605E0,2.9674362E2,1.5759878E1,2.3969885E2,4.014597E1,7.0935817E0,7.3354965E1,3.1783493E0,2.6974854E0,1.2206602E1,4.3188963E0,1.7496561E1,2.9469675E2,4.0415305E2,2.7543666E0,3.0803545E0,2.0213332E0,2.257385E0,2.7301896E0,7.8616936E1,1.3771833E0,5.4423944E2,1.9364891E1,1.4646643E0,2.416696E0,2.8050183E2,1.6241795E1,1.4382694E1,1.3771833E0,2.2215591E2,1.7542938E1,3.8564972E1,1.5809987E0,5.6903297E1,1.6451672E1,1.1410148E0,2.0373344E0,1.059138E0,1.1147464E1,1.0677817E0,3.2511148E0,5.9382024E0,1.1558359E1,2.375281E1,2.7094394E2,3.8361642E2,2.053663E1,1.3771833E0,1.3771833E0,1.4098874E0,1.3203021E0,7.480343E1,3.8135047E0,1.4451085E2,3.9972858E2,5.9126225E0,1.3452268E1,2.784645E2,2.0373344E0,1.4204459E1,2.0373344E0,6.1195946E0,8.2631E0],"tree_param":{"num_deleted":"0","num_feature":"62","num_nodes":"91","size_leaf_vector":"1"}},{"base_weights":[1.0460588E-2,-5.957202E-2,2.0190395E-1,-5.326787E-2,-1.2139523E0,5.096336E-1,1.1932444E-1,7.180951E-1,-5.9187964E-2,4.0825027E-1,1.0687865E0,-4.071024E-1,2.1460985E-1,-6.4927906E-2,6.824922E-1,3.214124E-1,1.426727E0,-9.741228E-2,-6.90936E-1,8.6611855E-1,1.5586509E-1,-1.4643861E-1,5.3908106E-2,9.881593E-2,5.265912E-1,5.1085705E-1,3.2461196E-2,-2.0047013E-1,1.7094336E-1,-7.5269026E-1,6.3546576E-2,5.529186E-1,5.5759823E-1,-3.516904E-2,3.1005186E-1,-3.8990997E-2,-4.0423593E-1,3.508768E-1,4.7450783E-3,-1.5014039E-1,5.5717524E-2,1.9560325E-1,-2.2466077E-2,-1.0874032E-1,-3.9022736E-2,-2.9631571E-3,6.5194726E-2,-1.4417106E-1,-2.7384657E-1,1.0662467E-2,2.1429673E-1,-4.428532E-2,2.0202152E-1,6.4787075E-2,1.707251E-1],"categories":[],"categories_nodes":[],"categories_segments":[],"categories_sizes":[],"default_left":[0,0,0,0,0,0,0,0,0,0,0,0,0,0,0,0,0,0,0,0,0,0,0,0,0,0,0,0,0,0,0,0,0,0,0,0,0,0,0,0,0,0,0,0,0,0,0,0,0,0,0,0,0,0,0],"id":13,"left_children":[1,3,5,7,-1,9,11,-1,13,15,-1,17,19,21,-1,23,25,27,29,31,33,35,37,39,41,-1,-1,43,45,47,-1,49,-1,51,53,-1,-1,-1,-1,-1,-1,-1,-1,-1,-1,-1,-1,-1,-1,-1,-1,-1,-1,-1,-1],"loss_changes":[2.7891493E1,3.80703E1,1.4098158E1,2.2187363E1,0E0,3.49385E1,2.2187958E1,0E0,2.0501417E1,9.705963E0,0E0,5.8986797E0,1.4168398E1,1.4696479E1,0E0,4.8435507E0,2.997261E0,9.6411717E-1,2.124609E0,8.513044E0,1.014434E1,1.7620705E1,2.623144E1,2.834806E0,4.239069E0,0E0,0E0,2.3512572E-1,8.489826E-2,1.0085812E0,0E0,2.0416346E0,0E0,1.2413979E1,4.5197372E0,0E0,0E0,0E0,0E0,0E0,0E0,0E0,0E0,0E0,0E0,0E0,0E0,0E0,0E0,0E0,0E0,0E0,0E0,0E0,0E0],"parents":[2147483647,0,0,1,1,2,2,3,3,5,5,6,6,8,8,9,9,11,11,12,12,13,13,15,15,16,16,17,17,18,18,19,19,20,20,21,21,22,22,23,23,24,24,27,27,28,28,29,29,31,31,33,33,34,34],"right_children":[2,4,6,8,-1,10,12,-1,14,16,-1,18,20,22,-1,24,26,28,30,32,34,36,38,40,42,-1,-1,44,46,48,-1,50,-1,52,54,-1,-1,-1,-1,-1,-1,-1,-1,-1,-1,-1,-1,-1,-1,-1,-1,-1,-1,-1,-1],"split_conditions":[6.5955245E-1,6.553896E-1,8.601229E-1,-1.7339749E0,-1.2139523E0,8.55865E-1,9.3517345E-1,7.180951E-1,3.0463093E1,4.0928707E0,1.0687865E0,-6.316541E-1,-2.075805E0,2.8485018E-1,6.824922E-1,8.260599E-1,-2.7061635E-1,-2.075805E0,6.230111E0,3.6559513E0,1.1227993E0,2.6854634E-1,-1.2834531E0,-1.8156278E0,3.8633811E0,5.1085705E-1,3.2461196E-2,-1.7259567E0,-1.3265126E0,-3.2254472E-1,6.3546576E-2,-1.11728E0,5.5759823E-1,4.1349006E0,8.1200767E-1,-3.8990997E-2,-4.0423593E-1,3.508768E-1,4.7450783E-3,-1.5014039E-1,5.5717524E-2,1.9560325E-1,-2.2466077E-2,-1.0874032E-1,-3.9022736E-2,-2.9631571E-3,6.5194726E-2,-1.4417106E-1,-2.7384657E-1,1.0662467E-2,2.1429673E-1,-4.428532E-2,2.0202152E-1,6.4787075E-2,1.707251E-1],"split_indices":[61,61,61,3,0,61,61,0,7,16,0,0,0,1,0,61,0,0,28,19,61,1,3,1,21,0,0,1,1,4,0,1,0,6,1,0,0,0,0,0,0,0,0,0,0,0,0,0,0,0,0,0,0,0,0],"split_type":[0,0,0,0,0,0,0,0,0,0,0,0,0,0,0,0,0,0,0,0,0,0,0,0,0,0,0,0,0,0,0,0,0,0,0,0,0,0,0,0,0,0,0,0,0,0,0,0,0,0,0,0,0,0,0],"sum_hessian":[2.0784275E3,1.5222548E3,5.5617285E2,1.5208633E3,1.3914311E0,1.1657793E2,4.395949E2,2.6972518E0,1.518166E3,1.1392833E2,2.6495988E0,6.687204E1,3.7272287E2,1.5154117E3,2.7543666E0,1.06189896E2,7.738433E0,3.2621742E1,3.4250298E1,2.9691011E1,3.4303186E2,8.987314E2,6.1668036E2,5.1643726E1,5.454617E1,6.157434E0,1.5809987E0,2.375281E1,8.868934E0,3.2212963E1,2.0373344E0,2.375281E1,5.9382024E0,1.5355382E2,1.8947803E2,8.8766766E2,1.1063716E1,1.937868E1,5.9730164E2,5.9382024E0,4.5705524E1,4.5065205E1,9.480964E0,5.9382024E0,1.7814608E1,1.9708741E0,6.8980594E0,1.3415832E1,1.879713E1,5.9382024E0,1.7814608E1,1.3320607E2,2.0347754E1,1.403344E2,4.9143635E1],"tree_param":{"num_deleted":"0","num_feature":"62","num_nodes":"55","size_leaf_vector":"1"}},{"base_weights":[8.53836E-3,-1.1935704E-1,8.1544146E-2,-1.7066437E-1,1.2997027E-1,3.2003966E-1,4.1257378E-2,-1.7812128E-1,5.5951494E-1,3.4477332E-1,-5.0940543E-1,2.882498E-1,6.2236744E-1,9.546953E-3,3.8227153E-1,1.1427E-1,-2.1536261E-1,1.4528476E-1,6.5643024E-1,-5.4045045E-1,3.5336323E-2,9.992529E-2,4.7887975E-1,-2.0913424E-2,3.5481596E-1,1.036093E0,2.4877787E-1,6.477553E-2,8.04072E-1,-1.6443335E-1,-5.2053016E-1,-4.5490792E-1,2.1823305E-1,8.054619E-1,1.1406219E-1,-7.5683296E-1,-4.2697847E-1,4.0857524E-2,7.001745E-1,3.831032E-1,4.0420943E-1,-1.1056772E-1,1.0568124E-1,2.4063434E-1,9.962148E-1,1.3236566E-1,1.1019806E0,2.4422468E-3,1.9335155E-1,3.337838E-1,3.620696E-2,-4.4361167E-2,-2.9406574E-1,2.9477576E-2,-2.1102722E-1,-2.1794233E-1,-2.0507583E-2,5.1970594E-3,2.4290277E-1,1.2673898E-1,2.6522353E-1,8.081223E-2,-1.6925834E-1,-1.18384466E-1,-2.6530585E-1,-1.4386457E-1,-8.782094E-3,-2.181617E-3,1.5916549E-1,-3.0535057E-2,2.5426075E-1,-1.8632562E-1,1.323493E-1,-2.9169746E-2,-1.0137486E0,1.1343416E-1,1.0220583E-2,1.06583506E-1,-1.8845396E-2,7.601167E-2,-5.105411E-1],"categories":[],"categories_nodes":[],"categories_segments":[],"categories_sizes":[],"default_left":[0,0,0,0,0,0,0,0,0,0,0,0,0,0,0,0,0,0,0,0,0,0,0,0,0,0,0,0,0,0,0,0,0,0,0,0,0,0,0,0,0,0,0,0,0,0,0,0,0,0,0,0,0,0,0,0,0,0,0,0,0,0,0,0,0,0,0,0,0,0,0,0,0,0,0,0,0,0,0,0,0],"id":14,"left_children":[1,3,5,7,9,11,13,15,-1,17,19,21,-1,23,25,27,29,31,33,35,-1,37,39,41,43,-1,45,47,49,51,53,55,57,59,61,63,65,67,69,-1,71,73,75,77,-1,79,-1,-1,-1,-1,-1,-1,-1,-1,-1,-1,-1,-1,-1,-1,-1,-1,-1,-1,-1,-1,-1,-1,-1,-1,-1,-1,-1,-1,-1,-1,-1,-1,-1,-1,-1],"loss_changes":[1.9425566E1,9.693838E0,1.2711677E1,9.857054E0,1.7974613E1,1.0068438E1,1.2260587E1,6.841984E0,0E0,5.97287E0,7.060938E-1,6.737129E0,0E0,1.0931184E1,3.8691833E1,2.3851478E0,8.550922E0,2.7610917E0,2.964182E0,4.531498E-1,0E0,3.3870287E0,5.06559E0,1.0855393E1,2.7736012E1,0E0,3.679715E1,2.2173667E0,8.5494137E-1,6.309273E0,9.01129E0,6.7598367E-1,6.507526E0,5.145683E-1,1.1331922E0,9.361267E-2,4.6756077E-1,2.0959978E0,1.098896E0,0E0,3.574544E0,2.407165E1,7.7249155E0,2.882512E0,0E0,2.0736217E1,0E0,0E0,0E0,0E0,0E0,0E0,0E0,0E0,0E0,0E0,0E0,0E0,0E0,0E0,0E0,0E0,0E0,0E0,0E0,0E0,0E0,0E0,0E0,0E0,0E0,0E0,0E0,0E0,0E0,0E0,0E0,0E0,0E0,0E0,0E0],"parents":[2147483647,0,0,1,1,2,2,3,3,4,4,5,5,6,6,7,7,9,9,10,10,11,11,13,13,14,14,15,15,16,16,17,17,18,18,19,19,21,21,22,22,23,23,24,24,26,26,27,27,28,28,29,29,30,30,31,31,32,32,33,33,34,34,35,35,36,36,37,37,38,38,40,40,41,41,42,42,43,43,45,45],"right_children":[2,4,6,8,10,12,14,16,-1,18,20,22,-1,24,26,28,30,32,34,36,-1,38,40,42,44,-1,46,48,50,52,54,56,58,60,62,64,66,68,70,-1,72,74,76,78,-1,80,-1,-1,-1,-1,-1,-1,-1,-1,-1,-1,-1,-1,-1,-1,-1,-1,-1,-1,-1,-1,-1,-1,-1,-1,-1,-1,-1,-1,-1,-1,-1,-1,-1,-1,-1],"split_conditions":[-9.418333E-1,4.315873E0,-8.560356E-1,1.6664333E1,8.124968E-1,4.6341996E0,1.3907939E0,4.0876085E-1,5.5951494E-1,-2.2205474E-2,3.8633811E0,8.648679E-2,6.2236744E-1,3.6559513E0,-1.3537295E0,4.315873E0,-9.7556394E-1,4.0876085E-1,7.4443704E-1,1.1735345E0,3.5336323E-2,4.1349006E0,1.1365985E-1,6.5955245E-1,4.6341996E0,1.036093E0,6.3233924E0,3.6866817E0,6.5440387E-1,4.5208917E0,-9.6194667E-1,-8.645705E-1,-1.7147672E0,-2.075805E0,4.0928707E0,-4.107803E-1,1.2766671E0,4.0253825E0,8.5162085E-1,3.831032E-1,-1.2233834E0,6.553896E-1,8.55865E-1,-2.7061635E-1,9.962148E-1,2.667928E0,1.1019806E0,2.4422468E-3,1.9335155E-1,3.337838E-1,3.620696E-2,-4.4361167E-2,-2.9406574E-1,2.9477576E-2,-2.1102722E-1,-2.1794233E-1,-2.0507583E-2,5.1970594E-3,2.4290277E-1,1.2673898E-1,2.6522353E-1,8.081223E-2,-1.6925834E-1,-1.18384466E-1,-2.6530585E-1,-1.4386457E-1,-8.782094E-3,-2.181617E-3,1.5916549E-1,-3.0535057E-2,2.5426075E-1,-1.8632562E-1,1.323493E-1,-2.9169746E-2,-1.0137486E0,1.1343416E-1,1.0220583E-2,1.06583506E-1,-1.8845396E-2,7.601167E-2,-5.105411E-1],"split_indices":[2,55,4,9,0,52,1,59,0,1,21,1,0,19,0,18,61,59,4,0,0,6,1,61,52,0,42,12,1,22,2,1,0,0,16,1,1,40,2,0,3,61,61,0,0,1,0,0,0,0,0,0,0,0,0,0,0,0,0,0,0,0,0,0,0,0,0,0,0,0,0,0,0,0,0,0,0,0,0,0,0],"split_type":[0,0,0,0,0,0,0,0,0,0,0,0,0,0,0,0,0,0,0,0,0,0,0,0,0,0,0,0,0,0,0,0,0,0,0,0,0,0,0,0,0,0,0,0,0,0,0,0,0,0,0,0,0,0,0,0,0,0,0,0,0,0,0,0,0,0,0,0,0,0,0,0,0,0,0,0,0,0,0,0,0],"sum_hessian":[2.0784275E3,7.550522E2,1.3233754E3,6.264541E2,1.2859811E2,1.902372E2,1.1331382E3,6.250769E2,1.3771833E0,9.660403E1,3.199408E1,1.8799522E2,2.2419682E0,1.0376743E3,9.546387E1,7.0386444E1,5.546905E2,5.979561E1,3.680842E1,3.0616898E1,1.3771833E0,9.533619E1,9.2659035E1,9.544133E2,8.326098E1,2.9404266E0,9.2523445E1,6.669488E1,3.6915662E0,4.7667694E2,7.801354E1,5.9126225E0,5.3882988E1,2.8493816E1,8.314603E0,8.581964E0,2.2034933E1,8.776747E1,7.5687246E0,6.5496483E0,8.610938E1,5.587988E2,3.956145E2,8.121547E1,2.0455103E0,9.048611E1,2.0373344E0,6.1683006E1,5.0118685E0,2.1105676E0,1.5809987E0,4.6834937E2,8.327573E0,1.7903383E1,6.0110157E1,2.9563112E0,2.9563112E0,4.0988674E1,1.2894312E1,5.9382024E0,2.2555614E1,7.2559323E0,1.0586703E0,3.3007553E0,5.2812085E0,1.9280567E1,2.7543666E0,8.081019E1,6.9572787E0,1.2228918E0,6.345833E0,2.4457836E0,8.3663605E1,5.5755383E2,1.2449647E0,8.145585E1,3.1415866E2,5.8821846E1,2.2393625E1,8.5694405E1,4.791701E0],"tree_param":{"num_deleted":"0","num_feature":"62","num_nodes":"81","size_leaf_vector":"1"}},{"base_weights":[7.716731E-3,4.4705505E-3,5.4037166E-1,-1.16347075E-1,4.571799E-2,-6.265233E-2,-2.977154E-1,-1.8343996E-1,6.9160216E-2,-3.220609E-2,-4.3506896E-1,5.7626915E-1,-4.16534E-1,-1.5590802E-1,-2.8271616E-1,8.490534E-2,-3.7272587E-1,-1.2515344E-1,9.361522E-2,-2.6231265E-1,-4.0787503E-1,9.071402E-1,-1.6908605E-1,-5.144853E-1,3.498342E-1,-3.009523E-1,-4.5570116E-2,1.1509438E-1,-1.5328921E-1,1.2076863E0,-6.9384706E-1,-2.6666442E-2,-1.5228276E-1,6.5647936E-1,1.859674E-2,1.2669396E-2,-9.3228936E-2,5.5478895E-1,3.83265E-2,-1.734305E-1,1.0828652E-1,3.0760172E-1,-1.8973161E-1,-1.181803E-1,1.4161512E-1,9.9685706E-2,-4.598291E-2,6.500926E-2,3.5643522E-3,-7.172137E-2,7.176111E-2,4.732056E-1,1.8895106E-1,-5.170761E-1,-1.266023E-1],"categories":[],"categories_nodes":[],"categories_segments":[],"categories_sizes":[],"default_left":[0,0,0,0,0,0,0,0,0,0,0,0,0,0,0,0,0,0,0,0,0,0,0,0,0,0,0,0,0,0,0,0,0,0,0,0,0,0,0,0,0,0,0,0,0,0,0,0,0,0,0,0,0,0,0],"id":15,"left_children":[1,3,-1,5,7,9,11,13,15,17,19,21,23,25,-1,27,29,31,33,35,-1,37,-1,39,41,43,45,47,49,51,53,-1,-1,-1,-1,-1,-1,-1,-1,-1,-1,-1,-1,-1,-1,-1,-1,-1,-1,-1,-1,-1,-1,-1,-1],"loss_changes":[1.2098575E1,1.0354249E1,0E0,5.131272E0,8.333088E0,4.6267915E0,1.2756559E1,2.862268E0,9.812853E0,4.449144E0,4.5709105E0,6.110014E0,8.188519E0,2.2295492E0,0E0,9.784894E0,2.5479523E1,2.9876006E0,1.0581699E1,4.1496468E-1,0E0,8.493337E0,0E0,5.4994316E0,9.065785E0,4.5259356E0,3.3387938E0,1.2645231E1,5.2157626E0,8.3600044E-1,1.0746696E1,0E0,0E0,0E0,0E0,0E0,0E0,0E0,0E0,0E0,0E0,0E0,0E0,0E0,0E0,0E0,0E0,0E0,0E0,0E0,0E0,0E0,0E0,0E0,0E0],"parents":[2147483647,0,0,1,1,3,3,4,4,5,5,6,6,7,7,8,8,9,9,10,10,11,11,12,12,13,13,15,15,16,16,17,17,18,18,19,19,21,21,23,23,24,24,25,25,26,26,27,27,28,28,29,29,30,30],"right_children":[2,4,-1,6,8,10,12,14,16,18,20,22,24,26,-1,28,30,32,34,36,-1,38,-1,40,42,44,46,48,50,52,54,-1,-1,-1,-1,-1,-1,-1,-1,-1,-1,-1,-1,-1,-1,-1,-1,-1,-1,-1,-1,-1,-1,-1,-1],"split_conditions":[3.0463093E1,-6.499033E-1,5.4037166E-1,2.1094616E-1,-1.1831762E0,4.178152E0,4.0876085E-1,1.6098987E0,4.5208917E0,2.3764977E-1,4.192851E0,4.315873E0,4.178152E0,-2.075805E0,-2.8271616E-1,3.8633811E0,4.5145908E-1,4.5208917E0,3.4280038E-1,-1.5303106E0,-4.0787503E-1,2.1744289E-1,-1.6908605E-1,4.557789E0,-6.316541E-1,4.3319693E0,-1.7147672E0,-6.316541E-1,8.388335E-1,2.1744289E-1,-1.0431747E0,-2.6666442E-2,-1.5228276E-1,6.5647936E-1,1.859674E-2,1.2669396E-2,-9.3228936E-2,5.5478895E-1,3.83265E-2,-1.734305E-1,1.0828652E-1,3.0760172E-1,-1.8973161E-1,-1.181803E-1,1.4161512E-1,9.9685706E-2,-4.598291E-2,6.500926E-2,3.5643522E-3,-7.172137E-2,7.176111E-2,4.732056E-1,1.8895106E-1,-5.170761E-1,-1.266023E-1],"split_indices":[7,1,0,4,61,15,59,3,22,2,35,55,15,0,0,21,0,17,2,1,0,2,0,46,0,13,0,0,61,2,3,0,0,0,0,0,0,0,0,0,0,0,0,0,0,0,0,0,0,0,0,0,0,0,0],"split_type":[0,0,0,0,0,0,0,0,0,0,0,0,0,0,0,0,0,0,0,0,0,0,0,0,0,0,0,0,0,0,0,0,0,0,0,0,0,0,0,0,0,0,0,0,0,0,0,0,0,0,0,0,0,0,0],"sum_hessian":[2.0784275E3,2.0756733E3,2.7543666E0,5.278195E2,1.5478538E3,4.082894E2,1.1953011E2,1.4301315E2,1.4048406E3,3.784374E2,2.9851978E1,1.384459E1,1.05685524E2,1.3916998E2,3.843169E0,1.3572861E3,4.7554462E1,2.1765529E2,1.6078212E2,2.6233644E1,3.618333E0,1.0888279E1,2.9563112E0,9.3999855E1,1.1685668E1,5.9382023E1,7.978796E1,1.2050709E3,1.522152E2,7.564516E0,3.9989944E1,1.9992992E2,1.7725382E1,1.3771833E0,1.5940494E2,3.618333E0,2.2615313E1,4.3079143E0,6.5803647E0,8.794848E1,6.05138E0,6.8980594E0,4.787609E0,5.344382E1,5.9382024E0,1.7235865E1,6.255209E1,6.067179E2,5.98353E2,1.2523509E2,2.6980099E1,3.558412E0,4.006104E0,7.236666E0,3.275328E1],"tree_param":{"num_deleted":"0","num_feature":"62","num_nodes":"55","size_leaf_vector":"1"}},{"base_weights":[5.8374377E-3,-1.3986984E-2,2.0250747E-1,-1.8880242E-2,9.815292E-1,1.6942395E-1,7.3789865E-1,5.8030423E-2,-7.553102E-2,4.5206968E-2,7.0300245E-1,1.2276762E-1,5.808664E-1,5.025712E-1,4.028217E-1,4.942567E-2,7.016153E-1,-6.1235998E-2,-7.279697E-1,-5.663712E-2,7.381126E-2,2.1718894E-1,-2.64097E-1,6.260293E-1,-2.2724453E-2,1.8419051E-1,1.1317595E-1,-1.368855E-1,8.351957E-2,4.6584535E-1,-8.6204864E-2,-1.3200245E0,-3.084352E-1,-2.451934E-2,2.0460035E-3,-7.05727E-2,2.7909863E-1,1.836677E-1,-4.1472003E-1,1.9461936E-1,4.4223636E-2,4.652243E-2,-1.8166071E-4,-3.0727673E-2,-2.6566157E-1,-2.8317539E-2,4.197308E-2,1.7290819E0,5.2609287E-2,-2.298225E-2,-3.3547062E-1,-5.466817E-2,-4.4969192E-1,-1.6422991E-1,-3.2227945E-2,-8.597282E-2,6.261507E-1,7.801539E-2,2.2289981E-1,-6.397547E-2,9.830517E-2,4.5800738E-2,-1.5063125E-1],"categories":[],"categories_nodes":[],"categories_segments":[],"categories_sizes":[],"default_left":[0,0,0,0,0,0,0,0,0,0,0,0,0,0,0,0,0,0,0,0,0,0,0,0,0,0,0,0,0,0,0,0,0,0,0,0,0,0,0,0,0,0,0,0,0,0,0,0,0,0,0,0,0,0,0,0,0,0,0,0,0,0,0],"id":16,"left_children":[1,3,5,7,9,11,13,15,17,19,-1,21,23,-1,25,27,-1,29,31,33,-1,35,37,39,-1,-1,41,43,45,47,49,51,53,-1,-1,55,57,59,61,-1,-1,-1,-1,-1,-1,-1,-1,-1,-1,-1,-1,-1,-1,-1,-1,-1,-1,-1,-1,-1,-1,-1,-1],"loss_changes":[8.1102495E0,9.225079E0,3.2488484E0,8.202984E0,1.1705396E1,3.3973007E0,2.713235E0,1.555855E1,1.0065432E1,1.470606E-1,0E0,6.0317717E0,5.8520555E-1,0E0,4.9702394E-1,5.0722075E0,0E0,1.4014694E1,5.3428755E0,8.728851E-3,0E0,2.3716178E0,2.2706897E0,8.990717E-2,0E0,0E0,2.4557598E-2,3.0985193E0,6.776064E0,7.3137566E1,9.964326E0,1.6195354E0,6.5476775E-1,0E0,0E0,1.1864196E1,7.685461E-1,5.776845E-1,1.2990737E0,0E0,0E0,0E0,0E0,0E0,0E0,0E0,0E0,0E0,0E0,0E0,0E0,0E0,0E0,0E0,0E0,0E0,0E0,0E0,0E0,0E0,0E0,0E0,0E0],"parents":[2147483647,0,0,1,1,2,2,3,3,4,4,5,5,6,6,7,7,8,8,9,9,11,11,12,12,14,14,15,15,17,17,18,18,19,19,21,21,22,22,23,23,26,26,27,27,28,28,29,29,30,30,31,31,32,32,35,35,36,36,37,37,38,38],"right_children":[2,4,6,8,10,12,14,16,18,20,-1,22,24,-1,26,28,-1,30,32,34,-1,36,38,40,-1,-1,42,44,46,48,50,52,54,-1,-1,56,58,60,62,-1,-1,-1,-1,-1,-1,-1,-1,-1,-1,-1,-1,-1,-1,-1,-1,-1,-1,-1,-1,-1,-1,-1,-1],"split_conditions":[1.1227993E0,1.6664333E1,1.9886013E0,-3.2254472E-1,4.192851E0,7.088549E-1,1.1735345E0,2.667928E0,5.4741817E0,9.3156916E-1,7.0300245E-1,5.2382035E0,4.178152E0,5.025712E-1,8.998365E0,-1.11728E0,7.016153E-1,-1.1032443E0,-2.622701E-1,2.3764977E-1,7.381126E-2,-3.2254472E-1,-6.316541E-1,3.6160417E0,-2.2724453E-2,1.8419051E-1,2.9096355E0,1.0833293E0,-1.1130117E0,4.0876085E-1,1.8114188E0,6.5440387E-1,-9.418333E-1,-2.451934E-2,2.0460035E-3,4.3319693E0,6.230111E0,-6.6892445E-1,-8.560356E-1,1.9461936E-1,4.4223636E-2,4.652243E-2,-1.8166071E-4,-3.0727673E-2,-2.6566157E-1,-2.8317539E-2,4.197308E-2,1.7290819E0,5.2609287E-2,-2.298225E-2,-3.3547062E-1,-5.466817E-2,-4.4969192E-1,-1.6422991E-1,-3.2227945E-2,-8.597282E-2,6.261507E-1,7.801539E-2,2.2289981E-1,-6.397547E-2,9.830517E-2,4.5800738E-2,-1.5063125E-1],"split_indices":[61,9,1,4,35,3,0,1,26,1,0,30,15,0,24,1,0,3,3,2,0,4,0,8,0,0,2,61,61,59,4,1,2,0,0,13,28,1,4,0,0,0,0,0,0,0,0,0,0,0,0,0,0,0,0,0,0,0,0,0,0,0,0],"split_type":[0,0,0,0,0,0,0,0,0,0,0,0,0,0,0,0,0,0,0,0,0,0,0,0,0,0,0,0,0,0,0,0,0,0,0,0,0,0,0,0,0,0,0,0,0,0,0,0,0,0,0,0,0,0,0,0,0,0,0,0,0,0,0],"sum_hessian":[2.0784275E3,1.8889496E3,1.8947803E2,1.8806864E3,8.2631E0,1.7969081E2,9.787217E0,7.9769257E2,1.0829939E3,5.5087333E0,2.7543666E0,1.6255585E2,1.7134956E1,1.5241175E0,8.2631E0,7.9571216E2,1.9804533E0,1.0608445E3,2.2149397E1,4.13155E0,1.3771833E0,1.310173E2,3.1538555E1,1.6075819E1,1.059138E0,4.13155E0,4.13155E0,1.2262032E2,6.730918E2,4.7182682E1,1.0136618E3,8.295804E0,1.3853594E1,2.7543666E0,1.3771833E0,2.3171982E1,1.07845314E2,7.8834963E0,2.3655058E1,1.5008505E1,1.0673139E0,2.7543666E0,1.3771833E0,1.18311356E2,4.308966E0,1.6183434E2,5.1125748E2,1.4731914E0,4.570949E1,1.0053864E3,8.275353E0,1.4017113E0,6.8940926E0,5.541437E0,8.312156E0,2.1851679E1,1.3203021E0,1.0509095E2,2.7543666E0,1.9708741E0,5.9126225E0,3.0572295E0,2.0597828E1],"tree_param":{"num_deleted":"0","num_feature":"62","num_nodes":"63","size_leaf_vector":"1"}},{"base_weights":[5.824888E-3,3.2624379E-3,4.2649665E-1,-1.1390554E-2,2.3826626E-1,-4.512685E-3,-5.441666E-1,7.947374E-1,1.564271E-1,-1.5194947E-2,2.7629668E-1,-6.6075575E-1,1.5388195E-1,2.1008514E-1,-8.5371953E-1,-8.221196E-3,-5.7411695E-1,1.5776026E-1,8.1004345E-1,-4.0845323E-1,-9.7550607E-1,2.6234868E-1,-2.7000257E-1,-1.8676682E-1,-5.5425346E-1,-8.522379E-3,4.684267E-2,-2.945541E-1,1.9447895E-3,6.28203E-2,-2.2047076E-1,-3.120818E-2,-2.2850867E-1,-9.274957E-2,-4.4738266E-1,1.1449003E-1,-9.920999E-2,-2.3598953E-1,5.800968E-2],"categories":[],"categories_nodes":[],"categories_segments":[],"categories_sizes":[],"default_left":[0,0,0,0,0,0,0,0,0,0,0,0,0,0,0,0,0,0,0,0,0,0,0,0,0,0,0,0,0,0,0,0,0,0,0,0,0,0,0],"id":17,"left_children":[1,3,-1,5,7,9,11,-1,13,15,17,19,-1,21,23,25,27,29,-1,31,33,35,-1,37,-1,-1,-1,-1,-1,-1,-1,-1,-1,-1,-1,-1,-1,-1,-1],"loss_changes":[7.5395155E0,7.1537576E0,0E0,7.1640964E0,2.364288E1,5.7990527E0,3.4099383E0,0E0,6.62893E0,7.2528634E0,1.9929523E1,1.4184532E0,0E0,6.8379807E0,3.7639394E0,6.1096354E0,5.434851E0,3.3164887E0,0E0,1.4714124E0,2.7899895E0,7.8688064E0,0E0,1.2516928E0,0E0,0E0,0E0,0E0,0E0,0E0,0E0,0E0,0E0,0E0,0E0,0E0,0E0,0E0,0E0],"parents":[2147483647,0,0,1,1,3,3,4,4,5,5,6,6,8,8,9,9,10,10,11,11,13,13,14,14,15,15,16,16,17,17,19,19,20,20,21,21,23,23],"right_children":[2,4,-1,6,8,10,12,-1,14,16,18,20,-1,22,24,26,28,30,-1,32,34,36,-1,38,-1,-1,-1,-1,-1,-1,-1,-1,-1,-1,-1,-1,-1,-1,-1],"split_conditions":[3.0463093E1,1.480465E0,4.2649665E-1,1.7600727E0,-1.3537295E0,4.163595E0,7.0478883E0,7.947374E-1,5.779914E0,6.2762494E0,4.6341996E0,1.2779279E0,1.5388195E-1,4.0253825E0,2.260332E0,3.6559513E0,2.7941555E-1,4.6538734E0,8.1004345E-1,1.1365985E-1,-1.654945E0,5.4741817E0,-2.7000257E-1,1.1735345E0,-5.5425346E-1,-8.522379E-3,4.684267E-2,-2.945541E-1,1.9447895E-3,6.28203E-2,-2.2047076E-1,-3.120818E-2,-2.2850867E-1,-9.274957E-2,-4.4738266E-1,1.1449003E-1,-9.920999E-2,-2.3598953E-1,5.800968E-2],"split_indices":[7,1,0,3,0,11,45,0,56,58,52,4,0,40,1,19,1,44,0,1,61,26,0,0,0,0,0,0,0,0,0,0,0,0,0,0,0,0,0],"split_type":[0,0,0,0,0,0,0,0,0,0,0,0,0,0,0,0,0,0,0,0,0,0,0,0,0,0,0,0,0,0,0,0,0,0,0,0,0,0,0],"sum_hessian":[2.0784275E3,2.0756733E3,2.7543666E0,1.9547424E3,1.2093084E2,1.9308248E3,2.3917501E1,2.9404266E0,1.1799042E2,1.8609774E3,6.984751E1,2.1879349E1,2.038153E0,1.12791084E2,5.1993318E0,1.839046E3,2.1931335E1,6.760636E1,2.2411497E0,1.3419799E1,8.459549E0,1.08448944E2,4.3421383E0,3.8221483E0,1.3771833E0,1.6386215E3,2.0042453E2,1.2477696E1,9.453639E0,6.463276E1,2.9735985E0,7.9032397E0,5.516559E0,4.3888555E0,4.0706935E0,9.058527E1,1.7863672E1,1.0677817E0,2.7543666E0],"tree_param":{"num_deleted":"0","num_feature":"62","num_nodes":"39","size_leaf_vector":"1"}},{"base_weights":[4.0706284E-3,1.6820893E-1,-1.4942819E-2,1.16568565E-1,1.4193237E0,-3.865645E-4,-2.901638E-1,9.769893E-2,5.279232E-1,8.512336E-3,-4.144459E-1,-2.1641734E0,-1.2089424E-1,4.5134178E-1,1.7959031E-3,1.6832357E-2,-4.1272438E-1,-3.0518687E-1,-5.657016E-1,-1.2163867E0,-6.2688035E-1,-2.2126867E-1,1.2234966E0,1.8468587E-1,3.829858E-1,-5.36116E-2,7.8679276E-1,1.0997974E-2,5.751407E-1,-1.1716428E0,-2.4613632E-1,-3.8960394E-1,1.9899632E-1,-2.424064E-1,-2.6314402E-1,-4.8499715E-1,1.8579727E-1,7.1959265E-2,4.1115883E-1,-4.332333E-2,1.0646553E-1,-2.9871194E-2,1.8697312E-1,4.6114358E-1,4.5552045E-2,-1.0399867E-2,2.4229174E-2,7.1226545E-2,2.5529662E-1,-3.9684737E-1,-1.19406775E-1,3.6613703E-2,-1.2238645E-1,1.1648528E-2,-2.0131576E-1,-8.286039E-3,-1.06967196E-1,-4.753247E-2,-2.4637084E-1,-3.2760058E-2,8.470453E-1],"categories":[],"categories_nodes":[],"categories_segments":[],"categories_sizes":[],"default_left":[0,0,0,0,0,0,0,0,0,0,0,0,0,0,0,0,0,0,0,0,0,0,0,0,0,0,0,0,0,0,0,0,0,0,0,0,0,0,0,0,0,0,0,0,0,0,0,0,0,0,0,0,0,0,0,0,0,0,0,0,0],"id":18,"left_children":[1,3,5,7,-1,9,11,13,-1,15,17,19,21,23,25,27,29,31,-1,-1,33,35,37,39,-1,41,43,45,47,49,51,53,-1,-1,55,57,59,-1,-1,-1,-1,-1,-1,-1,-1,-1,-1,-1,-1,-1,-1,-1,-1,-1,-1,-1,-1,-1,-1,-1,-1],"loss_changes":[6.4920645E0,5.0332947E1,7.4693227E0,6.480775E0,0E0,6.532102E0,2.9447262E1,7.2294016E0,0E0,6.0894237E0,5.420075E0,1.9834312E1,1.2004854E1,9.771715E0,7.3801093E0,5.540566E0,3.966411E0,3.1946507E0,0E0,0E0,1.4509463E-1,8.867678E0,5.6713486E-1,2.0418613E0,0E0,4.993294E0,5.096357E0,5.374943E0,1.4367752E0,1.5086794E-1,1.7693796E0,4.085308E0,0E0,0E0,6.2488407E-2,5.348239E0,2.588366E1,0E0,0E0,0E0,0E0,0E0,0E0,0E0,0E0,0E0,0E0,0E0,0E0,