{"learner":{"attributes":{},"feature_names":["year","avg_grid_pos_track","track_avg_lap_time","temperature","years_since_reg_change","driver_ALB","driver_ALO","driver_ANT","driver_BEA","driver_BOR","driver_BOT","driver_COL","driver_DOO","driver_GAS","driver_HAD","driver_HAM","driver_HUL","driver_LAW","driver_LEC","driver_MAG","driver_NOR","driver_OCO","driver_PER","driver_PIA","driver_RIC","driver_RUS","driver_SAI","driver_SAR","driver_STR","driver_TSU","driver_VER","driver_ZHO","track_Abu Dhabi","track_Austin","track_Australia","track_Austria","track_Bahrain","track_Baku","track_Brazil","track_Canada","track_China","track_France","track_Hockenheim","track_Hungary","track_Imola","track_Jeddah","track_Las Vegas","track_Mexico","track_Miami","track_Monaco","track_Monza","track_Nürburgring","track_Portugal","track_Qatar","track_Russia","track_Silverstone","track_Singapore","track_Spa-Francorchamps","track_Spain","track_Suzuka","track_Turkey","track_Zandvoort","rain_Dry","rain_Wet","year_x_avg_time"],"feature_types":["float","float","float","float","float","float","float","float","float","float","float","float","float","float","float","float","float","float","float","float","float","float","float","float","float","float","float","float","float","float","float","float","float","float","float","float","float","float","float","float","float","float","float","float","float","float","float","float","float","float","float","float","float","float","float","float","float","float","float","float","float","float","float","float","float"],"gradient_booster":{"model":{"gbtree_model_param":{"num_parallel_tree":"1","num_trees":"50"},"iteration_indptr":[0,1,2,3,4,5,6,7,8,9,10,11,12,13,14,15,16,17,18,19,20,21,22,23,24,25,26,27,28,29,30,31,32,33,34,35,36,37,38,39,40,41,42,43,44,45,46,47,48,49,50],"tree_info":[0,0,0,0,0,0,0,0,0,0,0,0,0,0,0,0,0,0,0,0,0,0,0,0,0,0,0,0,0,0,0,0,0,0,0,0,0,0,0,0,0,0,0,0,0,0,0,0,0,0],"trees":[{"base_weights":[2.0142277E-6,-8.393375E0,1.0758409E1,-1.1390953E1,-2.5439744E0,4.777433E0,1.5901976E1,-1.5835689E1,-8.969069E0,1.2262458E1,-4.7010317E0,7.3842254E0,3.39087E0,2.273591E1,1.3978138E1,-1.4972384E1,-5.8577E0,-4.534538E0,-1.032598E1,-7.971596E-1,1.863831E1,-6.063686E0,3.6651427E-1,8.135001E0,1.9781197E0,6.0258203E0,3.2241569E0,1.7851433E1,9.150988E0,1.140363E1,2.0427387E1,-1.0988027E0,-1.5041476E1,-8.05148E0,2.0761158E0,-8.208948E0,-1.1402024E1,-3.3695114E-1,-2.3461893E-2,6.1352925E0,2.387175E0,-3.2447565E-1,-6.9356556E0,4.3083944E0,-8.1599164E-1,9.272515E0,5.7685833E0,2.3462913E0,1.0490922E0,-1.0555754E0,3.8556058E0,6.2951727E0,4.2718606E0,1.7376453E1,9.737869E0,7.943251E0,5.246123E0,-4.2619166E0,-4.9528675E0,-2.5788832E0,4.3299302E-1,4.527485E-1,9.134158E-1,-2.8863606E0,-1.3878841E0,-3.6466732E0,-2.664505E0,-6.034368E-1,4.4787693E0,-1.9411355E0,-3.6740634E0,1.0261174E0,1.7583216E0,1.2461049E-1,-7.134024E-1,3.0161269E0,1.8926499E0,1.2951828E0,1.8809999E0,7.4042094E-1,1.6697869E-1,6.087856E-2,4.0728244E-1,2.0579453E0,-4.7387204E-1,-9.8619735E-1,1.2353384E0,5.9731207E0,4.216997E0,3.9101188E0,2.6025093E0],"categories":[],"categories_nodes":[],"categories_segments":[],"categories_sizes":[],"default_left":[0,0,0,0,0,0,0,0,0,0,0,0,0,0,0,0,0,0,0,0,0,0,0,0,0,0,0,0,0,0,0,0,0,0,0,0,0,0,0,0,0,0,0,0,0,0,0,0,0,0,0,0,0,0,0,0,0,0,0,0,0,0,0,0,0,0,0,0,0,0,0,0,0,0,0,0,0,0,0,0,0,0,0,0,0,0,0,0,0,0,0],"id":0,"left_children":[1,3,5,7,9,11,13,15,17,19,21,23,25,27,29,31,-1,33,35,37,39,41,43,45,47,-1,49,51,-1,53,55,-1,57,59,61,63,65,-1,-1,-1,-1,67,69,71,73,75,77,79,81,83,85,-1,-1,87,89,-1,-1,-1,-1,-1,-1,-1,-1,-1,-1,-1,-1,-1,-1,-1,-1,-1,-1,-1,-1,-1,-1,-1,-1,-1,-1,-1,-1,-1,-1,-1,-1,-1,-1,-1,-1],"loss_changes":[2.0487716E5,2.2318531E4,3.0513547E4,8.9260625E3,1.3891019E4,1.6418721E3,6.7051094E3,6.4997656E2,3.2481328E3,4.6239023E3,2.6177793E3,6.303867E2,7.7829517E2,3.8468164E3,6.7309766E3,1.3558594E2,0E0,3.0409817E3,8.5976953E2,4.393094E0,5.581885E2,1.4918867E3,3.8206378E2,3.221172E2,4.633812E0,0E0,8.177534E2,5.32459E2,0E0,2.835711E3,1.643207E3,0E0,6.2390625E1,4.5267188E2,2.0647964E1,6.8713477E2,4.1414062E2,0E0,0E0,0E0,0E0,1.0703406E3,5.610322E2,6.0112305E0,1.2276121E2,1.5095117E2,7.8206787E0,1.6879272E0,1.7336578E0,1.7465845E2,5.0532568E2,0E0,0E0,2.6344922E2,7.2216406E2,0E0,0E0,0E0,0E0,0E0,0E0,0E0,0E0,0E0,0E0,0E0,0E0,0E0,0E0,0E0,0E0,0E0,0E0,0E0,0E0,0E0,0E0,0E0,0E0,0E0,0E0,0E0,0E0,0E0,0E0,0E0,0E0,0E0,0E0,0E0,0E0],"parents":[2147483647,0,0,1,1,2,2,3,3,4,4,5,5,6,6,7,7,8,8,9,9,10,10,11,11,12,12,13,13,14,14,15,15,17,17,18,18,19,19,20,20,21,21,22,22,23,23,24,24,26,26,27,27,29,29,30,30,32,32,33,33,34,34,35,35,36,36,41,41,42,42,43,43,44,44,45,45,46,46,47,47,48,48,49,49,50,50,53,53,54,54],"right_children":[2,4,6,8,10,12,14,16,18,20,22,24,26,28,30,32,-1,34,36,38,40,42,44,46,48,-1,50,52,-1,54,56,-1,58,60,62,64,66,-1,-1,-1,-1,68,70,72,74,76,78,80,82,84,86,-1,-1,88,90,-1,-1,-1,-1,-1,-1,-1,-1,-1,-1,-1,-1,-1,-1,-1,-1,-1,-1,-1,-1,-1,-1,-1,-1,-1,-1,-1,-1,-1,-1,-1,-1,-1,-1,-1,-1],"split_conditions":[1.3535354E-1,-5.935443E-1,8.77662E-1,-1.1553149E0,-2.1153908E0,-4.049154E-1,-2.1153908E0,5.4830384E-1,-1.7732958E0,-5.7097286E-1,4.802293E0,4.5338235E0,-1.9138193E0,1.0511507E0,1.6330979E0,-1.2349623E0,-5.8577E0,4.261513E0,-5.966341E-1,2.7013642E-1,7.3783916E-1,-6.0813123E-1,-1.7732958E0,6.612122E-1,-7.4701047E-1,6.0258203E0,2.5784388E-1,9.2714924E-1,9.150988E0,8.847427E-1,-1.0120541E0,-1.0988027E0,1.9943191E-1,4.154374E0,-3.8930286E-2,4.261513E0,-9.2257774E-1,-3.3695114E-1,-2.3461893E-2,6.1352925E0,2.387175E0,5.0809044E-1,4.636028E0,4.3325167E0,-1.0891056E0,5.4527674E0,-1.0235676E0,3.7410119E0,-3.8628843E-1,-6.28203E-2,-6.28203E-2,6.2951727E0,4.2718606E0,1.9943191E-1,-1.4312006E0,7.943251E0,5.246123E0,-4.2619166E0,-4.9528675E0,-2.5788832E0,4.3299302E-1,4.527485E-1,9.134158E-1,-2.8863606E0,-1.3878841E0,-3.6466732E0,-2.664505E0,-6.034368E-1,4.4787693E0,-1.9411355E0,-3.6740634E0,1.0261174E0,1.7583216E0,1.2461049E-1,-7.134024E-1,3.0161269E0,1.8926499E0,1.2951828E0,1.8809999E0,7.4042094E-1,1.6697869E-1,6.087856E-2,4.0728244E-1,2.0579453E0,-4.7387204E-1,-9.8619735E-1,1.2353384E0,5.9731207E0,4.216997E0,3.9101188E0,2.6025093E0],"split_indices":[2,2,2,64,0,0,0,3,0,2,34,55,3,2,2,3,0,58,3,1,1,64,0,64,0,0,2,2,0,64,3,0,4,6,1,58,2,0,0,0,0,1,39,19,0,59,1,15,1,0,0,0,0,4,0,0,0,0,0,0,0,0,0,0,0,0,0,0,0,0,0,0,0,0,0,0,0,0,0,0,0,0,0,0,0,0,0,0,0,0,0],"split_type":[0,0,0,0,0,0,0,0,0,0,0,0,0,0,0,0,0,0,0,0,0,0,0,0,0,0,0,0,0,0,0,0,0,0,0,0,0,0,0,0,0,0,0,0,0,0,0,0,0,0,0,0,0,0,0,0,0,0,0,0,0,0,0,0,0,0,0,0,0,0,0,0,0,0,0,0,0,0,0,0,0,0,0,0,0,0,0,0,0,0,0],"sum_hessian":[2.266866E3,1.2735226E3,9.9334326E2,8.413949E2,4.3212772E2,4.6017612E2,5.331672E2,2.948099E2,5.46585E2,5.4353134E1,3.777746E2,1.582793E2,3.0189682E2,1.1474551E2,4.1842166E2,2.430125E2,5.179741E1,1.2907991E2,4.175051E2,1.811771E1,3.623542E1,2.9756366E2,8.021093E1,1.3853534E2,1.9743956E1,1.8035213E0,3.000933E2,7.247084E1,4.227466E1,3.01023E2,1.1739867E2,1.8035213E0,2.4120898E2,8.411292E1,4.496698E1,1.4360414E2,2.7390094E2,1.2078474E1,6.039237E0,3.0196186E1,6.039237E0,3.942758E1,2.5813608E2,1.7899513E1,6.231142E1,9.159037E1,4.6944965E1,1.304766E1,6.6962957E0,3.849775E1,2.6159555E2,3.623542E1,3.623542E1,6.358793E1,2.3743507E2,3.5777096E1,8.1621574E1,1.6055653E2,8.065246E1,7.963805E1,4.4748783E0,2.9977987E1,1.4988994E1,1.0179288E2,4.181127E1,2.079141E2,6.598685E1,3.6283005E1,3.1445777E0,2.3938672E2,1.8749357E1,1.3424635E1,4.4748783E0,3.525415E1,2.705727E1,7.0590164E1,2.1000208E1,1.452211E1,3.2422855E1,1.1861509E1,1.1861509E0,2.2320986E0,4.464197E0,1.6395648E0,3.6858185E1,8.85365E0,2.5274188E2,3.3228035E1,3.0359894E1,5.515047E1,1.822846E2],"tree_param":{"num_deleted":"0","num_feature":"65","num_nodes":"91","size_leaf_vector":"1"}},{"base_weights":[2.1172367E-2,-5.8902054E0,7.5981975E0,-8.006355E0,-1.760883E0,3.3817594E0,1.1224257E1,-1.113965E1,-6.299103E0,8.731174E0,-3.2895162E0,5.080239E0,2.3098385E0,1.6085495E1,9.855967E0,-1.2555425E1,-9.649615E0,-4.17625E0,-7.759536E0,-5.768638E-1,1.3275698E1,-2.0587192E-1,-4.599186E0,5.3821154E0,-6.775704E0,1.3114823E0,4.533586E0,1.263983E1,6.4691315E0,8.037845E0,1.4410567E1,-3.3035595E0,-1.3905151E1,-2.6767023E0,-3.1565285E0,-6.5912747E0,-5.0465816E-1,-6.346424E-1,-7.9178534E0,-8.1198204E-1,-1.7423617E-2,4.3537054E0,1.7727593E0,-9.8431295E-1,5.0321193E0,-5.263278E0,-1.1730113E0,9.296936E0,4.653222E0,-3.5610042E0,7.9670304E-1,-1.1563536E0,1.8653423E0,1.0484122E0,1.4943368E0,4.45734E0,3.0247211E0,1.232129E1,6.843823E0,6.233333E0,3.8550599E0,-8.8674325E-1,-4.240043E0,-1.2297771E0,-2.1774542E0,3.53404E-1,-1.0916561E0,-3.9338294E-1,1.14839815E-1,-2.5016534E0,-1.8838375E0,-1.596304E-1,-2.9295358E-1,-5.956215E-1,4.208559E-1,3.4593291E0,6.944145E-1,-1.8758687E0,-8.009896E-1,-1.6552506E-1,-7.527779E-1,2.4374638E0,4.8628874E0,1.7040179E0,7.2306615E-1,-7.693217E-1,-1.3417132E-1,5.294629E-1,2.409515E0,4.0498047E0,2.6404457E0,2.7579741E0,1.8260165E0],"categories":[],"categories_nodes":[],"categories_segments":[],"categories_sizes":[],"default_left":[0,0,0,0,0,0,0,0,0,0,0,0,0,0,0,0,0,0,0,0,0,0,0,0,0,0,0,0,0,0,0,0,0,0,0,0,0,0,0,0,0,0,0,0,0,0,0,0,0,0,0,0,0,0,0,0,0,0,0,0,0,0,0,0,0,0,0,0,0,0,0,0,0,0,0,0,0,0,0,0,0,0,0,0,0,0,0,0,0,0,0,0,0],"id":1,"left_children":[1,3,5,7,9,11,13,15,17,19,21,23,25,27,29,31,33,35,37,39,41,43,45,47,49,51,53,55,-1,57,59,-1,61,-1,-1,63,65,67,69,71,-1,-1,-1,73,75,77,79,81,83,-1,-1,85,87,-1,-1,-1,-1,89,91,-1,-1,-1,-1,-1,-1,-1,-1,-1,-1,-1,-1,-1,-1,-1,-1,-1,-1,-1,-1,-1,-1,-1,-1,-1,-1,-1,-1,-1,-1,-1,-1,-1,-1],"loss_changes":[1.0162395E5,1.1123027E4,1.5164621E4,4.436074E3,6.9754434E3,8.279004E2,3.3945234E3,5.028711E2,1.6652617E3,2.3491284E3,1.5287563E3,6.721177E2,6.258302E2,1.912291E3,3.3573164E3,1.5597461E2,2.8027344E-1,1.9947922E3,3.5958984E2,2.284739E0,2.534497E2,4.6962762E2,5.986289E2,4.5253662E2,2.6467108E2,2.725246E2,2.3398315E1,2.669453E2,0E0,1.4603789E3,9.0931445E2,0E0,1.4659375E2,0E0,0E0,1.9602148E2,4.815354E2,6.0876064E0,1.656836E2,8.264446E-2,0E0,0E0,0E0,2.41889E2,2.366E2,5.539907E2,3.551107E1,8.114502E1,3.2829077E2,0E0,0E0,3.5670734E1,8.6143555E1,0E0,0E0,0E0,0E0,1.490039E2,3.6815918E2,0E0,0E0,0E0,0E0,0E0,0E0,0E0,0E0,0E0,0E0,0E0,0E0,0E0,0E0,0E0,0E0,0E0,0E0,0E0,0E0,0E0,0E0,0E0,0E0,0E0,0E0,0E0,0E0,0E0,0E0,0E0,0E0,0E0,0E0],"parents":[2147483647,0,0,1,1,2,2,3,3,4,4,5,5,6,6,7,7,8,8,9,9,10,10,11,11,12,12,13,13,14,14,15,15,16,16,17,17,18,18,19,19,20,20,21,21,22,22,23,23,24,24,25,25,26,26,27,27,29,29,30,30,32,32,35,35,36,36,37,37,38,38,39,39,43,43,44,44,45,45,46,46,47,47,48,48,51,51,52,52,57,57,58,58],"right_children":[2,4,6,8,10,12,14,16,18,20,22,24,26,28,30,32,34,36,38,40,42,44,46,48,50,52,54,56,-1,58,60,-1,62,-1,-1,64,66,68,70,72,-1,-1,-1,74,76,78,80,82,84,-1,-1,86,88,-1,-1,-1,-1,90,92,-1,-1,-1,-1,-1,-1,-1,-1,-1,-1,-1,-1,-1,-1,-1,-1,-1,-1,-1,-1,-1,-1,-1,-1,-1,-1,-1,-1,-1,-1,-1,-1,-1,-1],"split_conditions":[1.3535354E-1,-5.935443E-1,8.77662E-1,-1.1553149E0,-2.1153908E0,6.213699E-1,-2.1153908E0,-1.2365006E0,-9.873849E-1,-5.7097286E-1,-1.4312006E0,6.78025E-1,6.140764E-1,1.0511507E0,1.6330979E0,-1.4312006E0,1.9943191E-1,-9.941642E-1,-1.4578706E0,2.7013642E-1,7.3783916E-1,4.3325167E0,4.802293E0,1.8266992E-1,-6.472951E-1,2.5784388E-1,-5.763697E-1,9.2714924E-1,6.4691315E0,8.847427E-1,3.840633E-1,-3.3035595E0,-1.2349623E0,-2.6767023E0,-3.1565285E0,-1.7732958E0,1.9943191E-1,4.260373E-1,-9.2257774E-1,-6.680041E-1,-1.7423617E-2,4.3537054E0,1.7727593E0,4.802293E0,-5.7097286E-1,-3.3472297E-1,-7.4701047E-1,1.8361302E-1,-5.763697E-1,-3.5610042E0,7.9670304E-1,-1.1741692E0,2.0753047E0,1.0484122E0,1.4943368E0,4.45734E0,3.0247211E0,-6.675595E-1,-1.4312006E0,6.233333E0,3.8550599E0,-8.8674325E-1,-4.240043E0,-1.2297771E0,-2.1774542E0,3.53404E-1,-1.0916561E0,-3.9338294E-1,1.14839815E-1,-2.5016534E0,-1.8838375E0,-1.596304E-1,-2.9295358E-1,-5.956215E-1,4.208559E-1,3.4593291E0,6.944145E-1,-1.8758687E0,-8.009896E-1,-1.6552506E-1,-7.527779E-1,2.4374638E0,4.8628874E0,1.7040179E0,7.2306615E-1,-7.693217E-1,-1.3417132E-1,5.294629E-1,2.409515E0,4.0498047E0,2.6404457E0,2.7579741E0,1.8260165E0],"split_indices":[2,2,2,64,0,0,0,2,64,2,0,64,2,2,2,0,4,2,3,1,1,19,34,64,3,2,3,2,0,64,62,0,3,0,0,0,4,1,2,1,0,0,0,34,2,64,0,2,3,0,0,3,1,0,0,0,0,3,0,0,0,0,0,0,0,0,0,0,0,0,0,0,0,0,0,0,0,0,0,0,0,0,0,0,0,0,0,0,0,0,0,0,0],"split_type":[0,0,0,0,0,0,0,0,0,0,0,0,0,0,0,0,0,0,0,0,0,0,0,0,0,0,0,0,0,0,0,0,0,0,0,0,0,0,0,0,0,0,0,0,0,0,0,0,0,0,0,0,0,0,0,0,0,0,0,0,0,0,0,0,0,0,0,0,0,0,0,0,0,0,0,0,0,0,0,0,0,0,0,0,0,0,0,0,0,0,0,0,0],"sum_hessian":[2.266866E3,1.2735226E3,9.9334326E2,8.413949E2,4.3212772E2,4.6017612E2,5.331672E2,2.948099E2,5.46585E2,5.4353134E1,3.777746E2,1.7660413E2,2.8357196E2,1.1474551E2,4.1842166E2,1.47364E2,1.474459E2,2.2434367E2,3.2224133E2,1.811771E1,3.623542E1,1.1296154E2,2.6481305E2,1.7275157E2,3.8525655E0,1.968055E2,8.676647E1,7.247084E1,4.227466E1,3.01023E2,1.1739867E2,7.3018265E1,7.434574E1,8.652434E1,6.0921574E1,1.3484975E2,8.9493935E1,7.1135416E0,3.1512778E2,1.2078474E1,6.039237E0,3.0196186E1,6.039237E0,9.9052925E1,1.3908611E1,2.213691E2,4.3443954E1,2.5270596E1,1.4748097E2,2.3335469E0,1.5190185E0,3.5873962E1,1.6093153E2,2.8776207E1,5.799027E1,3.623542E1,3.623542E1,6.358793E1,2.3743507E2,2.0683208E1,9.671546E1,1.8035213E0,7.254222E1,2.9977987E1,1.0487175E2,5.8637215E1,3.0856718E1,4.0988603E0,3.0146813E0,2.4745401E2,6.767377E1,6.039237E0,6.039237E0,6.99054E1,2.9147524E1,3.1445777E0,1.0764034E1,1.5920482E2,6.2164288E1,3.0620493E1,1.282346E1,2.3467073E1,1.8035213E0,1.0011593E2,4.736504E1,1.1139177E1,2.4734785E1,1.5961717E2,1.3143653E0,4.5518047E1,1.8069881E1,5.515047E1,1.822846E2],"tree_param":{"num_deleted":"0","num_feature":"65","num_nodes":"93","size_leaf_vector":"1"}},{"base_weights":[2.797081E-2,-4.1365075E0,5.3658595E0,-4.9216757E0,1.42343E0,2.392257E0,7.92309E0,-7.8459725E0,-3.8636193E0,9.4575205E0,-1.0351772E0,3.595373E0,1.6329739E0,1.1380381E1,6.95011E0,-8.845619E0,-6.794023E0,-1.979057E0,-4.8166595E0,3.0894608E0,1.3164836E0,4.8523703E-1,-3.4288936E0,3.823465E0,-5.3126493E0,2.7793142E-1,2.522522E0,8.94972E0,4.573239E0,5.663819E0,1.0172606E1,-2.3258815E0,-9.801649E0,-1.8828655E0,-2.2248614E0,-2.7276082E0,8.715297E-1,-5.1903505E0,-1.881659E0,2.6998496E0,-2.4802697E-1,-6.381018E-1,-1.2190332E0,6.7857475E0,3.2736008E0,-2.8131728E0,6.525753E-1,-8.3394915E-1,7.998157E-1,1.8898511E0,3.4617038E0,3.156051E0,2.141675E0,8.728485E0,4.8099E0,4.0987425E0,2.548815E0,-7.1560943E-1,-2.9853265E0,-1.2445141E0,-2.4626556E-1,4.1239865E-2,3.860892E-1,-6.256083E-1,-1.6165406E0,-7.796966E-1,-3.9701477E-1,6.221207E-1,1.1569005E0,-5.558998E-1,4.730615E-2,1.7361119E0,3.924391E0,1.4271586E0,7.1473664E-1,1.1543689E-1,-4.0627122E-1,2.1605967E-1,7.24178E-1,8.132723E-1,2.2582434E-1,8.211349E-1,1.1157671E0,3.0540912E0,2.059666E0,4.376188E-1,1.525829E0],"categories":[],"categories_nodes":[],"categories_segments":[],"categories_sizes":[],"default_left":[0,0,0,0,0,0,0,0,0,0,0,0,0,0,0,0,0,0,0,0,0,0,0,0,0,0,0,0,0,0,0,0,0,0,0,0,0,0,0,0,0,0,0,0,0,0,0,0,0,0,0,0,0,0,0,0,0,0,0,0,0,0,0,0,0,0,0,0,0,0,0,0,0,0,0,0,0,0,0,0,0,0,0,0,0,0,0],"id":2,"left_children":[1,3,5,7,9,11,13,15,17,19,21,23,25,27,29,31,33,35,37,-1,-1,39,41,43,45,47,49,51,-1,53,55,-1,57,-1,-1,59,61,63,65,67,69,-1,-1,71,73,-1,-1,75,77,79,81,-1,-1,83,85,-1,-1,-1,-1,-1,-1,-1,-1,-1,-1,-1,-1,-1,-1,-1,-1,-1,-1,-1,-1,-1,-1,-1,-1,-1,-1,-1,-1,-1,-1,-1,-1],"loss_changes":[5.0435773E4,5.570916E3,7.542209E3,3.4258652E3,3.1403926E3,4.1541602E2,1.7177852E3,2.5096875E2,1.4672305E3,1.1349121E2,4.4660236E2,3.8117773E2,3.4231482E2,9.505918E2,1.680916E3,7.899414E1,1.277832E0,5.952567E2,5.8838965E2,0E0,0E0,1.2350401E2,3.0690674E1,2.6080225E2,1.68087E2,6.6761154E1,9.5463135E1,1.3383252E2,0E0,7.484043E2,5.7666797E2,0E0,5.97666E1,0E0,0E0,5.9340405E2,1.7676773E1,2.8601074E2,2.1855835E1,5.687958E0,3.7891647E1,0E0,0E0,8.947241E1,1.8497266E2,0E0,0E0,2.3902708E1,8.288876E0,9.578024E1,2.4889526E0,0E0,0E0,1.0479346E2,2.1327246E2,0E0,0E0,0E0,0E0,0E0,0E0,0E0,0E0,0E0,0E0,0E0,0E0,0E0,0E0,0E0,0E0,0E0,0E0,0E0,0E0,0E0,0E0,0E0,0E0,0E0,0E0,0E0,0E0,0E0,0E0,0E0,0E0],"parents":[2147483647,0,0,1,1,2,2,3,3,4,4,5,5,6,6,7,7,8,8,9,9,10,10,11,11,12,12,13,13,14,14,15,15,16,16,17,17,18,18,21,21,22,22,23,23,24,24,25,25,26,26,27,27,29,29,30,30,32,32,35,35,36,36,37,37,38,38,39,39,40,40,43,43,44,44,47,47,48,48,49,49,50,50,53,53,54,54],"right_children":[2,4,6,8,10,12,14,16,18,20,22,24,26,28,30,32,34,36,38,-1,-1,40,42,44,46,48,50,52,-1,54,56,-1,58,-1,-1,60,62,64,66,68,70,-1,-1,72,74,-1,-1,76,78,80,82,-1,-1,84,86,-1,-1,-1,-1,-1,-1,-1,-1,-1,-1,-1,-1,-1,-1,-1,-1,-1,-1,-1,-1,-1,-1,-1,-1,-1,-1,-1,-1,-1,-1,-1,-1],"split_conditions":[1.3535354E-1,4.802293E0,8.77662E-1,-1.1553149E0,-2.1153908E0,6.213699E-1,-2.1153908E0,-1.2365006E0,-1.4312006E0,7.3783916E-1,-4.049154E-1,6.78025E-1,5.478731E-1,1.0511507E0,1.6330979E0,-1.4312006E0,1.9943191E-1,4.261513E0,-3.3472297E-1,3.0894608E0,1.3164836E0,-1.7732958E0,3.840633E-1,1.8266992E-1,-6.472951E-1,2.5784388E-1,6.6620797E-1,9.2714924E-1,4.573239E0,8.847427E-1,-1.0120541E0,-2.3258815E0,-1.2349623E0,-1.8828655E0,-2.2248614E0,-9.328718E-1,-7.145009E-1,-1.1235082E0,-1.2577662E-1,4.3325167E0,-1.5322969E0,-6.381018E-1,-1.2190332E0,1.8361302E-1,-3.6230734E-1,-2.8131728E0,6.525753E-1,9.63465E-1,6.583529E0,1.3055601E0,-3.3739407E-3,3.156051E0,2.141675E0,1.9943191E-1,9.2714924E-1,4.0987425E0,2.548815E0,-7.1560943E-1,-2.9853265E0,-1.2445141E0,-2.4626556E-1,4.1239865E-2,3.860892E-1,-6.256083E-1,-1.6165406E0,-7.796966E-1,-3.9701477E-1,6.221207E-1,1.1569005E0,-5.558998E-1,4.730615E-2,1.7361119E0,3.924391E0,1.4271586E0,7.1473664E-1,1.1543689E-1,-4.0627122E-1,2.1605967E-1,7.24178E-1,8.132723E-1,2.2582434E-1,8.211349E-1,1.1157671E0,3.0540912E0,2.059666E0,4.376188E-1,1.525829E0],"split_indices":[2,34,2,64,0,0,0,2,0,1,0,64,2,2,2,0,4,58,64,0,0,0,62,64,3,2,2,2,0,64,3,0,3,0,0,2,1,3,2,19,1,0,0,2,4,0,0,0,31,0,1,0,0,4,2,0,0,0,0,0,0,0,0,0,0,0,0,0,0,0,0,0,0,0,0,0,0,0,0,0,0,0,0,0,0,0,0],"split_type":[0,0,0,0,0,0,0,0,0,0,0,0,0,0,0,0,0,0,0,0,0,0,0,0,0,0,0,0,0,0,0,0,0,0,0,0,0,0,0,0,0,0,0,0,0,0,0,0,0,0,0,0,0,0,0,0,0,0,0,0,0,0,0,0,0,0,0,0,0,0,0,0,0,0,0,0,0,0,0,0,0,0,0,0,0,0,0],"sum_hessian":[2.266866E3,1.2735226E3,9.9334326E2,1.1160326E3,1.5749008E2,4.6017612E2,5.331672E2,2.948099E2,8.2122266E2,3.623542E1,1.21254654E2,1.7660413E2,2.8357196E2,1.1474551E2,4.1842166E2,1.47364E2,1.474459E2,2.7685E2,5.443727E2,3.0196186E1,6.039237E0,7.464179E1,4.661286E1,1.7275157E2,3.8525655E0,1.1290181E2,1.7067017E2,7.247084E1,4.227466E1,3.01023E2,1.1739867E2,7.3018265E1,7.434574E1,8.652434E1,6.0921574E1,2.193047E2,5.754529E1,4.8220837E2,6.2164288E1,1.7899513E1,5.674228E1,1.6700647E1,2.9912214E1,2.5270596E1,1.4748097E2,2.3335469E0,1.5190185E0,3.5873962E1,7.702785E1,1.0377523E2,6.6894936E1,3.623542E1,3.623542E1,6.358793E1,2.3743507E2,3.5777096E1,8.1621574E1,1.8035213E0,7.254222E1,1.2499243E2,9.431227E1,2.1278149E1,3.6267143E1,2.9613815E1,4.5259454E2,2.560677E1,3.6557518E1,1.3424635E1,4.4748783E0,1.0729599E1,4.601268E1,2.3467073E1,1.8035213E0,5.3715767E1,9.3765205E1,1.0810815E1,2.5063148E1,7.478522E1,2.24263E0,5.9458565E1,4.4316666E1,2.0589802E1,4.630513E1,3.3228035E1,3.0359894E1,1.8557177E1,2.188779E2],"tree_param":{"num_deleted":"0","num_feature":"65","num_nodes":"87","size_leaf_vector":"1"}},{"base_weights":[2.9309314E-2,-2.904027E0,3.789152E0,-4.014257E0,-7.380237E-1,1.6946746E0,5.590337E0,-5.52644E0,-3.1900325E0,4.4656234E0,-1.4965227E0,2.4391932E0,1.0288836E0,7.665897E0,4.721499E0,-6.232554E0,-4.7834873E0,-1.2668154E0,-3.780185E0,-1.9500172E-1,6.73859E0,-5.2013713E-1,-2.665822E0,3.1670158E0,2.3220983E0,5.5173486E-1,2.4623098E0,8.794497E0,1.6323916E0,3.5927603E0,7.1769724E0,-5.1419277E0,-6.751124E0,-1.6789852E0,-4.377091E0,-2.4070697E0,8.7205E-1,-2.8628876E0,-4.2489533E0,-3.755539E-1,5.0446603E-2,2.1923323E0,9.77645E-1,1.8746473E-1,-2.188659E0,-2.2907848E0,-1.6329827E0,2.5335712E0,-1.6461936E0,-9.635525E-1,7.948431E-1,2.5267549E0,3.9523453E-1,9.148412E0,1.3814697E0,5.731671E0,3.058573E0,3.2766628E0,6.2724514E0,-1.6261402E0,-1.1074833E0,-5.775033E-1,-2.0466204E0,-1.1678853E0,-1.4368068E0,-8.255753E-1,9.33528E-1,-1.8771581E-1,3.1459898E-1,-1.032023E0,-4.2304334E-1,-1.3653386E0,-7.401365E-1,-5.515941E-2,-1.541675E-1,-8.299445E-2,1.0421069E0,-5.626941E-1,-9.7101927E-1,-9.54264E-1,-5.1379186E-1,8.583327E-1,2.0923337E-1,-2.3479044E0,5.907886E-1,-1.4229393E-1,-4.4569522E-1,4.29667E-2,3.284073E-1,5.832032E-1,8.114037E-1,2.2731097E0,3.2329698E0,1.9067706E0,1.3043501E0,9.573284E-1,-1.0878446E-1,2.0276957E0,1.4514937E0],"categories":[],"categories_nodes":[],"categories_segments":[],"categories_sizes":[],"default_left":[0,0,0,0,0,0,0,0,0,0,0,0,0,0,0,0,0,0,0,0,0,0,0,0,0,0,0,0,0,0,0,0,0,0,0,0,0,0,0,0,0,0,0,0,0,0,0,0,0,0,0,0,0,0,0,0,0,0,0,0,0,0,0,0,0,0,0,0,0,0,0,0,0,0,0,0,0,0,0,0,0,0,0,0,0,0,0,0,0,0,0,0,0,0,0,0,0,0,0],"id":3,"left_children":[1,3,5,7,9,11,13,15,17,19,21,23,25,27,29,31,33,35,37,39,41,43,45,-1,47,49,51,53,-1,55,57,59,61,-1,63,65,67,69,71,73,-1,-1,-1,75,77,79,-1,81,83,85,87,89,-1,91,-1,93,95,-1,97,-1,-1,-1,-1,-1,-1,-1,-1,-1,-1,-1,-1,-1,-1,-1,-1,-1,-1,-1,-1,-1,-1,-1,-1,-1,-1,-1,-1,-1,-1,-1,-1,-1,-1,-1,-1,-1,-1,-1,-1],"loss_changes":[2.5023037E4,3.061959E3,3.7417256E3,1.0323125E3,1.7162212E3,2.260924E2,9.2708203E2,1.2537109E2,6.167158E2,5.8769446E2,4.3105536E2,1.817367E2,1.6634082E2,3.4385938E2,1.0250576E3,4.9195312E1,2.4558105E1,3.1934454E2,1.6779297E2,1.3166767E0,4.9934814E1,2.4558046E2,1.668164E2,0E0,1.8474927E2,6.900606E1,1.1676636E0,1.0894531E2,0E0,2.8153857E2,3.32583E2,9.987793E-1,2.0202148E1,0E0,2.0264893E0,1.7054639E2,1.2815617E1,1.1640039E2,1.3678564E2,2.523266E-1,0E0,0E0,0E0,2.2476364E2,1.4241943E1,7.3476135E1,0E0,1.2110498E2,2.7221997E2,5.952673E0,3.1140617E1,6.114197E-1,0E0,1.5611328E2,0E0,1.6562012E1,9.708594E1,0E0,3.5480225E1,0E0,0E0,0E0,0E0,0E0,0E0,0E0,0E0,0E0,0E0,0E0,0E0,0E0,0E0,0E0,0E0,0E0,0E0,0E0,0E0,0E0,0E0,0E0,0E0,0E0,0E0,0E0,0E0,0E0,0E0,0E0,0E0,0E0,0E0,0E0,0E0,0E0,0E0,0E0,0E0],"parents":[2147483647,0,0,1,1,2,2,3,3,4,4,5,5,6,6,7,7,8,8,9,9,10,10,11,11,12,12,13,13,14,14,15,15,16,16,17,17,18,18,19,19,20,20,21,21,22,22,24,24,25,25,26,26,27,27,29,29,30,30,31,31,32,32,34,34,35,35,36,36,37,37,38,38,39,39,43,43,44,44,45,45,47,47,48,48,49,49,50,50,51,51,53,53,55,55,56,56,58,58],"right_children":[2,4,6,8,10,12,14,16,18,20,22,24,26,28,30,32,34,36,38,40,42,44,46,-1,48,50,52,54,-1,56,58,60,62,-1,64,66,68,70,72,74,-1,-1,-1,76,78,80,-1,82,84,86,88,90,-1,92,-1,94,96,-1,98,-1,-1,-1,-1,-1,-1,-1,-1,-1,-1,-1,-1,-1,-1,-1,-1,-1,-1,-1,-1,-1,-1,-1,-1,-1,-1,-1,-1,-1,-1,-1,-1,-1,-1,-1,-1,-1,-1,-1,-1],"split_conditions":[1.3535354E-1,-5.935443E-1,8.77662E-1,-1.1553149E0,-2.1153908E0,9.63465E-1,-1.7732958E0,-1.2365006E0,-1.7732958E0,-5.7097286E-1,-7.4701047E-1,-1.9138193E0,6.6620797E-1,5.959668E0,1.6330979E0,-1.7732958E0,-4.4919583E-1,4.261513E0,-5.966341E-1,2.7013642E-1,7.3783916E-1,4.922984E0,4.636028E0,3.1670158E0,1.8846498E0,2.5784388E-1,6.7845635E0,1.1101125E0,1.6323916E0,8.847427E-1,3.840633E-1,3.8729835E0,-1.2349623E0,-1.6789852E0,-1.4312006E0,4.154374E0,-1.4666544E0,4.261513E0,4.802293E0,-6.680041E-1,5.0446603E-2,2.1923323E0,9.77645E-1,4.3325167E0,-1.0891056E0,-5.448126E-1,-1.6329827E0,-4.9495637E-2,-6.472951E-1,1.8361302E-1,-1.6474505E-1,-3.3739407E-3,3.9523453E-1,9.2714924E-1,1.3814697E0,-6.675595E-1,1.0954423E0,3.2766628E0,1.3055601E0,-1.6261402E0,-1.1074833E0,-5.775033E-1,-2.0466204E0,-1.1678853E0,-1.4368068E0,-8.255753E-1,9.33528E-1,-1.8771581E-1,3.1459898E-1,-1.032023E0,-4.2304334E-1,-1.3653386E0,-7.401365E-1,-5.515941E-2,-1.541675E-1,-8.299445E-2,1.0421069E0,-5.626941E-1,-9.7101927E-1,-9.54264E-1,-5.1379186E-1,8.583327E-1,2.0923337E-1,-2.3479044E0,5.907886E-1,-1.4229393E-1,-4.4569522E-1,4.29667E-2,3.284073E-1,5.832032E-1,8.114037E-1,2.2731097E0,3.2329698E0,1.9067706E0,1.3043501E0,9.573284E-1,-1.0878446E-1,2.0276957E0,1.4514937E0],"split_indices":[2,2,2,64,0,0,0,2,0,2,0,3,2,54,2,0,1,58,3,1,1,47,39,0,4,2,23,64,0,64,62,22,3,0,0,6,1,58,34,1,0,0,0,19,0,2,0,3,3,2,1,1,0,2,0,3,3,0,0,0,0,0,0,0,0,0,0,0,0,0,0,0,0,0,0,0,0,0,0,0,0,0,0,0,0,0,0,0,0,0,0,0,0,0,0,0,0,0,0],"split_type":[0,0,0,0,0,0,0,0,0,0,0,0,0,0,0,0,0,0,0,0,0,0,0,0,0,0,0,0,0,0,0,0,0,0,0,0,0,0,0,0,0,0,0,0,0,0,0,0,0,0,0,0,0,0,0,0,0,0,0,0,0,0,0,0,0,0,0,0,0,0,0,0,0,0,0,0,0,0,0,0,0,0,0,0,0,0,0,0,0,0,0,0,0,0,0,0,0,0,0],"sum_hessian":[2.266866E3,1.2735226E3,9.9334326E2,8.413949E2,4.3212772E2,4.6017612E2,5.331672E2,2.948099E2,5.46585E2,5.4353134E1,3.777746E2,2.1598639E2,2.4418971E2,1.5501941E2,3.7814777E2,1.47364E2,1.474459E2,1.2907991E2,4.175051E2,1.811771E1,3.623542E1,2.066571E2,1.711175E2,1.8035213E0,2.1418286E2,1.842446E2,5.994512E1,1.00884476E2,5.4134933E1,2.6074908E2,1.1739867E2,5.1006218E1,9.635779E1,4.4879112E1,1.02566795E2,8.411292E1,4.496698E1,1.4360414E2,2.7390094E2,1.2078474E1,6.039237E0,3.0196186E1,6.039237E0,1.457386E2,6.09185E1,1.5236813E2,1.8749357E1,2.0368965E2,1.0493215E1,2.5063148E1,1.5918144E2,5.5607883E1,4.337239E0,9.1934715E1,8.949757E0,5.0163292E1,2.105858E2,2.0683208E1,9.671546E1,4.0492104E1,1.0514115E1,1.8035213E0,9.455427E1,5.197417E1,5.0592625E1,7.963805E1,4.4748783E0,4.4748783E0,4.0492104E1,1.0179288E2,4.181127E1,2.3285722E2,4.104372E1,6.039237E0,6.039237E0,1.285056E2,1.7233006E1,4.905699E1,1.1861509E1,5.8224937E1,9.4143196E1,1.723812E2,3.1308456E1,3.4430861E0,7.0501285E0,1.3923971E1,1.1139177E1,5.0630455E1,1.08550995E2,1.5796511E1,3.981137E1,4.9660057E1,4.227466E1,3.209341E1,1.8069881E1,2.0279759E2,7.7882175E0,6.9443665E1,2.7271793E1],"tree_param":{"num_deleted":"0","num_feature":"65","num_nodes":"99","size_leaf_vector":"1"}},{"base_weights":[2.4817884E-2,-2.0435143E0,2.6759257E0,-2.854019E0,-5.465476E-1,1.1950564E0,3.9494328E0,-3.901101E0,-2.266217E0,3.180336E0,-1.0680062E0,2.555808E0,1.1477551E0,5.420735E0,3.333575E0,-4.398899E0,-3.3772984E0,-8.849643E-1,-2.7067423E0,-1.4481126E-1,4.8021483E0,-5.3670764E-1,-2.1530218E0,1.0847771E0,1.0119463E0,6.2237487E0,3.8385196E0,2.5304418E0,5.0809417E0,-1.1408814E0,-4.925977E0,-1.1862683E0,-3.0891142E0,-1.6836789E0,6.131959E-1,-5.8870655E-1,-2.86756E0,-2.7889282E-1,3.7462838E-2,5.18572E0,7.2601676E-1,-1.2513027E0,2.2066996E-1,-1.8229039E0,-1.1678941E0,4.2621404E-1,1.6411377E0,6.4631343E0,1.0086821E0,7.701462E-1,1.2406645E0,4.074932E0,2.1450112E0,7.000209E0,4.1651273E0,-4.6604922E-1,-1.4962677E0,-8.377074E-1,-1.0358291E0,-5.809736E-1,7.0462364E-1,8.711602E-2,3.600821E-1,-3.3228168E-1,2.1095051E-1,-6.2796605E-1,-9.85382E-1,-4.0962093E-2,-1.1448767E-1,9.2504424E-1,1.6703457E0,-5.6076074E-1,-2.605349E-1,3.302037E-1,-1.2157937E-1,-6.499013E-1,-3.4540966E-1,1.096848E-1,1.8498199E0,5.399322E-1,-2.128953E0,1.6046377E0,2.2854908E0,1.481282E0,1.0118142E0,4.0531553E-2,7.012612E-1,4.3672952E-1,2.1424484E0,1.5532821E0,1.1483297E0],"categories":[],"categories_nodes":[],"categories_segments":[],"categories_sizes":[],"default_left":[0,0,0,0,0,0,0,0,0,0,0,0,0,0,0,0,0,0,0,0,0,0,0,0,0,0,0,0,0,0,0,0,0,0,0,0,0,0,0,0,0,0,0,0,0,0,0,0,0,0,0,0,0,0,0,0,0,0,0,0,0,0,0,0,0,0,0,0,0,0,0,0,0,0,0,0,0,0,0,0,0,0,0,0,0,0,0,0,0,0,0],"id":4,"left_children":[1,3,5,7,9,11,13,15,17,19,21,-1,23,25,27,29,31,33,35,37,39,41,43,-1,45,47,49,51,53,-1,55,-1,57,59,61,63,65,67,-1,69,-1,71,73,75,-1,77,79,81,-1,-1,-1,83,85,87,89,-1,-1,-1,-1,-1,-1,-1,-1,-1,-1,-1,-1,-1,-1,-1,-1,-1,-1,-1,-1,-1,-1,-1,-1,-1,-1,-1,-1,-1,-1,-1,-1,-1,-1,-1,-1],"loss_changes":[1.2441021E4,1.5448159E3,1.8705107E3,4.99917E2,8.7582666E2,1.499956E2,4.659463E2,6.2276367E1,3.2119043E2,2.9920197E2,2.262969E2,0E0,1.5032202E2,1.7433887E2,5.1922656E2,2.7870117E1,1.246582E1,1.5668634E2,1.3548462E2,7.261256E-1,2.1472168E1,1.4434744E2,6.720941E1,0E0,1.6027899E2,4.8059814E1,1.0204102E1,1.4707678E2,1.7895166E2,0E0,7.8997803E0,0E0,1.5350952E0,9.134662E1,8.362843E0,2.0673483E1,1.13914795E2,1.391555E-1,0E0,7.890442E0,0E0,3.0813828E1,7.2098145E1,2.3016815E1,0E0,7.689801E1,3.0418463E2,7.8881836E1,0E0,0E0,0E0,1.434082E1,8.155914E1,1.841272E1,8.402344E0,0E0,0E0,0E0,0E0,0E0,0E0,0E0,0E0,0E0,0E0,0E0,0E0,0E0,0E0,0E0,0E0,0E0,0E0,0E0,0E0,0E0,0E0,0E0,0E0,0E0,0E0,0E0,0E0,0E0,0E0,0E0,0E0,0E0,0E0,0E0,0E0],"parents":[2147483647,0,0,1,1,2,2,3,3,4,4,5,5,6,6,7,7,8,8,9,9,10,10,12,12,13,13,14,14,15,15,16,16,17,17,18,18,19,19,20,20,21,21,22,22,24,24,25,25,26,26,27,27,28,28,30,30,32,32,33,33,34,34,35,35,36,36,37,37,39,39,41,41,42,42,43,43,45,45,46,46,47,47,51,51,52,52,53,53,54,54],"right_children":[2,4,6,8,10,12,14,16,18,20,22,-1,24,26,28,30,32,34,36,38,40,42,44,-1,46,48,50,52,54,-1,56,-1,58,60,62,64,66,68,-1,70,-1,72,74,76,-1,78,80,82,-1,-1,-1,84,86,88,90,-1,-1,-1,-1,-1,-1,-1,-1,-1,-1,-1,-1,-1,-1,-1,-1,-1,-1,-1,-1,-1,-1,-1,-1,-1,-1,-1,-1,-1,-1,-1,-1,-1,-1,-1,-1],"split_conditions":[1.3535354E-1,-6.6211814E-1,8.77662E-1,-1.1553149E0,-2.1153908E0,-1.9138193E0,-1.7732958E0,-1.2365006E0,-1.7732958E0,-5.7097286E-1,9.63465E-1,2.555808E0,1.3445038E-1,5.959668E0,1.6330979E0,-1.4312006E0,-4.4919583E-1,4.261513E0,-1.1235082E0,2.7013642E-1,7.3783916E-1,-1.8936099E-1,4.636028E0,1.0847771E0,6.140764E-1,1.1101125E0,-1.4529788E0,8.847427E-1,-1.0120541E0,-1.1408814E0,-1.2349623E0,-1.1862683E0,1.9943191E-1,4.154374E0,-3.8930286E-2,7.3783916E-1,-9.873849E-1,-6.680041E-1,3.7462838E-2,-1.5350319E0,7.2601676E-1,-1.0016868E0,-1.4312006E0,-3.8511238E-1,-1.1678941E0,2.3953118E0,1.8846498E0,9.2714924E-1,1.0086821E0,7.701462E-1,1.2406645E0,1.9943191E-1,9.2714924E-1,-9.2404664E-1,1.6262822E0,-4.6604922E-1,-1.4962677E0,-8.377074E-1,-1.0358291E0,-5.809736E-1,7.0462364E-1,8.711602E-2,3.600821E-1,-3.3228168E-1,2.1095051E-1,-6.2796605E-1,-9.85382E-1,-4.0962093E-2,-1.1448767E-1,9.2504424E-1,1.6703457E0,-5.6076074E-1,-2.605349E-1,3.302037E-1,-1.2157937E-1,-6.499013E-1,-3.4540966E-1,1.096848E-1,1.8498199E0,5.399322E-1,-2.128953E0,1.6046377E0,2.2854908E0,1.481282E0,1.0118142E0,4.0531553E-2,7.012612E-1,4.3672952E-1,2.1424484E0,1.5532821E0,1.1483297E0],"split_indices":[2,64,2,64,0,3,0,2,0,2,0,0,64,54,2,0,1,58,3,1,1,1,39,0,2,64,1,64,3,0,3,0,4,6,1,1,64,1,0,1,0,1,0,2,0,1,4,2,0,0,0,4,2,4,64,0,0,0,0,0,0,0,0,0,0,0,0,0,0,0,0,0,0,0,0,0,0,0,0,0,0,0,0,0,0,0,0,0,0,0,0],"split_type":[0,0,0,0,0,0,0,0,0,0,0,0,0,0,0,0,0,0,0,0,0,0,0,0,0,0,0,0,0,0,0,0,0,0,0,0,0,0,0,0,0,0,0,0,0,0,0,0,0,0,0,0,0,0,0,0,0,0,0,0,0,0,0,0,0,0,0,0,0,0,0,0,0,0,0,0,0,0,0,0,0,0,0,0,0,0,0,0,0,0,0],"sum_hessian":[2.266866E3,1.2735226E3,9.9334326E2,8.2560675E2,4.479159E2,4.6017612E2,5.331672E2,2.948099E2,5.307968E2,5.4353134E1,3.9356277E2,1.8035213E0,4.583726E2,1.5501941E2,3.7814777E2,1.47364E2,1.474459E2,1.2907991E2,4.0171692E2,1.811771E1,3.623542E1,2.6519812E2,1.2836465E2,2.2569672E1,4.3580292E2,1.00884476E2,5.4134933E1,2.6074908E2,1.1739867E2,7.3018265E1,7.434574E1,4.4879112E1,1.02566795E2,8.411292E1,4.496698E1,2.8677881E1,3.7303903E2,1.2078474E1,6.039237E0,3.0196186E1,6.039237E0,1.3611746E2,1.2908066E2,1.0961529E2,1.8749357E1,2.2656471E2,2.092382E2,9.1934715E1,8.949757E0,1.2078474E1,4.205646E1,5.0163292E1,2.105858E2,3.5777096E1,8.1621574E1,1.8035213E0,7.254222E1,6.1256817E1,4.130998E1,7.963805E1,4.4748783E0,2.9977987E1,1.4988994E1,2.0561653E1,8.116228E0,1.3268994E2,2.403491E2,6.039237E0,6.039237E0,6.039237E0,2.4156948E1,5.058856E1,8.55289E1,5.3336193E1,7.574447E1,7.105228E1,3.856301E1,2.2525035E2,1.3143653E0,2.0628699E2,2.9512167E0,4.9660057E1,4.227466E1,1.98034E1,3.0359894E1,1.8557177E1,1.9202863E2,1.1699162E0,3.4607178E1,1.681363E1,6.4807945E1],"tree_param":{"num_deleted":"0","num_feature":"65","num_nodes":"91","size_leaf_vector":"1"}},{"base_weights":[2.2900553E-2,-1.4358723E0,1.8926936E0,-1.7371671E0,6.9670254E-1,8.4523535E-1,2.793479E0,-2.5473366E0,-1.2498235E0,2.83896E0,-4.4181272E-1,2.062558E0,8.0659497E-1,3.8388019E0,2.3559606E0,-2.2093608E0,-3.1799896E0,4.2659092E-1,-1.4964935E0,3.4507027E0,1.4835038E0,2.48485E-1,-7.9758686E-1,2.2432356E0,6.566252E-1,4.4047055E0,2.7234359E0,1.7836654E0,3.60126E0,-2.728692E0,-1.740244E0,-2.6862688E0,-3.5467498E0,-1.3682497E0,6.537365E-1,-2.2528188E0,-9.5180416E-1,2.988218E0,1.5030339E0,1.6631124E0,2.217973E-1,1.1515408E-1,4.9892873E-1,-4.6966174E-1,-1.2099233E0,-7.8798115E-1,2.4745593E0,2.57717E0,5.4030377E-1,3.6589189E0,5.224901E0,5.567675E-1,8.771105E-1,8.716424E-1,2.1333294E0,5.7530174E0,3.0869272E0,-8.457489E-1,-6.3614863E-1,-7.680797E-1,-3.8151512E-1,-1.105287E0,-7.3007923E-1,-1.070578E0,-3.447702E-1,-5.1772374E-1,-3.0614581E-2,-1.07536204E-1,2.2890164E-1,3.9939445E-2,-7.113157E-1,-6.6952035E-2,-4.0573755E-1,9.608108E-1,5.3915423E-1,2.8113782E-1,5.686312E-1,-1.9976585E-1,8.33703E-2,-3.8953495E-1,-8.95544E-2,-3.8076824E-1,-4.278065E-2,-4.6786097E-1,1.7711498E-1,6.322336E-1,1.5896705E0,3.1258535E-1,8.1607234E-1,1.5096924E-1,1.9829673E0,1.1482168E0,4.150749E-1,1.2669606E0,1.8015413E0,2.949759E-1,-4.87829E-1,8.8204956E-1,4.9153087E-1,1.1116891E0,2.1359978E0,1.0040133E0,6.9913435E-1],"categories":[],"categories_nodes":[],"categories_segments":[],"categories_sizes":[],"default_left":[0,0,0,0,0,0,0,0,0,0,0,0,0,0,0,0,0,0,0,0,0,0,0,0,0,0,0,0,0,0,0,0,0,0,0,0,0,0,0,0,0,0,0,0,0,0,0,0,0,0,0,0,0,0,0,0,0,0,0,0,0,0,0,0,0,0,0,0,0,0,0,0,0,0,0,0,0,0,0,0,0,0,0,0,0,0,0,0,0,0,0,0,0,0,0,0,0,0,0,0,0,0,0],"id":5,"left_children":[1,3,5,7,9,11,13,15,17,19,21,-1,23,25,27,29,31,33,35,37,39,41,43,45,47,49,51,53,55,57,59,61,63,65,67,69,71,73,-1,75,-1,77,-1,79,81,83,85,87,89,91,93,-1,-1,95,97,99,101,-1,-1,-1,-1,-1,-1,-1,-1,-1,-1,-1,-1,-1,-1,-1,-1,-1,-1,-1,-1,-1,-1,-1,-1,-1,-1,-1,-1,-1,-1,-1,-1,-1,-1,-1,-1,-1,-1,-1,-1,-1,-1,-1,-1,-1,-1],"loss_changes":[6.1885566E3,8.201338E2,9.358362E2,4.3785522E2,3.878105E2,1.0190866E2,2.3525684E2,8.247827E1,2.8987183E2,4.0598236E1,2.5826767E1,0E0,9.750003E1,8.64812E1,2.6378735E2,6.2520264E1,1.6453125E1,3.778795E1,2.4913074E2,1.1882904E1,1.2965508E0,6.646433E0,8.77528E0,3.210608E1,9.184726E1,4.32041E1,4.153015E0,8.161267E1,1.132749E2,1.1357422E0,5.3540863E1,7.494812E0,4.675293E-2,4.5719547E0,9.232716E0,7.214697E1,1.0371683E2,2.213562E0,0E0,6.566696E-1,0E0,4.5330153E0,0E0,5.3038692E0,1.7163963E0,4.9702587E0,3.0513687E1,2.342575E0,8.550983E1,1.6438843E1,1.073584E1,0E0,0E0,2.2292831E1,7.045703E1,3.430139E1,1.140387E1,0E0,0E0,0E0,0E0,0E0,0E0,0E0,0E0,0E0,0E0,0E0,0E0,0E0,0E0,0E0,0E0,0E0,0E0,0E0,0E0,0E0,0E0,0E0,0E0,0E0,0E0,0E0,0E0,0E0,0E0,0E0,0E0,0E0,0E0,0E0,0E0,0E0,0E0,0E0,0E0,0E0,0E0,0E0,0E0,0E0,0E0],"parents":[2147483647,0,0,1,1,2,2,3,3,4,4,5,5,6,6,7,7,8,8,9,9,10,10,12,12,13,13,14,14,15,15,16,16,17,17,18,18,19,19,20,20,21,21,22,22,23,23,24,24,25,25,26,26,27,27,28,28,29,29,30,30,31,31,32,32,33,33,34,34,35,35,36,36,37,37,39,39,41,41,43,43,44,44,45,45,46,46,47,47,48,48,49,49,50,50,53,53,54,54,55,55,56,56],"right_children":[2,4,6,8,10,12,14,16,18,20,22,-1,24,26,28,30,32,34,36,38,40,42,44,46,48,50,52,54,56,58,60,62,64,66,68,70,72,74,-1,76,-1,78,-1,80,82,84,86,88,90,92,94,-1,-1,96,98,100,102,-1,-1,-1,-1,-1,-1,-1,-1,-1,-1,-1,-1,-1,-1,-1,-1,-1,-1,-1,-1,-1,-1,-1,-1,-1,-1,-1,-1,-1,-1,-1,-1,-1,-1,-1,-1,-1,-1,-1,-1,-1,-1,-1,-1,-1,-1],"split_conditions":[1.3535354E-1,4.802293E0,8.77662E-1,-1.017019E0,-1.7732958E0,-1.9138193E0,-1.7732958E0,1.9943191E-1,-9.873849E-1,-2.1153908E0,-1.0891056E0,2.062558E0,-9.2404664E-1,5.959668E0,1.6330979E0,-1.1783613E0,2.1429721E-2,3.840633E-1,-9.2257774E-1,3.831027E0,6.421105E-1,7.3783916E-1,1.3055601E0,5.799831E-1,1.3445038E-1,4.5857925E-2,-1.4529788E0,-6.7073923E-1,3.840633E-1,3.8729835E0,-4.4919583E-1,-1.6607996E0,1.3696481E0,7.5424975E-1,-1.4666544E0,-1.3666809E0,-6.009876E-1,6.421105E-1,1.5030339E0,9.7824894E-2,2.217973E-1,-1.5350319E0,4.9892873E-1,-2.3187514E-1,4.318052E0,1.3284827E0,-2.1153908E0,-1.5869989E0,2.6688223E0,1.1101125E0,9.2714924E-1,5.567675E-1,8.771105E-1,9.434594E-1,-1.0891056E0,1.08765304E-1,1.3055601E0,-8.457489E-1,-6.3614863E-1,-7.680797E-1,-3.8151512E-1,-1.105287E0,-7.3007923E-1,-1.070578E0,-3.447702E-1,-5.1772374E-1,-3.0614581E-2,-1.07536204E-1,2.2890164E-1,3.9939445E-2,-7.113157E-1,-6.6952035E-2,-4.0573755E-1,9.608108E-1,5.3915423E-1,2.8113782E-1,5.686312E-1,-1.9976585E-1,8.33703E-2,-3.8953495E-1,-8.95544E-2,-3.8076824E-1,-4.278065E-2,-4.6786097E-1,1.7711498E-1,6.322336E-1,1.5896705E0,3.1258535E-1,8.1607234E-1,1.5096924E-1,1.9829673E0,1.1482168E0,4.150749E-1,1.2669606E0,1.8015413E0,2.949759E-1,-4.87829E-1,8.8204956E-1,4.9153087E-1,1.1116891E0,2.1359978E0,1.0040133E0,6.9913435E-1],"split_indices":[2,34,2,2,0,3,0,4,64,0,0,0,4,54,2,64,3,62,2,10,1,1,0,2,64,1,1,1,62,22,1,64,1,1,1,3,64,1,0,1,0,1,0,3,21,3,0,1,1,64,2,0,0,3,0,1,0,0,0,0,0,0,0,0,0,0,0,0,0,0,0,0,0,0,0,0,0,0,0,0,0,0,0,0,0,0,0,0,0,0,0,0,0,0,0,0,0,0,0,0,0,0,0],"split_type":[0,0,0,0,0,0,0,0,0,0,0,0,0,0,0,0,0,0,0,0,0,0,0,0,0,0,0,0,0,0,0,0,0,0,0,0,0,0,0,0,0,0,0,0,0,0,0,0,0,0,0,0,0,0,0,0,0,0,0,0,0,0,0,0,0,0,0,0,0,0,0,0,0,0,0,0,0,0,0,0,0,0,0,0,0,0,0,0,0,0,0,0,0,0,0,0,0,0,0,0,0,0,0],"sum_hessian":[2.266866E3,1.2735226E3,9.9334326E2,1.1160326E3,1.5749008E2,4.6017612E2,5.331672E2,4.1759222E2,6.9844037E2,5.4134933E1,1.0335514E2,1.8035213E0,4.583726E2,1.5501941E2,3.7814777E2,2.7511337E2,1.4247885E2,8.9493935E1,6.089464E2,3.623542E1,1.7899513E1,3.525415E1,6.810099E1,4.2007008E1,4.1636557E2,1.00884476E2,5.4134933E1,2.6074908E2,1.1739867E2,1.2828262E2,1.4683073E2,6.427638E1,7.820247E1,9.489207E0,8.000472E1,2.5363162E2,3.553148E2,3.0196186E1,6.039237E0,1.3424635E1,4.4748783E0,3.3205814E1,2.0483353E0,3.9124714E1,2.897628E1,2.8077989E0,3.919921E1,2.2569672E1,3.937959E2,5.5699295E1,4.518518E1,1.2078474E1,4.205646E1,7.3232025E1,1.8751707E2,2.0683208E1,9.671546E1,1.085067E2,1.9775925E1,5.1765556E1,9.506518E1,1.0241676E1,5.4034702E1,7.7012375E1,1.1900973E0,7.116905E0,2.3723018E0,7.573033E0,7.2431694E1,1.1969116E1,2.416625E2,1.2661306E2,2.2870174E2,2.4156948E1,6.039237E0,4.4748783E0,8.949757E0,5.192913E0,2.8012901E1,5.5691395E0,3.3555573E1,2.7271793E1,1.7044871E0,1.715877E0,1.0919218E0,3.623542E1,2.9637878E0,2.6301131E0,1.9939558E1,3.9248154E2,1.3143653E0,5.1224415E1,4.4748783E0,2.259259E1,2.259259E1,7.068005E1,2.551969E0,6.9412056E1,1.1810502E2,9.766399E0,1.0916808E1,6.9443665E1,2.7271793E1],"tree_param":{"num_deleted":"0","num_feature":"65","num_nodes":"103","size_leaf_vector":"1"}},{"base_weights":[2.2889504E-2,-1.0289203E0,1.324189E0,-1.2502897E0,5.1011825E-1,5.9502286E-1,1.978269E0,-1.7971874E0,-9.116138E-1,2.0611746E0,-3.1425422E-1,1.6645007E0,5.6480056E-1,2.6068804E0,1.5875678E0,-1.4836E0,-2.2675042E0,-5.3933394E-1,-1.5651032E0,2.4961424E0,1.0951507E0,1.844882E-1,-5.7137394E-1,1.2642443E0,3.7319568E-1,2.908003E0,2.0034797E0,1.0421243E0,2.5626967E0,-1.95573E0,-1.0374146E0,-2.6907485E0,-2.0142097E0,-6.372578E-1,1.5437422E0,-2.1068935E0,-1.2183477E0,2.1398365E0,1.1161797E0,1.2230885E0,1.6741244E-1,3.4768885E-1,-6.6385275E-1,1.0046949E-2,-6.9457E-1,1.1329718E0,1.9950567E0,-1.5716323E-1,6.611107E-1,3.1542983E0,1.5566072E0,4.985525E-1,2.3130352E0,2.1155696E0,8.47291E-1,4.1768904E0,2.1782787E0,-8.5083205E-1,-5.501508E-1,-1.3689195E-1,-3.943921E-1,-2.61403E-1,-8.2110596E-1,-6.1706865E-1,-2.7739182E-1,8.816789E-2,-2.6808438E-1,1.2194906E0,-1.6367128E-1,-8.045948E-1,-5.0009006E-1,-2.9747438E-1,-5.966363E-1,6.840262E-1,4.0038577E-1,2.1220219E-1,4.1518608E-1,-1.2905121E-1,1.8066496E-1,3.903298E-2,-4.5766947E-1,-1.3048793E-1,9.2036575E-2,-9.927375E-2,-2.715303E-1,5.324054E-1,7.9624265E-2,-2.539501E-1,6.0763113E-2,4.5827234E-1,1.4162518E-1,7.765572E-1,1.1971241E0,3.343696E-1,6.4217734E-1,3.465143E-1,7.1760666E-1,4.8331687E-1,8.85025E-1,2.8108793E-1,-3.1192845E-1,6.1916995E-1,1.466562E0,3.4109282E-1,6.9950277E-1],"categories":[],"categories_nodes":[],"categories_segments":[],"categories_sizes":[],"default_left":[0,0,0,0,0,0,0,0,0,0,0,0,0,0,0,0,0,0,0,0,0,0,0,0,0,0,0,0,0,0,0,0,0,0,0,0,0,0,0,0,0,0,0,0,0,0,0,0,0,0,0,0,0,0,0,0,0,0,0,0,0,0,0,0,0,0,0,0,0,0,0,0,0,0,0,0,0,0,0,0,0,0,0,0,0,0,0,0,0,0,0,0,0,0,0,0,0,0,0,0,0,0,0,0,0],"id":6,"left_children":[1,3,5,7,9,11,13,15,17,19,21,-1,23,25,27,29,31,33,35,37,39,41,43,45,47,49,51,53,55,57,59,61,63,65,67,69,71,73,-1,75,-1,77,79,81,83,85,-1,87,89,91,93,-1,95,97,99,101,103,-1,-1,-1,-1,-1,-1,-1,-1,-1,-1,-1,-1,-1,-1,-1,-1,-1,-1,-1,-1,-1,-1,-1,-1,-1,-1,-1,-1,-1,-1,-1,-1,-1,-1,-1,-1,-1,-1,-1,-1,-1,-1,-1,-1,-1,-1,-1,-1],"loss_changes":[3.1054348E3,4.281167E2,4.825017E2,2.015918E2,2.0330081E2,6.8868866E1,1.2705249E2,5.8372437E1,1.6449933E2,2.0433441E1,1.348755E1,0E0,6.3745575E1,3.1092773E1,1.7390161E2,5.148535E1,1.23289795E1,8.961536E1,4.367383E1,8.283615E0,6.161747E-1,5.2501936E0,4.956604E0,6.502011E1,5.77558E1,3.9467773E1,3.6497192E0,4.308548E1,6.437085E1,7.923279E0,2.0783508E1,2.5827332E0,3.1002502E0,9.9494064E1,1.0652136E2,1.9483704E1,2.466269E1,4.80011E-1,0E0,2.1782875E-1,0E0,6.4087677E0,4.435478E0,1.8590225E0,4.0670414E0,5.5971252E1,0E0,3.3311935E1,3.939003E1,4.2559204E1,3.4296875E0,0E0,4.0385437E-1,8.844528E0,3.1987732E1,2.2515839E1,1.2957184E1,0E0,0E0,0E0,0E0,0E0,0E0,0E0,0E0,0E0,0E0,0E0,0E0,0E0,0E0,0E0,0E0,0E0,0E0,0E0,0E0,0E0,0E0,0E0,0E0,0E0,0E0,0E0,0E0,0E0,0E0,0E0,0E0,0E0,0E0,0E0,0E0,0E0,0E0,0E0,0E0,0E0,0E0,0E0,0E0,0E0,0E0,0E0,0E0],"parents":[2147483647,0,0,1,1,2,2,3,3,4,4,5,5,6,6,7,7,8,8,9,9,10,10,12,12,13,13,14,14,15,15,16,16,17,17,18,18,19,19,20,20,21,21,22,22,23,23,24,24,25,25,26,26,27,27,28,28,29,29,30,30,31,31,32,32,33,33,34,34,35,35,36,36,37,37,39,39,41,41,42,42,43,43,44,44,45,45,47,47,48,48,49,49,50,50,52,52,53,53,54,54,55,55,56,56],"right_children":[2,4,6,8,10,12,14,16,18,20,22,-1,24,26,28,30,32,34,36,38,40,42,44,46,48,50,52,54,56,58,60,62,64,66,68,70,72,74,-1,76,-1,78,80,82,84,86,-1,88,90,92,94,-1,96,98,100,102,104,-1,-1,-1,-1,-1,-1,-1,-1,-1,-1,-1,-1,-1,-1,-1,-1,-1,-1,-1,-1,-1,-1,-1,-1,-1,-1,-1,-1,-1,-1,-1,-1,-1,-1,-1,-1,-1,-1,-1,-1,-1,-1,-1,-1,-1,-1,-1,-1],"split_conditions":[-1.2266055E-1,4.802293E0,8.77662E-1,-1.017019E0,-1.7732958E0,-1.9138193E0,-1.4312006E0,-6.776917E-1,9.63465E-1,-2.1153908E0,-1.0891056E0,1.6645007E0,-3.6230734E-1,5.959668E0,1.6330979E0,-1.1783613E0,-4.409905E-1,1.5747808E0,-9.517601E-1,3.831027E0,6.421105E-1,3.831027E0,-9.941642E-1,2.1682982E0,-1.6474505E-1,1.1101125E0,-2.1153908E0,8.847427E-1,3.840633E-1,-1.4803299E0,-1.7732958E0,3.840633E-1,1.711536E0,-9.873849E-1,-6.0813123E-1,-3.8930286E-2,4.636028E0,6.421105E-1,1.1161797E0,9.7824894E-2,1.6741244E-1,-1.5322969E0,-1.4312006E0,-3.1244063E-1,-4.049154E-1,-6.878239E-1,1.9950567E0,-6.472951E-1,-7.4701047E-1,9.2714924E-1,2.1816945E-1,4.985525E-1,-1.4529788E0,2.1816945E-1,1.0954423E0,-6.1330205E-1,-1.2068195E0,-8.5083205E-1,-5.501508E-1,-1.3689195E-1,-3.943921E-1,-2.61403E-1,-8.2110596E-1,-6.1706865E-1,-2.7739182E-1,8.816789E-2,-2.6808438E-1,1.2194906E0,-1.6367128E-1,-8.045948E-1,-5.0009006E-1,-2.9747438E-1,-5.966363E-1,6.840262E-1,4.0038577E-1,2.1220219E-1,4.1518608E-1,-1.2905121E-1,1.8066496E-1,3.903298E-2,-4.5766947E-1,-1.3048793E-1,9.2036575E-2,-9.927375E-2,-2.715303E-1,5.324054E-1,7.9624265E-2,-2.539501E-1,6.0763113E-2,4.5827234E-1,1.4162518E-1,7.765572E-1,1.1971241E0,3.343696E-1,6.4217734E-1,3.465143E-1,7.1760666E-1,4.8331687E-1,8.85025E-1,2.8108793E-1,-3.1192845E-1,6.1916995E-1,1.466562E0,3.4109282E-1,6.9950277E-1],"split_indices":[64,34,2,2,0,3,0,3,0,0,0,0,4,54,2,64,1,1,2,10,1,10,2,1,1,64,0,64,62,1,0,62,1,64,64,1,39,1,0,1,0,1,0,1,0,3,0,3,0,2,1,0,1,1,3,1,1,0,0,0,0,0,0,0,0,0,0,0,0,0,0,0,0,0,0,0,0,0,0,0,0,0,0,0,0,0,0,0,0,0,0,0,0,0,0,0,0,0,0,0,0,0,0,0,0],"split_type":[0,0,0,0,0,0,0,0,0,0,0,0,0,0,0,0,0,0,0,0,0,0,0,0,0,0,0,0,0,0,0,0,0,0,0,0,0,0,0,0,0,0,0,0,0,0,0,0,0,0,0,0,0,0,0,0,0,0,0,0,0,0,0,0,0,0,0,0,0,0,0,0,0,0,0,0,0,0,0,0,0,0,0,0,0,0,0,0,0,0,0,0,0,0,0,0,0,0,0,0,0,0,0,0,0],"sum_hessian":[2.266866E3,1.2537216E3,1.0131444E3,1.0962314E3,1.5749008E2,4.7997723E2,5.331672E2,4.1759222E2,6.786392E2,5.4134933E1,1.0335514E2,1.8035213E0,4.7817374E2,2.0218808E2,3.309791E2,2.5303416E2,1.6455804E2,4.3350522E2,2.4513399E2,3.623542E1,1.7899513E1,3.525415E1,6.810099E1,1.0161933E2,3.7655438E2,1.3233025E2,6.985783E1,2.1358043E2,1.1739867E2,1.2129888E2,1.3173529E2,5.8007313E1,1.0655073E2,4.1470435E2,1.8800861E1,9.368275E1,1.5145125E2,3.0196186E1,6.039237E0,1.3424635E1,4.4748783E0,3.0061235E1,5.192913E0,1.2067442E1,5.603355E1,1.0038303E2,1.236296E0,1.3265291E2,2.4390147E2,1.10802185E2,2.1528069E1,3.623542E1,3.3622402E1,3.1295826E1,1.822846E2,2.0683208E1,9.671546E1,1.204404E1,1.09254845E2,4.3402622E1,8.8332664E1,1.9305027E0,5.6076813E1,1.0167944E2,4.871286E0,8.9493935E1,3.2521042E2,8.091294E0,1.0709568E1,3.839496E1,5.528779E1,1.18777916E2,3.267333E1,2.4156948E1,6.039237E0,4.4748783E0,8.949757E0,7.241248E0,2.2819988E1,3.1445777E0,2.0483353E0,4.6413236E0,7.426118E0,2.148813E1,3.454542E1,5.7101063E1,4.3281975E1,4.5021355E1,8.763155E1,4.24119E1,2.0148958E2,6.852753E1,4.227466E1,1.3908611E1,7.6194563E0,3.1445777E0,3.0477825E1,2.1330685E1,9.965141E0,1.7449638E2,7.7882175E0,6.193619E0,1.4489589E1,1.3498159E1,8.32173E1],"tree_param":{"num_deleted":"0","num_feature":"65","num_nodes":"105","size_leaf_vector":"1"}},{"base_weights":[2.071516E-2,-6.273153E-1,1.0980921E0,-1.0378697E0,-9.037387E-2,4.5897776E-1,1.3629367E0,-1.1852785E0,-3.2324088E-1,8.3621395E-1,-3.0976042E-1,5.542542E-1,-5.6424747E0,2.0849493E0,1.1775758E0,-1.6247646E0,-9.5076156E-1,2.0670192E-1,-1.2923123E0,2.525452E-1,1.49715E0,3.5297096E0,-3.53554E-1,2.0567684E0,3.6792827E-1,-3.462235E0,7.605184E-1,2.4563878E0,1.1766803E0,2.6726716E0,1.0586398E0,-1.4189621E0,-2.007692E0,-4.4793376E-1,-1.1697025E0,-1.0898111E0,3.7203416E-1,-9.281394E-1,-9.9900746E-1,3.9771587E-1,-2.0702876E-1,1.8063978E0,8.086602E-1,2.9507375E-1,4.060175E0,-8.954722E-1,-1.01516366E-1,1.4110694E0,1.7655491E0,9.078981E-1,-2.9027107E-1,1.8414875E0,3.1074731E0,1.9322287E-1,3.777422E-1,1.8127348E0,3.3859484E0,3.067561E-1,1.2160214E0,-4.0215328E-1,-7.529335E-1,-6.3845205E-1,-2.9946002E-1,-3.0384874E-1,1.1574849E-1,-3.8242373E-1,-1.05241984E-1,-3.8578E-1,7.29851E-2,4.4180416E-2,2.367995E-1,-3.607509E-1,-1.786171E-1,-1.0348671E-1,1.4409925E-1,1.2115825E-3,-1.0066409E-1,4.597936E-1,8.288953E-1,2.6989707E-1,1.2636235E-1,1.4162889E0,4.260132E-1,-3.2693043E-1,-1.1843628E-1,6.664227E-2,-1.19963385E-1,2.9665604E-1,6.157284E-1,1.2685104E-1,5.283839E-1,1.999598E-1,-2.1547887E-1,4.7071064E-1,9.177796E-1,1.089889E0,7.088955E-1,-4.5794493E-1,7.21733E-1,6.406762E-1,1.1483986E0,1.3225839E-1,-1.797261E-1,5.263366E-1,3.2292217E-1],"categories":[],"categories_nodes":[],"categories_segments":[],"categories_sizes":[],"default_left":[0,0,0,0,0,0,0,0,0,0,0,0,0,0,0,0,0,0,0,0,0,0,0,0,0,0,0,0,0,0,0,0,0,0,0,0,0,0,0,0,0,0,0,0,0,0,0,0,0,0,0,0,0,0,0,0,0,0,0,0,0,0,0,0,0,0,0,0,0,0,0,0,0,0,0,0,0,0,0,0,0,0,0,0,0,0,0,0,0,0,0,0,0,0,0,0,0,0,0,0,0,0,0,0,0],"id":7,"left_children":[1,3,5,7,9,11,13,15,17,19,21,23,25,27,29,31,33,35,37,39,41,43,45,47,49,-1,-1,51,53,55,57,59,61,63,65,67,69,-1,71,73,75,77,79,-1,81,83,85,-1,87,89,91,93,95,-1,-1,97,99,101,103,-1,-1,-1,-1,-1,-1,-1,-1,-1,-1,-1,-1,-1,-1,-1,-1,-1,-1,-1,-1,-1,-1,-1,-1,-1,-1,-1,-1,-1,-1,-1,-1,-1,-1,-1,-1,-1,-1,-1,-1,-1,-1,-1,-1,-1,-1],"loss_changes":[1.5840518E3,3.1221637E2,1.436112E2,8.4181946E1,1.2527134E2,1.4913731E2,7.8107544E1,6.700641E1,7.146991E1,4.5143044E1,8.497898E1,6.873331E1,2.198381E2,3.8157898E1,8.275391E1,1.5277954E1,4.7486237E1,1.9803308E1,2.2881279E1,4.343296E0,1.0278236E1,3.7144775E0,6.728108E1,1.2636154E1,7.918155E1,0E0,0E0,2.848285E1,8.2435226E-1,1.5213593E1,5.257846E1,9.730255E0,7.361847E0,6.3459457E1,2.563327E1,3.0552425E0,7.4815407E0,0E0,2.877262E0,3.16461E0,4.3507242E-1,5.51606E0,2.8739643E-1,0E0,9.777832E-1,1.4790039E1,3.27099E1,0E0,3.78051E0,4.9848244E1,4.176782E1,1.0592941E1,7.0810547E0,0E0,0E0,3.9188206E1,1.704895E0,9.835415E0,2.5902283E1,0E0,0E0,0E0,0E0,0E0,0E0,0E0,0E0,0E0,0E0,0E0,0E0,0E0,0E0,0E0,0E0,0E0,0E0,0E0,0E0,0E0,0E0,0E0,0E0,0E0,0E0,0E0,0E0,0E0,0E0,0E0,0E0,0E0,0E0,0E0,0E0,0E0,0E0,0E0,0E0,0E0,0E0,0E0,0E0,0E0,0E0],"parents":[2147483647,0,0,1,1,2,2,3,3,4,4,5,5,6,6,7,7,8,8,9,9,10,10,11,11,12,12,13,13,14,14,15,15,16,16,17,17,18,18,19,19,20,20,21,21,22,22,23,23,24,24,27,27,28,28,29,29,30,30,31,31,32,32,33,33,34,34,35,35,36,36,38,38,39,39,40,40,41,41,42,42,44,44,45,45,46,46,48,48,49,49,50,50,51,51,52,52,55,55,56,56,57,57,58,58],"right_children":[2,4,6,8,10,12,14,16,18,20,22,24,26,28,30,32,34,36,38,40,42,44,46,48,50,-1,-1,52,54,56,58,60,62,64,66,68,70,-1,72,74,76,78,80,-1,82,84,86,-1,88,90,92,94,96,-1,-1,98,100,102,104,-1,-1,-1,-1,-1,-1,-1,-1,-1,-1,-1,-1,-1,-1,-1,-1,-1,-1,-1,-1,-1,-1,-1,-1,-1,-1,-1,-1,-1,-1,-1,-1,-1,-1,-1,-1,-1,-1,-1,-1,-1,-1,-1,-1,-1,-1],"split_conditions":[5.5490065E-1,-6.879856E-1,6.816438E-1,4.261513E0,-1.7732958E0,6.78025E-1,-9.2404664E-1,-4.4919583E-1,6.213699E-1,4.802293E0,-1.6503823E0,3.840633E-1,-6.472951E-1,5.959668E0,3.840633E-1,1.9943191E-1,-3.6230734E-1,3.840633E-1,9.63465E-1,4.0911055E0,-2.1153908E0,-1.2697269E0,-4.409905E-1,-9.2404664E-1,1.9943191E-1,-3.462235E0,7.605184E-1,7.047386E-2,-1.7538402E0,1.08765304E-1,-9.442496E-1,5.8542914E0,-9.328718E-1,-1.1406426E0,4.802293E0,4.1035447E0,-3.8930286E-2,-9.281394E-1,6.421105E-1,-1.6717871E0,-2.1153908E0,3.831027E0,6.421105E-1,2.9507375E-1,2.3744455E-1,-3.1465918E-1,9.63465E-1,1.4110694E0,-4.0269905E-1,2.8928214E-1,5.799831E-1,3.831027E0,5.075295E0,1.9322287E-1,3.777422E-1,-3.6230734E-1,-7.4701047E-1,1.3229104E0,-1.4312006E0,-4.0215328E-1,-7.529335E-1,-6.3845205E-1,-2.9946002E-1,-3.0384874E-1,1.1574849E-1,-3.8242373E-1,-1.05241984E-1,-3.8578E-1,7.29851E-2,4.4180416E-2,2.367995E-1,-3.607509E-1,-1.786171E-1,-1.0348671E-1,1.4409925E-1,1.2115825E-3,-1.0066409E-1,4.597936E-1,8.288953E-1,2.6989707E-1,1.2636235E-1,1.4162889E0,4.260132E-1,-3.2693043E-1,-1.1843628E-1,6.664227E-2,-1.19963385E-1,2.9665604E-1,6.157284E-1,1.2685104E-1,5.283839E-1,1.999598E-1,-2.1547887E-1,4.7071064E-1,9.177796E-1,1.089889E0,7.088955E-1,-4.5794493E-1,7.21733E-1,6.406762E-1,1.1483986E0,1.3225839E-1,-1.797261E-1,5.263366E-1,3.2292217E-1],"split_indices":[64,2,64,58,0,64,4,1,0,34,3,62,3,54,62,4,4,62,0,24,0,1,1,4,4,0,0,1,1,1,1,61,2,2,34,28,1,0,1,1,0,10,1,0,2,2,0,0,1,1,2,10,56,0,0,4,0,4,0,0,0,0,0,0,0,0,0,0,0,0,0,0,0,0,0,0,0,0,0,0,0,0,0,0,0,0,0,0,0,0,0,0,0,0,0,0,0,0,0,0,0,0,0,0,0],"split_type":[0,0,0,0,0,0,0,0,0,0,0,0,0,0,0,0,0,0,0,0,0,0,0,0,0,0,0,0,0,0,0,0,0,0,0,0,0,0,0,0,0,0,0,0,0,0,0,0,0,0,0,0,0,0,0,0,0,0,0,0,0,0,0,0,0,0,0,0,0,0,0,0,0,0,0,0,0,0,0,0,0,0,0,0,0,0,0,0,0,0,0,0,0,0,0,0,0,0,0,0,0,0,0,0,0],"sum_hessian":[2.266866E3,1.4157347E3,8.511312E2,8.017615E2,6.139732E2,2.5016774E2,6.0096344E2,6.6411395E2,1.3764755E2,1.1700143E2,4.969718E2,2.4721652E2,2.9512167E0,1.2067308E2,4.8029037E2,2.290134E2,4.3510056E2,8.9493935E1,4.8153618E1,6.2866493E1,5.4134933E1,4.706932E0,4.9226486E2,2.6167313E1,2.2104921E2,1.4756083E0,1.4756083E0,8.443766E1,3.623542E1,3.3809795E1,4.464806E2,1.5201773E2,7.699566E1,1.3290712E2,3.0219342E2,9.489207E0,8.000472E1,5.4054074E0,4.274821E1,4.7877502E1,1.4988994E1,3.623542E1,1.7899513E1,1.3036842E0,3.4032478E0,1.554568E2,3.3680807E2,1.0919218E0,2.507539E1,1.2122223E2,9.982698E1,4.5394436E1,3.904322E1,6.039237E0,3.0196186E1,1.6934608E1,1.6875187E1,7.779025E1,3.6869034E2,1.4389757E2,8.120174E0,6.779613E1,9.199526E0,7.910004E1,5.380708E1,2.6734348E2,3.4849953E1,8.303057E0,1.1861509E0,5.2876904E1,2.7127821E1,2.710374E1,1.5644468E1,4.4748783E0,4.3402622E1,6.039237E0,8.949757E0,3.0196186E1,6.039237E0,1.3424635E1,4.4748783E0,2.091596E0,1.3116518E0,1.1114809E2,4.430871E1,1.6167807E2,1.7513E2,7.9630795E0,1.711231E1,7.8243935E1,4.29783E1,3.0680767E1,6.914622E1,3.8965225E1,6.429209E0,2.0613533E1,1.842969E1,2.3166032E0,1.4618005E1,5.9307547E0,1.0944433E1,6.820603E1,9.58422E0,7.353396E1,2.9515637E2],"tree_param":{"num_deleted":"0","num_feature":"65","num_nodes":"105","size_leaf_vector":"1"}},{"base_weights":[1.7089339E-2,-5.268341E-1,6.702474E-1,-6.4317524E-1,2.696232E-1,2.559409E-1,9.65042E-1,-7.4930364E-1,-1.2839533E-2,1.0785652E0,-1.6035654E-1,3.0058712E-1,-4.633502E0,1.1638749E0,5.8955705E-1,-5.213495E-1,-1.0467232E0,-1.9727929E-1,3.059728E0,1.299088E0,5.870277E-1,1.3282435E-1,-3.118546E-1,2.754503E-1,1.4382067E0,-2.8431265E0,6.2452376E-1,-2.81239E-2,1.2675159E0,2.5555107E-1,9.945879E-1,-1.0245032E0,-3.6782312E-1,-1.1393505E0,-5.2932435E-1,5.0410503E-1,-3.614812E-1,2.138121E0,-3.7971574E-1,1.0875909E0,6.155526E-1,9.398886E-2,6.502265E-1,2.722995E-1,-5.881764E-1,1.6455254E-1,-4.155404E-1,1.1495779E0,1.7703117E-1,5.9501815E-1,-1.8729346E-1,1.2209522E0,1.2192513E0,7.800107E-1,-5.13592E-1,7.7918226E-1,6.623601E-1,-4.517905E-1,-2.7767906E-1,-2.669025E-1,-8.0453604E-2,-3.581748E-1,-8.056381E-2,-2.2698312E-1,-4.0389106E-2,4.5755523E-1,-9.256436E-2,6.384736E-2,-2.4272475E-1,-2.0402497E-1,7.815412E-2,1.4526227E-1,3.6395794E-1,2.3031788E-1,9.537696E-2,1.7986361E-2,2.0854053E-1,1.4979689E-2,-3.7884358E-1,-2.8335305E-2,9.552832E-2,-1.3494161E-1,1.2061261E-1,5.3834164E-1,-5.3801317E-2,-1.6392162E-1,8.459198E-2,3.8016282E-2,2.867823E-1,-8.22447E-2,1.602275E-1,3.9147776E-1,1.3387994E-1,1.1884476E-1,2.9247224E-1,-3.703027E-1,2.290441E-2,2.965601E-1,2.7661389E-2],"categories":[],"categories_nodes":[],"categories_segments":[],"categories_sizes":[],"default_left":[0,0,0,0,0,0,0,0,0,0,0,0,0,0,0,0,0,0,0,0,0,0,0,0,0,0,0,0,0,0,0,0,0,0,0,0,0,0,0,0,0,0,0,0,0,0,0,0,0,0,0,0,0,0,0,0,0,0,0,0,0,0,0,0,0,0,0,0,0,0,0,0,0,0,0,0,0,0,0,0,0,0,0,0,0,0,0,0,0,0,0,0,0,0,0,0,0,0,0],"id":8,"left_children":[1,3,5,7,9,11,13,15,17,19,21,23,25,27,29,31,33,35,37,39,41,43,45,47,-1,-1,-1,49,51,53,55,57,59,61,63,65,67,-1,69,71,-1,-1,73,75,77,79,81,83,85,87,89,91,-1,93,95,97,-1,-1,-1,-1,-1,-1,-1,-1,-1,-1,-1,-1,-1,-1,-1,-1,-1,-1,-1,-1,-1,-1,-1,-1,-1,-1,-1,-1,-1,-1,-1,-1,-1,-1,-1,-1,-1,-1,-1,-1,-1,-1,-1],"loss_changes":[8.060533E2,1.14884186E2,1.25662384E2,7.2270294E1,5.530036E1,9.5245964E1,4.4255676E1,6.2151E1,8.9417175E1,5.2137527E0,4.6764956E0,4.6907864E1,1.4824568E2,4.8529175E1,2.8213463E1,4.0217148E1,1.8578949E1,1.7317497E1,1.27706764E2,3.6964989E0,1.2323856E-1,3.8059392E0,3.4817352E0,3.6417385E1,0E0,0E0,0E0,3.3228474E0,4.2068542E1,4.7464584E1,2.3044357E1,4.429947E0,2.0780045E1,1.5768524E1,5.5176563E0,2.4237234E1,3.1313004E1,0E0,1.2907664E0,1.7768059E0,0E0,0E0,3.1913948E-1,2.7472188E0,2.7290473E0,5.508685E-1,1.7786045E0,3.7083096E1,2.9290012E1,1.0327604E0,1.8099972E0,2.2620117E1,0E0,4.833336E0,2.0463459E1,1.1704414E1,0E0,0E0,0E0,0E0,0E0,0E0,0E0,0E0,0E0,0E0,0E0,0E0,0E0,0E0,0E0,0E0,0E0,0E0,0E0,0E0,0E0,0E0,0E0,0E0,0E0,0E0,0E0,0E0,0E0,0E0,0E0,0E0,0E0,0E0,0E0,0E0,0E0,0E0,0E0,0E0,0E0,0E0,0E0],"parents":[2147483647,0,0,1,1,2,2,3,3,4,4,5,5,6,6,7,7,8,8,9,9,10,10,11,11,12,12,13,13,14,14,15,15,16,16,17,17,18,18,19,19,20,20,21,21,22,22,23,23,27,27,28,28,29,29,30,30,31,31,32,32,33,33,34,34,35,35,36,36,38,38,39,39,42,42,43,43,44,44,45,45,46,46,47,47,48,48,49,49,50,50,51,51,53,53,54,54,55,55],"right_children":[2,4,6,8,10,12,14,16,18,20,22,24,26,28,30,32,34,36,38,40,42,44,46,48,-1,-1,-1,50,52,54,56,58,60,62,64,66,68,-1,70,72,-1,-1,74,76,78,80,82,84,86,88,90,92,-1,94,96,98,-1,-1,-1,-1,-1,-1,-1,-1,-1,-1,-1,-1,-1,-1,-1,-1,-1,-1,-1,-1,-1,-1,-1,-1,-1,-1,-1,-1,-1,-1,-1,-1,-1,-1,-1,-1,-1,-1,-1,-1,-1,-1,-1],"split_conditions":[-1.2577662E-1,4.802293E0,6.816438E-1,4.006862E0,-1.7732958E0,6.78025E-1,-3.5346147E-1,-3.2306486E-1,4.3325167E0,-2.1153908E0,-1.0891056E0,2.532067E0,-6.472951E-1,-1.3058877E0,1.149965E0,-1.1783613E0,9.7032297E-1,3.840633E-1,-1.4312006E0,3.831027E0,9.7824894E-2,3.831027E0,-9.941642E-1,3.840633E-1,1.4382067E0,-2.8431265E0,6.2452376E-1,1.0626441E0,2.1682982E0,8.8904184E-1,6.496258E-1,-1.2423759E0,-9.442496E-1,-3.3420855E-1,-9.415792E-1,-7.4701047E-1,-3.6230734E-1,2.138121E0,-3.6359367E-1,-1.5350319E0,6.155526E-1,9.398886E-2,6.421105E-1,9.7824894E-2,-1.4312006E0,-3.1244063E-1,4.193665E0,9.63465E-1,-1.1247665E0,9.210911E-1,4.1035447E0,3.7410119E0,1.2192513E0,4.5857925E-2,9.2559063E-1,4.165853E-1,6.623601E-1,-4.517905E-1,-2.7767906E-1,-2.669025E-1,-8.0453604E-2,-3.581748E-1,-8.056381E-2,-2.2698312E-1,-4.0389106E-2,4.5755523E-1,-9.256436E-2,6.384736E-2,-2.4272475E-1,-2.0402497E-1,7.815412E-2,1.4526227E-1,3.6395794E-1,2.3031788E-1,9.537696E-2,1.7986361E-2,2.0854053E-1,1.4979689E-2,-3.7884358E-1,-2.8335305E-2,9.552832E-2,-1.3494161E-1,1.2061261E-1,5.3834164E-1,-5.3801317E-2,-1.6392162E-1,8.459198E-2,3.8016282E-2,2.867823E-1,-8.22447E-2,1.602275E-1,3.9147776E-1,1.3387994E-1,1.1884476E-1,2.9247224E-1,-3.703027E-1,2.290441E-2,2.965601E-1,2.7661389E-2],"split_indices":[2,34,64,43,0,64,3,3,19,0,0,1,3,3,64,64,1,62,0,10,1,10,2,62,0,0,0,64,1,64,3,1,1,2,64,0,4,0,3,1,0,0,1,1,0,1,18,0,1,1,28,15,0,1,64,3,0,0,0,0,0,0,0,0,0,0,0,0,0,0,0,0,0,0,0,0,0,0,0,0,0,0,0,0,0,0,0,0,0,0,0,0,0,0,0,0,0,0,0],"split_type":[0,0,0,0,0,0,0,0,0,0,0,0,0,0,0,0,0,0,0,0,0,0,0,0,0,0,0,0,0,0,0,0,0,0,0,0,0,0,0,0,0,0,0,0,0,0,0,0,0,0,0,0,0,0,0,0,0,0,0,0,0,0,0,0,0,0,0,0,0,0,0,0,0,0,0,0,0,0,0,0,0,0,0,0,0,0,0,0,0,0,0,0,0,0,0,0,0,0,0],"sum_hessian":[2.266866E3,1.2369651E3,1.0299008E3,1.0794751E3,1.5749008E2,4.2893735E2,6.0096344E2,9.237555E2,1.5571957E2,5.4134933E1,1.0335514E2,4.259861E2,2.9512167E0,3.915329E2,2.0943056E2,5.245062E2,3.9924924E2,1.477842E2,7.93538E0,3.623542E1,1.7899513E1,3.525415E1,6.810099E1,4.2467175E2,1.3143653E0,1.4756083E0,1.4756083E0,3.137785E1,3.6015506E2,1.1567274E2,9.375781E1,1.2129888E2,4.0320734E2,3.3760715E2,6.16421E1,2.764201E1,1.2014218E2,3.1445777E0,4.7908025E0,3.0196186E1,6.039237E0,4.4748783E0,1.3424635E1,3.0061235E1,5.192913E0,1.2067442E1,5.603355E1,4.1894806E1,3.8277695E2,5.8270254E0,2.5550823E1,3.556698E2,4.48526E0,6.876765E1,4.690509E1,8.101637E1,1.2741444E1,1.8247232E1,1.0305165E2,6.3375008E1,3.3983234E2,3.1735062E2,2.0256536E1,3.8534767E1,2.3107336E1,1.1861509E1,1.57805E1,5.2852722E1,6.728945E1,3.218551E0,1.5722514E0,6.039237E0,2.4156948E1,8.949757E0,4.4748783E0,2.0771652E1,9.289583E0,3.1445777E0,2.0483353E0,4.6413236E0,7.426118E0,5.421138E1,1.82217E0,2.7970833E1,1.3923971E1,4.7958675E1,3.3481827E2,3.1243217E0,2.7027037E0,2.3358414E1,2.19241E0,3.2026907E2,3.540071E1,2.417872E1,4.458893E1,2.0620266E1,2.6284822E1,6.175732E1,1.9259052E1],"tree_param":{"num_deleted":"0","num_feature":"65","num_nodes":"99","size_leaf_vector":"1"}},{"base_weights":[1.4033217E-2,-3.6175483E-1,4.7895253E-1,-6.310268E-3,-4.9748918E-1,1.836627E-1,6.808405E-1,-5.7814306E-1,2.2900666E-1,-6.425808E-1,-1.7999431E-1,2.216322E-1,-3.8049517E0,1.1518432E0,5.603536E-1,-8.0987394E-1,-2.1945035E-1,-1.6831413E-1,4.824706E-1,-1.2720892E-1,-6.949267E-1,-3.2834134E-1,6.917581E-1,5.039981E-1,-8.2859814E-2,-2.3347256E0,5.128473E-1,1.422523E0,4.9982715E-1,3.9324465E-1,1.0810002E0,-8.8888896E-1,-2.204609E-2,-7.8193456E-1,4.878259E-1,-5.4699045E-1,9.294743E-3,3.8933185E-1,1.5778462E0,-5.773669E-1,2.5598595E-1,-6.188195E-1,-1.2298479E0,4.9178827E-1,-3.7242445E-1,1.6514493E0,1.5972528E-1,4.357015E-1,4.6451087E0,-1.573116E-1,1.3375587E0,1.2891124E0,3.0448904E0,5.7337165E-1,9.604316E-2,7.969581E-1,2.6361564E-1,9.739641E-1,9.201587E-1,-2.9291242E-1,-2.015994E-1,-2.7619237E-1,-1.5067703E-1,1.9075868E-1,2.6078396E-3,-2.34284E-1,1.0787405E-1,6.222261E-2,-8.1859805E-2,6.2100563E-2,2.3926912E-1,2.6847845E-1,6.503099E-1,2.579757E-1,-2.6059908E-1,3.0795273E-1,-3.2513503E-2,1.8761522E-1,-1.9459389E-1,-4.5408562E-1,-2.4235211E-1,-3.1411788E-1,-9.4022565E-2,1.9443478E-1,-2.6978679E-2,4.0257004E-1,8.4432304E-2,2.066307E0,-8.782133E-2,-1.7114514E-1,4.0643603E-2,1.2704892E0,4.6156444E-2,3.2125008E-1,6.984009E-1,1.5642775E0,2.242911E-1,1.1250447E-1,2.1836628E-1,1.7601174E-1,4.7526994E-1,-5.0552506E-2,1.1069471E-1,3.4458384E-1,1.2504412E-1],"categories":[],"categories_nodes":[],"categories_segments":[],"categories_sizes":[],"default_left":[0,0,0,0,0,0,0,0,0,0,0,0,0,0,0,0,0,0,0,0,0,0,0,0,0,0,0,0,0,0,0,0,0,0,0,0,0,0,0,0,0,0,0,0,0,0,0,0,0,0,0,0,0,0,0,0,0,0,0,0,0,0,0,0,0,0,0,0,0,0,0,0,0,0,0,0,0,0,0,0,0,0,0,0,0,0,0,0,0,0,0,0,0,0,0,0,0,0,0,0,0,0,0,0,0],"id":9,"left_children":[1,3,5,7,9,11,13,15,17,19,21,23,25,27,29,31,33,35,37,39,41,43,45,47,49,-1,-1,51,53,55,57,59,-1,61,63,65,67,69,71,73,75,77,79,-1,81,-1,83,85,87,89,91,93,95,97,-1,99,101,103,-1,-1,-1,-1,-1,-1,-1,-1,-1,-1,-1,-1,-1,-1,-1,-1,-1,-1,-1,-1,-1,-1,-1,-1,-1,-1,-1,-1,-1,-1,-1,-1,-1,-1,-1,-1,-1,-1,-1,-1,-1,-1,-1,-1,-1,-1,-1],"loss_changes":[3.9639465E2,6.053218E1,6.0333633E1,4.692599E1,4.1710922E1,6.341777E1,3.3515717E1,8.272793E0,2.4963902E1,1.6713165E1,3.7236176E1,3.5312565E1,9.996803E1,2.0762772E1,4.1449463E1,3.5068321E0,1.6801516E1,6.5271387E0,1.4802036E1,1.0264544E1,2.2246857E1,2.1882404E1,1.06514496E2,5.821462E1,2.1174862E1,0E0,0E0,1.4567017E1,3.084917E-1,1.8939575E1,2.1752502E1,3.9419556E-1,0E0,4.4437027E-1,1.3349977E0,6.8511763E0,3.8016267E0,1.0299725E1,2.6981926E0,1.2166413E1,9.200104E0,1.8841095E1,7.0857086E0,0E0,9.254314E0,0E0,4.7884417E0,2.9067444E1,3.913691E1,2.2972809E1,3.357161E1,1.580275E1,2.4795444E1,4.9807453E-1,0E0,1.3710102E1,1.2741648E1,1.0408325E1,0E0,0E0,0E0,0E0,0E0,0E0,0E0,0E0,0E0,0E0,0E0,0E0,0E0,0E0,0E0,0E0,0E0,0E0,0E0,0E0,0E0,0E0,0E0,0E0,0E0,0E0,0E0,0E0,0E0,0E0,0E0,0E0,0E0,0E0,0E0,0E0,0E0,0E0,0E0,0E0,0E0,0E0,0E0,0E0,0E0,0E0,0E0],"parents":[2147483647,0,0,1,1,2,2,3,3,4,4,5,5,6,6,7,7,8,8,9,9,10,10,11,11,12,12,13,13,14,14,15,15,16,16,17,17,18,18,19,19,20,20,21,21,22,22,23,23,24,24,27,27,28,28,29,29,30,30,31,31,33,33,34,34,35,35,36,36,37,37,38,38,39,39,40,40,41,41,42,42,44,44,46,46,47,47,48,48,49,49,50,50,51,51,52,52,53,53,55,55,56,56,57,57],"right_children":[2,4,6,8,10,12,14,16,18,20,22,24,26,28,30,32,34,36,38,40,42,44,46,48,50,-1,-1,52,54,56,58,60,-1,62,64,66,68,70,72,74,76,78,80,-1,82,-1,84,86,88,90,92,94,96,98,-1,100,102,104,-1,-1,-1,-1,-1,-1,-1,-1,-1,-1,-1,-1,-1,-1,-1,-1,-1,-1,-1,-1,-1,-1,-1,-1,-1,-1,-1,-1,-1,-1,-1,-1,-1,-1,-1,-1,-1,-1,-1,-1,-1,-1,-1,-1,-1,-1,-1],"split_conditions":[-1.2266055E-1,-1.7732958E0,6.816438E-1,-1.1406426E0,5.2723616E-1,6.78025E-1,-9.2404664E-1,-2.1153908E0,-5.4492444E-1,3.840633E-1,4.006862E0,9.63465E-1,-6.472951E-1,5.959668E0,1.6330979E0,4.3325167E0,-2.6320878E-1,-1.1603228E0,4.154374E0,-3.6359367E-1,4.636028E0,-1.3666809E0,-1.4312006E0,1.5939265E0,4.1804533E0,-2.3347256E0,5.128473E-1,-8.600712E-1,1.744078E-1,-1.4312006E0,1.9850464E0,3.9048097E-1,-2.204609E-2,-1.2365006E0,2.3458007E-1,-5.7097286E-1,-6.680041E-1,4.802293E0,-2.1153908E0,-1.4578706E0,-7.4701047E-1,-1.1235082E0,-4.4919583E-1,4.9178827E-1,-1.6455576E0,1.6514493E0,7.022828E-1,1.3445038E-1,6.583529E0,-3.0280048E-1,-1.1235082E0,3.8729835E0,9.2714924E-1,-1.4529788E0,9.604316E-2,3.9048097E-1,-9.442496E-1,1.3055601E0,9.201587E-1,-2.9291242E-1,-2.015994E-1,-2.7619237E-1,-1.5067703E-1,1.9075868E-1,2.6078396E-3,-2.34284E-1,1.0787405E-1,6.222261E-2,-8.1859805E-2,6.2100563E-2,2.3926912E-1,2.6847845E-1,6.503099E-1,2.579757E-1,-2.6059908E-1,3.0795273E-1,-3.2513503E-2,1.8761522E-1,-1.9459389E-1,-4.5408562E-1,-2.4235211E-1,-3.1411788E-1,-9.4022565E-2,1.9443478E-1,-2.6978679E-2,4.0257004E-1,8.4432304E-2,2.066307E0,-8.782133E-2,-1.7114514E-1,4.0643603E-2,1.2704892E0,4.6156444E-2,3.2125008E-1,6.984009E-1,1.5642775E0,2.242911E-1,1.1250447E-1,2.1836628E-1,1.7601174E-1,4.7526994E-1,-5.0552506E-2,1.1069471E-1,3.4458384E-1,1.2504412E-1],"split_indices":[64,0,64,2,1,64,4,0,1,62,43,0,3,54,2,16,1,1,6,3,39,3,0,1,13,0,0,3,1,0,1,1,0,2,1,2,1,34,0,3,0,3,1,0,64,0,1,64,31,3,3,22,2,1,0,1,1,0,0,0,0,0,0,0,0,0,0,0,0,0,0,0,0,0,0,0,0,0,0,0,0,0,0,0,0,0,0,0,0,0,0,0,0,0,0,0,0,0,0,0,0,0,0,0,0],"split_type":[0,0,0,0,0,0,0,0,0,0,0,0,0,0,0,0,0,0,0,0,0,0,0,0,0,0,0,0,0,0,0,0,0,0,0,0,0,0,0,0,0,0,0,0,0,0,0,0,0,0,0,0,0,0,0,0,0,0,0,0,0,0,0,0,0,0,0,0,0,0,0,0,0,0,0,0,0,0,0,0,0,0,0,0,0,0,0,0,0,0,0,0,0,0,0,0,0,0,0,0,0,0,0,0,0],"sum_hessian":[2.266866E3,1.2537216E3,1.0131444E3,3.4674762E2,9.069739E2,4.1218097E2,6.0096344E2,1.00666275E2,2.4608133E2,6.217961E2,2.851778E2,4.0922974E2,2.9512167E0,1.2067308E2,4.8029037E2,6.0392372E1,4.0273903E1,9.59732E1,1.5010814E2,5.764841E1,5.641477E2,2.4423877E2,4.0939014E1,2.1198944E2,1.972403E2,1.4756083E0,1.4756083E0,8.443766E1,3.623542E1,3.6491956E2,1.1537081E2,5.4353134E1,6.039237E0,2.2374392E1,1.7899513E1,2.9977987E1,6.599521E1,1.3959402E2,1.0514115E1,2.6275068E1,3.1373343E1,4.957679E2,6.837978E1,4.5590835E0,2.3967969E2,3.1445777E0,3.7794434E1,2.0963725E2,2.3521955E0,1.8826173E2,8.978562E0,7.968E1,4.7576594E0,2.4156948E1,1.2078474E1,8.744257E1,2.77477E2,1.1088555E2,4.48526E0,3.623542E1,1.811771E1,1.3424635E1,8.949757E0,1.3424635E1,4.4748783E0,2.3938751E1,6.039237E0,3.8927742E1,2.7067467E1,9.753756E1,4.205646E1,6.039237E0,4.4748783E0,4.0988603E0,2.2176208E1,9.489207E0,2.1884136E1,1.1139177E1,4.8462872E2,3.9339787E1,2.9039997E1,1.7933424E1,2.2174626E2,1.224462E1,2.5549814E1,2.9375107E1,1.8026215E2,1.3460113E0,1.0061843E0,7.7686165E1,1.1057558E2,1.8565295E0,7.122033E0,6.752353E1,1.2156468E1,1.7938715E0,2.9637878E0,1.2078474E1,1.2078474E1,7.038938E1,1.7053188E1,5.4277588E1,2.231994E2,8.361376E1,2.7271793E1],"tree_param":{"num_deleted":"0","num_feature":"65","num_nodes":"105","size_leaf_vector":"1"}},{"base_weights":[1.3775406E-2,-2.2483513E-1,3.9494148E-1,-3.7602308E-1,-2.0004611E-2,7.1872413E-1,2.5310388E-1,-4.6194538E-1,3.887176E-2,2.41118E0,-4.3530088E-2,6.6094196E-1,4.5444326E0,1.3787684E-1,8.0371463E-1,3.4600407E-1,-5.012964E-1,-6.310756E-1,1.4157529E-1,3.1540656E-1,9.630981E-1,1.927903E-1,-2.5151154E-1,1.18698426E-1,7.7629924E-1,1.8357731E-1,1.8644086E0,2.2643809E-1,-5.6329733E-1,1.290525E0,6.0310376E-1,1.882205E-1,6.759484E-1,-3.109214E-1,-6.411237E-1,3.2209367E-1,-2.3506625E-1,-1.4333315E-2,5.8397585E-1,-3.5574284E-1,2.2944608E-1,2.1292597E-1,-3.3048403E-1,6.340028E-1,1.2872559E0,1.7366593E-1,8.920229E-1,-2.0783608E0,-2.6651198E-1,1.0918822E0,5.8428144E-1,5.0704765E-1,1.4582703E0,1.8496529E-3,6.112883E-1,-1.5777472E-1,-5.3401805E-2,-8.871639E-3,-2.1108353E-1,-1.5587357E-1,1.2813137E-1,-1.3061872E-1,-2.849123E-2,3.3260446E-2,-1.5929401E-1,7.4696004E-1,1.1722139E-1,-8.892353E-2,-3.171234E-1,2.409785E-1,3.8474265E-2,7.21841E-2,-1.406892E-1,1.7504112E-1,6.5701085E-1,4.619861E-1,6.365956E-2,4.1232962E-2,2.8327522E-1,3.1449786E-1,-1.1554227E-1,-1.2635085E-1,-1.9172356E0,-1.6427281E-1,4.0553018E-1,4.181086E-1,1.9592424E-1,9.101406E-2,2.6159054E-1,9.333249E-2,5.264464E-1],"categories":[],"categories_nodes":[],"categories_segments":[],"categories_sizes":[],"default_left":[0,0,0,0,0,0,0,0,0,0,0,0,0,0,0,0,0,0,0,0,0,0,0,0,0,0,0,0,0,0,0,0,0,0,0,0,0,0,0,0,0,0,0,0,0,0,0,0,0,0,0,0,0,0,0,0,0,0,0,0,0,0,0,0,0,0,0,0,0,0,0,0,0,0,0,0,0,0,0,0,0,0,0,0,0,0,0,0,0,0,0],"id":10,"left_children":[1,3,5,7,9,11,13,15,17,19,21,23,25,27,29,31,33,-1,35,-1,-1,37,39,41,43,-1,-1,45,47,49,51,53,-1,55,57,59,61,63,65,67,69,71,-1,73,75,77,79,81,83,85,-1,87,89,-1,-1,-1,-1,-1,-1,-1,-1,-1,-1,-1,-1,-1,-1,-1,-1,-1,-1,-1,-1,-1,-1,-1,-1,-1,-1,-1,-1,-1,-1,-1,-1,-1,-1,-1,-1,-1,-1],"loss_changes":[2.0635172E2,4.3204697E1,3.993222E1,2.8635406E1,3.4057262E1,5.5695175E1,3.8523685E1,2.1319809E1,3.0805527E1,2.8265266E0,2.8994007E1,1.6343658E1,2.1029945E1,3.1472088E1,9.492905E0,9.049229E0,1.6694351E1,0E0,9.134943E0,0E0,0E0,2.2390705E1,1.5806416E1,5.670392E0,1.4923691E1,0E0,0E0,1.5611595E1,2.502736E1,1.7651138E0,5.5329514E0,1.0144495E1,0E0,7.64143E0,1.3925629E1,8.220201E0,1.1864552E0,1.180497E1,3.4255768E1,1.0430477E1,3.1766393E0,9.5720506E-1,0E0,1.2191261E1,1.2220108E1,1.1513798E1,6.938223E0,6.2855503E1,2.2899899E1,2.4232674E0,0E0,4.951454E0,1.8958693E0,0E0,0E0,0E0,0E0,0E0,0E0,0E0,0E0,0E0,0E0,0E0,0E0,0E0,0E0,0E0,0E0,0E0,0E0,0E0,0E0,0E0,0E0,0E0,0E0,0E0,0E0,0E0,0E0,0E0,0E0,0E0,0E0,0E0,0E0,0E0,0E0,0E0,0E0],"parents":[2147483647,0,0,1,1,2,2,3,3,4,4,5,5,6,6,7,7,8,8,9,9,10,10,11,11,12,12,13,13,14,14,15,15,16,16,18,18,21,21,22,22,23,23,24,24,27,27,28,28,29,29,30,30,31,31,33,33,34,34,35,35,36,36,37,37,38,38,39,39,40,40,41,41,43,43,44,44,45,45,46,46,47,47,48,48,49,49,51,51,52,52],"right_children":[2,4,6,8,10,12,14,16,18,20,22,24,26,28,30,32,34,-1,36,-1,-1,38,40,42,44,-1,-1,46,48,50,52,54,-1,56,58,60,62,64,66,68,70,72,-1,74,76,78,80,82,84,86,-1,88,90,-1,-1,-1,-1,-1,-1,-1,-1,-1,-1,-1,-1,-1,-1,-1,-1,-1,-1,-1,-1,-1,-1,-1,-1,-1,-1,-1,-1,-1,-1,-1,-1,-1,-1,-1,-1,-1,-1],"split_conditions":[5.1963514E-1,-6.879856E-1,-3.6230734E-1,4.261513E0,-1.6503823E0,2.2585568E0,1.6330979E0,-1.1235082E0,-9.917897E-1,9.7824894E-2,-7.4701047E-1,-1.0016868E0,-1.3058877E0,1.3229104E0,-1.0120541E0,6.583529E0,-1.4312006E0,-6.310756E-1,6.213699E-1,3.1540656E-1,9.630981E-1,2.7560663E-1,1.3690115E0,1.6403002E0,5.5677643E0,1.8357731E-1,1.8644086E0,4.3325167E0,-6.472951E-1,1.0742569E0,4.165853E-1,4.3325167E0,6.759484E-1,-5.4492444E-1,3.840633E-1,3.840633E-1,-1.8936099E-1,4.0911055E0,-6.0813123E-1,4.636028E0,-3.6230734E-1,5.4527674E0,-3.3048403E-1,4.5338235E0,-2.1153908E0,4.1804533E0,1.8354483E-1,-4.049154E-1,4.0787697E0,3.840633E-1,5.8428144E-1,2.646662E-1,-5.558649E-1,1.8496529E-3,6.112883E-1,-1.5777472E-1,-5.3401805E-2,-8.871639E-3,-2.1108353E-1,-1.5587357E-1,1.2813137E-1,-1.3061872E-1,-2.849123E-2,3.3260446E-2,-1.5929401E-1,7.4696004E-1,1.1722139E-1,-8.892353E-2,-3.171234E-1,2.409785E-1,3.8474265E-2,7.21841E-2,-1.406892E-1,1.7504112E-1,6.5701085E-1,4.619861E-1,6.365956E-2,4.1232962E-2,2.8327522E-1,3.1449786E-1,-1.1554227E-1,-1.2635085E-1,-1.9172356E0,-1.6427281E-1,4.0553018E-1,4.181086E-1,1.9592424E-1,9.101406E-2,2.6159054E-1,9.333249E-2,5.264464E-1],"split_indices":[2,2,4,58,3,1,2,3,3,1,0,1,3,4,3,31,0,0,0,0,0,1,3,64,40,0,0,19,3,1,3,16,0,1,62,62,1,24,64,39,4,59,0,55,0,13,3,0,36,62,0,1,1,0,0,0,0,0,0,0,0,0,0,0,0,0,0,0,0,0,0,0,0,0,0,0,0,0,0,0,0,0,0,0,0,0,0,0,0,0,0],"split_type":[0,0,0,0,0,0,0,0,0,0,0,0,0,0,0,0,0,0,0,0,0,0,0,0,0,0,0,0,0,0,0,0,0,0,0,0,0,0,0,0,0,0,0,0,0,0,0,0,0,0,0,0,0,0,0,0,0,0,0,0,0,0,0,0,0,0,0,0,0,0,0,0,0,0,0,0,0,0,0,0,0,0,0,0,0,0,0,0,0,0,0],"sum_hessian":[2.266866E3,1.3943875E3,8.724785E2,8.017615E2,5.926259E2,2.645361E2,6.079424E2,6.6411395E2,1.3764755E2,4.706932E0,5.87919E2,2.617554E2,2.780698E0,5.037685E2,1.041739E2,3.0481403E1,6.3363257E2,5.4054074E0,1.3224214E2,2.5994008E0,2.1075313E0,2.7524405E2,3.1267496E2,4.6273438E1,2.1548196E2,1.236296E0,1.5444021E0,4.4787683E2,5.5891678E1,2.881567E1,7.535823E1,2.9167038E1,1.3143653E0,2.696828E2,3.6394974E2,8.9493935E1,4.274821E1,1.8058948E2,9.4654564E1,2.5719662E2,5.547832E1,4.372285E1,2.5505865E0,1.7029678E2,4.518518E1,4.1614304E2,3.1733778E1,8.171904E0,4.7719772E1,2.41704E1,4.64527E0,6.91805E1,6.177735E0,2.7466572E1,1.7004658E0,1.0190001E2,1.6778279E2,3.3877155E1,3.3007257E2,9.489207E0,8.000472E1,1.6724775E1,2.6023434E1,1.4599518E2,3.4594303E1,7.6194563E0,8.703511E1,2.3844728E2,1.8749357E1,7.277273E0,4.8201046E1,4.263867E1,1.0841787E0,1.6627205E2,4.0247374E0,3.623542E1,8.949757E0,3.985852E2,1.7557854E1,2.843321E1,3.3005667E0,6.6962957E0,1.4756083E0,4.1221943E1,6.49783E0,1.3031224E1,1.1139177E1,4.557551E1,2.3604984E1,1.6898595E0,4.4878755E0],"tree_param":{"num_deleted":"0","num_feature":"65","num_nodes":"91","size_leaf_vector":"1"}},{"base_weights":[1.2213063E-2,-1.8960886E-1,2.438114E-1,-2.5023967E-1,2.1514529E-1,7.859776E-2,3.9980036E-1,-5.6718326E-1,-1.8766849E-1,6.364626E-1,8.506375E-2,1.21970594E-1,-6.9720006E-1,6.2449014E-1,1.4388163E-1,9.624408E-1,-6.0942864E-1,-2.3751085E-1,9.8283574E-2,7.645163E-1,-6.4369002E-3,1.4639147E-1,-4.073472E-1,1.0249723E-1,4.0682125E-1,4.9249116E-1,-8.434412E-1,5.881792E-1,1.5529608E0,8.9762604E-1,8.415224E-2,-3.9128307E-1,6.415028E-1,-6.5846115E-1,-3.8406797E-2,-2.979809E-1,7.033496E-2,-4.470034E-3,1.5104692E0,7.154817E-2,8.813142E-1,1.8272789E-1,-4.986369E-1,2.7491832E-2,-3.692259E-1,2.5593722E-1,-8.7225355E-2,3.68145E-2,1.8968691E-1,-3.4990704E-1,-2.4530758E-1,1.4835589E0,5.020803E-1,2.3494368E0,-2.7362153E-1,1.3239892E-1,-4.0524086E-1,4.119683E-2,-2.1244292E-1,-1.7727739E-1,-2.9900494E-1,5.46951E-2,-2.3659138E-1,-2.0143395E-2,-1.22313075E-1,-4.604858E-1,4.523886E-2,3.379075E-2,-1.7546062E-1,1.1055311E0,-9.2038065E-2,2.1338554E-1,3.6536774E-1,3.9294936E-2,1.6757697E-1,-1.8091106E-1,-2.0118361E-2,-1.0427527E-2,7.4865386E-2,5.1495086E-2,2.792194E-1,-9.374222E-2,2.7333813E-2,-1.5649246E-1,8.653419E-2,1.3955777E0,3.190074E-1,1.6298522E-1,-1.1252387E-1,-2.208264E-1,1.2009189E0,-2.3831055E-1,6.4558506E-2,1.6467849E-2,2.2930086E-1],"categories":[],"categories_nodes":[],"categories_segments":[],"categories_sizes":[],"default_left":[0,0,0,0,0,0,0,0,0,0,0,0,0,0,0,0,0,0,0,0,0,0,0,0,0,0,0,0,0,0,0,0,0,0,0,0,0,0,0,0,0,0,0,0,0,0,0,0,0,0,0,0,0,0,0,0,0,0,0,0,0,0,0,0,0,0,0,0,0,0,0,0,0,0,0,0,0,0,0,0,0,0,0,0,0,0,0,0,0,0,0,0,0,0,0],"id":11,"left_children":[1,3,5,7,9,11,13,15,17,19,21,23,25,27,29,31,33,35,37,39,-1,41,43,45,-1,47,49,51,-1,53,55,57,-1,59,61,63,65,67,69,-1,71,73,75,77,-1,79,81,-1,-1,-1,83,85,87,89,91,93,-1,-1,-1,-1,-1,-1,-1,-1,-1,-1,-1,-1,-1,-1,-1,-1,-1,-1,-1,-1,-1,-1,-1,-1,-1,-1,-1,-1,-1,-1,-1,-1,-1,-1,-1,-1,-1,-1,-1],"loss_changes":[1.0604994E2,2.9806774E1,2.7195343E1,2.0813995E1,8.632008E0,1.7390768E1,3.1143097E1,1.1793495E1,1.260088E1,3.1534462E0,3.7515323E0,1.1586943E1,5.1790285E0,4.471187E1,1.1415213E1,8.873594E0,4.717148E0,1.4015747E1,1.911657E1,1.7064552E0,0E0,2.6564147E0,4.97646E0,1.403726E1,0E0,1.09984994E-1,4.4945583E0,2.1439575E1,0E0,3.2333817E1,1.6628016E1,6.319288E-1,0E0,2.9727325E0,2.5376408E0,1.589341E1,1.6278309E1,8.477549E0,3.6442123E1,0E0,5.7341385E-1,1.9562345E0,2.3463142E-1,1.4706989E-1,0E0,1.4993238E1,8.705689E0,0E0,0E0,0E0,1.6171675E0,2.7981064E1,9.746651E0,4.5939217E1,3.0246787E0,1.1261295E1,0E0,0E0,0E0,0E0,0E0,0E0,0E0,0E0,0E0,0E0,0E0,0E0,0E0,0E0,0E0,0E0,0E0,0E0,0E0,0E0,0E0,0E0,0E0,0E0,0E0,0E0,0E0,0E0,0E0,0E0,0E0,0E0,0E0,0E0,0E0,0E0,0E0,0E0,0E0],"parents":[2147483647,0,0,1,1,2,2,3,3,4,4,5,5,6,6,7,7,8,8,9,9,10,10,11,11,12,12,13,13,14,14,15,15,16,16,17,17,18,18,19,19,21,21,22,22,23,23,25,25,26,26,27,27,29,29,30,30,31,31,33,33,34,34,35,35,36,36,37,37,38,38,40,40,41,41,42,42,43,43,45,45,46,46,50,50,51,51,52,52,53,53,54,54,55,55],"right_children":[2,4,6,8,10,12,14,16,18,20,22,24,26,28,30,32,34,36,38,40,-1,42,44,46,-1,48,50,52,-1,54,56,58,-1,60,62,64,66,68,70,-1,72,74,76,78,-1,80,82,-1,-1,-1,84,86,88,90,92,94,-1,-1,-1,-1,-1,-1,-1,-1,-1,-1,-1,-1,-1,-1,-1,-1,-1,-1,-1,-1,-1,-1,-1,-1,-1,-1,-1,-1,-1,-1,-1,-1,-1,-1,-1,-1,-1,-1,-1],"split_conditions":[-3.1465918E-1,4.802293E0,4.5857925E-2,-1.0016868E0,-2.1153908E0,4.5338235E0,9.63465E-1,-1.1235082E0,4.006862E0,7.3783916E-1,3.831027E0,2.9552758E0,-3.6230734E-1,2.3953118E0,-1.4072096E0,9.63465E-1,3.831027E0,4.261513E0,4.3325167E0,-1.5350319E0,-6.4369002E-3,-5.4155684E-1,1.9943191E-1,-7.4701047E-1,4.0682125E-1,-1.5541776E0,-4.2438683E-1,3.840633E-1,1.5529608E0,7.07753E-1,4.5338235E0,5.8542914E0,6.415028E-1,-1.1685281E0,7.6117116E-1,-3.6230734E-1,-9.917897E-1,4.0911055E0,-1.4312006E0,7.154817E-2,6.421105E-1,9.7032297E-1,1.1645153E0,6.213699E-1,-3.692259E-1,3.8207316E0,-6.9760025E-2,3.68145E-2,1.8968691E-1,-3.4990704E-1,-3.8628843E-1,5.870158E-1,4.5338235E0,2.1816945E-1,9.9493885E-1,1.8588126E0,-4.0524086E-1,4.119683E-2,-2.1244292E-1,-1.7727739E-1,-2.9900494E-1,5.46951E-2,-2.3659138E-1,-2.0143395E-2,-1.22313075E-1,-4.604858E-1,4.523886E-2,3.379075E-2,-1.7546062E-1,1.1055311E0,-9.2038065E-2,2.1338554E-1,3.6536774E-1,3.9294936E-2,1.6757697E-1,-1.8091106E-1,-2.0118361E-2,-1.0427527E-2,7.4865386E-2,5.1495086E-2,2.792194E-1,-9.374222E-2,2.7333813E-2,-1.5649246E-1,8.653419E-2,1.3955777E0,3.190074E-1,1.6298522E-1,-1.1252387E-1,-2.208264E-1,1.2009189E0,-2.3831055E-1,6.4558506E-2,1.6467849E-2,2.2930086E-1],"split_indices":[2,34,1,1,0,55,0,3,43,1,10,2,4,1,3,0,10,58,19,1,0,64,4,0,0,1,3,62,0,1,55,61,0,1,4,4,3,24,0,0,1,1,1,0,0,26,3,0,0,0,1,64,55,1,1,2,0,0,0,0,0,0,0,0,0,0,0,0,0,0,0,0,0,0,0,0,0,0,0,0,0,0,0,0,0,0,0,0,0,0,0,0,0,0,0],"split_type":[0,0,0,0,0,0,0,0,0,0,0,0,0,0,0,0,0,0,0,0,0,0,0,0,0,0,0,0,0,0,0,0,0,0,0,0,0,0,0,0,0,0,0,0,0,0,0,0,0,0,0,0,0,0,0,0,0,0,0,0,0,0,0,0,0,0,0,0,0,0,0,0,0,0,0,0,0,0,0,0,0,0,0,0,0,0,0,0,0,0,0,0,0,0,0],"sum_hessian":[2.266866E3,1.2113978E3,1.0554681E3,1.0539077E3,1.5749008E2,5.1330835E2,5.421598E2,1.7242976E2,8.8147797E2,3.623542E1,1.21254654E2,4.8692822E2,2.6380106E1,2.8792722E2,2.5423257E2,4.04879E0,1.6838098E2,7.5078345E2,1.3069452E2,3.0196186E1,6.039237E0,1.08450325E2,1.2804327E1,4.8043036E2,6.4978533E0,2.6285808E0,2.3751526E1,2.867689E2,1.1583016E0,1.763703E1,2.3659555E2,2.1922603E0,1.8565295E0,1.5492477E2,1.3456206E1,6.275467E2,1.2323676E2,1.2275914E2,7.93538E0,6.039237E0,2.4156948E1,1.0334528E2,5.1050444E0,9.011816E0,3.792511E0,2.654202E2,2.1501016E2,1.236296E0,1.3922849E0,1.480742E1,8.944105E0,2.3732576E1,2.6303632E2,7.426118E0,1.0210912E1,2.297776E2,6.8179483E0,1.0339588E0,1.1583016E0,1.3142819E2,2.3496576E1,1.0982157E1,2.4740496E0,2.0271324E2,4.2483344E2,5.019307E0,1.1821745E2,1.0281941E2,1.9939732E1,3.1445777E0,4.7908025E0,1.811771E1,6.039237E0,9.202476E1,1.1320526E1,3.790754E0,1.3142904E0,7.6974506E0,1.3143653E0,2.3706352E2,2.8356674E1,9.467694E1,1.2033322E2,5.9080844E0,3.0360205E0,1.5997266E0,2.213285E1,2.5159836E2,1.1437962E1,2.7847943E0,4.6413236E0,4.6413236E0,5.5695887E0,2.0564272E2,2.4134884E1],"tree_param":{"num_deleted":"0","num_feature":"65","num_nodes":"95","size_leaf_vector":"1"}},{"base_weights":[1.0715529E-2,-1.11820914E-1,2.06456E-1,1.7172323E0,-1.19246386E-1,1.818251E-1,9.991699E-1,7.08969E-1,2.4399914E-1,-1.3141811E-1,9.341984E-1,2.2398387E-1,-3.0463773E-1,2.3170333E0,2.076391E-1,-4.547491E-1,-9.607446E-2,4.5616642E-1,8.026215E-1,4.590524E-1,1.6288097E-1,-1.1210407E0,3.4232987E-3,2.9999135E0,2.0503326E-1,-3.6628222E-1,3.629851E-1,-3.0236268E-1,-8.8275987E-1,3.1390528E-3,-2.0354304E-1,-1.782769E-1,6.1662936E-1,3.845834E-1,1.7362907E0,-5.7342086E-2,2.3299249E-1,-6.918252E-1,-2.5432518E0,-1.609949E-1,4.756047E-1,1.0835613E0,1.5533268E0,1.405624E-1,-5.0643902E-2,-1.2278099E-1,-3.2659972E-1,-1.9599761E-1,-5.519288E-2,1.0285881E-1,-2.8790224E-1,2.0951303E-2,-1.3447061E-1,-5.212664E-2,-1.93855E-1,-1.3236035E-1,2.960276E-2,4.532864E-2,2.2576633E-1,6.1831437E-2,2.4979915E-1,7.073498E-1,1.2596475E-1,-3.112392E-2,2.5324702E-1,-1.2517641E-1,7.733378E-2,-2.4566619E-1,1.2463563E-1,-1.5729395E0,3.5518572E-1,-9.301805E-2,2.377338E-1,5.1538604E-1,4.442408E-2,4.6247136E-2,-2.6016682E-1],"categories":[],"categories_nodes":[],"categories_segments":[],"categories_sizes":[],"default_left":[0,0,0,0,0,0,0,0,0,0,0,0,0,0,0,0,0,0,0,0,0,0,0,0,0,0,0,0,0,0,0,0,0,0,0,0,0,0,0,0,0,0,0,0,0,0,0,0,0,0,0,0,0,0,0,0,0,0,0,0,0,0,0,0,0,0,0,0,0,0,0,0,0,0,0,0,0],"id":12,"left_children":[1,3,5,7,9,11,13,-1,-1,15,17,19,21,23,25,27,29,31,-1,33,35,37,39,41,43,45,-1,47,49,51,53,55,57,59,61,63,65,67,69,71,-1,73,-1,-1,-1,75,-1,-1,-1,-1,-1,-1,-1,-1,-1,-1,-1,-1,-1,-1,-1,-1,-1,-1,-1,-1,-1,-1,-1,-1,-1,-1,-1,-1,-1,-1,-1],"loss_changes":[5.4418617E1,1.9156342E1,1.6873226E1,1.4103012E0,1.7954401E1,1.7467348E1,2.6744623E1,0E0,0E0,1.5677078E1,1.2103866E1,1.1147247E1,1.7127052E1,1.3367996E1,1.0455188E1,8.557131E0,1.3236676E1,1.5113091E0,0E0,1.4611309E1,9.611841E0,9.628458E0,1.3371517E1,2.4660545E1,4.1819745E-1,1.9481403E0,0E0,4.0883236E0,3.6284294E0,1.9493868E1,7.744972E0,3.02363E-1,5.956931E-1,1.207004E1,6.0182724E0,6.4012175E0,7.710724E0,2.5496845E0,4.596872E1,6.8670697E0,0E0,2.7858138E0,0E0,0E0,0E0,2.1909115E0,0E0,0E0,0E0,0E0,0E0,0E0,0E0,0E0,0E0,0E0,0E0,0E0,0E0,0E0,0E0,0E0,0E0,0E0,0E0,0E0,0E0,0E0,0E0,0E0,0E0,0E0,0E0,0E0,0E0,0E0,0E0],"parents":[2147483647,0,0,1,1,2,2,3,3,4,4,5,5,6,6,9,9,10,10,11,11,12,12,13,13,14,14,15,15,16,16,17,17,19,19,20,20,21,21,22,22,23,23,24,24,25,25,27,27,28,28,29,29,30,30,31,31,32,32,33,33,34,34,35,35,36,36,37,37,38,38,39,39,41,41,45,45],"right_children":[2,4,6,8,10,12,14,-1,-1,16,18,20,22,24,26,28,30,32,-1,34,36,38,40,42,44,46,-1,48,50,52,54,56,58,60,62,64,66,68,70,72,-1,74,-1,-1,-1,76,-1,-1,-1,-1,-1,-1,-1,-1,-1,-1,-1,-1,-1,-1,-1,-1,-1,-1,-1,-1,-1,-1,-1,-1,-1,-1,-1,-1,-1,-1,-1],"split_conditions":[5.1963514E-1,-1.6503823E0,1.9850464E0,-1.9138193E0,6.583529E0,1.3229104E0,9.63465E-1,7.08969E-1,2.4399914E-1,-1.6425093E0,4.437717E0,-9.2404664E-1,-4.2438683E-1,-8.966861E-3,1.1384144E0,-1.663848E0,-7.4701047E-1,9.63465E-1,8.026215E-1,-8.600712E-1,-6.7073923E-1,4.0787697E0,4.5011415E0,-3.5346147E-1,2.792748E-1,2.6688223E0,3.629851E-1,-2.1153908E0,-1.2349623E0,4.0911055E0,4.5011415E0,-9.517601E-1,-9.932198E-1,5.5677643E0,9.2714924E-1,2.1997457E0,-1.7213076E0,4.5011415E0,-6.472951E-1,4.4069324E0,4.756047E-1,3.840633E-1,1.5533268E0,1.405624E-1,-5.0643902E-2,6.7845635E0,-3.2659972E-1,-1.9599761E-1,-5.519288E-2,1.0285881E-1,-2.8790224E-1,2.0951303E-2,-1.3447061E-1,-5.212664E-2,-1.93855E-1,-1.3236035E-1,2.960276E-2,4.532864E-2,2.2576633E-1,6.1831437E-2,2.4979915E-1,7.073498E-1,1.2596475E-1,-3.112392E-2,2.5324702E-1,-1.2517641E-1,7.733378E-2,-2.4566619E-1,1.2463563E-1,-1.5729395E0,3.5518572E-1,-9.301805E-2,2.377338E-1,5.1538604E-1,4.442408E-2,4.6247136E-2,-2.6016682E-1],"split_indices":[2,3,1,3,31,4,0,0,0,64,38,4,3,3,2,64,0,0,0,3,1,36,25,3,0,1,0,0,3,24,20,2,2,40,2,2,3,25,3,57,0,62,0,0,0,23,0,0,0,0,0,0,0,0,0,0,0,0,0,0,0,0,0,0,0,0,0,0,0,0,0,0,0,0,0,0,0],"split_type":[0,0,0,0,0,0,0,0,0,0,0,0,0,0,0,0,0,0,0,0,0,0,0,0,0,0,0,0,0,0,0,0,0,0,0,0,0,0,0,0,0,0,0,0,0,0,0,0,0,0,0,0,0,0,0,0,0,0,0,0,0,0,0,0,0,0,0,0,0,0,0,0,0,0,0,0,0],"sum_hessian":[2.266866E3,1.3943875E3,8.724785E2,4.706932E0,1.3896805E3,8.473785E2,2.5100048E1,1.8035213E0,2.9034107E0,1.3746725E3,1.5008E1,7.802946E2,6.708382E1,8.695368E0,1.640468E1,1.342903E2,1.2403822E3,1.276537E1,2.24263E0,1.596383E2,6.206563E2,1.765546E1,4.9428356E1,6.2531137E0,2.4422538E0,1.0835093E1,5.5695887E0,1.00290054E2,3.4000248E1,6.4546686E2,5.949153E2,2.554458E0,1.0210912E1,1.5207285E2,7.5654583E0,1.4992331E2,4.70733E2,1.4704244E1,2.9512167E0,4.5588337E1,3.8400173E0,4.122838E0,2.1302762E0,1.2839521E0,1.1583016E0,8.978562E0,1.8565295E0,2.4156948E1,7.613311E1,1.8035213E0,3.2196728E1,5.631036E2,8.236332E1,5.5870935E2,3.6205948E1,1.0061843E0,1.5482737E0,2.7847943E0,7.426118E0,1.0979819E2,4.227466E1,4.6016703E0,2.9637878E0,1.4342546E2,6.4978533E0,1.6703564E1,4.5402945E2,1.3424237E1,1.2800058E0,1.4756083E0,1.4756083E0,4.000809E1,5.5802464E0,1.958352E0,2.164486E0,7.122033E0,1.8565295E0],"tree_param":{"num_deleted":"0","num_feature":"65","num_nodes":"77","size_leaf_vector":"1"}},{"base_weights":[9.15615E-3,-1.5846123E-1,9.2533045E-2,-1.4070939E-1,-9.7587687E-1,-6.7978956E-2,1.5540121E-1,3.445006E-1,-1.6207388E-1,-3.2937795E-1,-8.899341E-2,3.732168E-2,-1.9616783E-1,3.4047297E-1,8.3010636E-2,4.6808657E-1,-3.4379572E-1,-2.1177351E-1,4.3683324E-2,-5.7455856E-1,8.4150955E-2,-3.0207783E-1,3.2363385E-1,3.1308618E-1,1.2147994E0,9.558642E-2,-1.0045811E0,6.0793334E-1,-3.1748003E-1,-2.3487642E-1,2.523216E-1,-3.4264264E-1,1.00362174E-1,-2.6631104E-2,-4.495632E-1,1.514798E-6,3.165946E-1,-2.1883237E-1,-8.433044E-1,1.048311E0,-2.7822357E-1,3.468949E-1,-4.329458E-1,1.2599102E-1,-3.3627385E-1,-1.1652503E-1,-3.328812E-1,2.2802828E-1,-2.9646447E-1,-3.933056E-2,-1.2981798E-1,1.7073537E-1,4.5529664E-2,1.8183265E-2,2.7215478E-1,-1.0123232E-1,1.3417633E-1,1.3806276E-1,-1.5501309E-2,6.596897E-2,2.3293664E-1,-7.550813E-2,2.5942495E-1,7.678726E-2,-2.8999326E-1,3.4425342E-1,-2.0594936E-2,-2.3066223E-1,5.54458E-3,8.307055E-2,2.4466099E-1,3.5915256E-2,6.9978106E-1,-4.1303924E-1,-5.2421827E-2],"categories":[],"categories_nodes":[],"categories_segments":[],"categories_sizes":[],"default_left":[0,0,0,0,0,0,0,0,0,0,0,0,0,0,0,0,0,0,0,0,0,0,0,0,0,0,0,0,0,0,0,0,0,0,0,0,0,0,0,0,0,0,0,0,0,0,0,0,0,0,0,0,0,0,0,0,0,0,0,0,0,0,0,0,0,0,0,0,0,0,0,0,0,0,0],"id":13,"left_children":[1,3,5,7,9,11,13,15,17,-1,-1,19,21,23,25,27,-1,29,31,33,35,37,39,41,-1,43,45,47,-1,49,51,-1,53,55,-1,57,59,61,63,65,67,69,-1,71,73,-1,-1,-1,-1,-1,-1,-1,-1,-1,-1,-1,-1,-1,-1,-1,-1,-1,-1,-1,-1,-1,-1,-1,-1,-1,-1,-1,-1,-1,-1],"loss_changes":[3.1709032E1,1.0799692E1,1.5300021E1,7.715163E0,9.884548E-1,5.7727175E0,1.4561901E1,6.335396E0,7.2532864E0,0E0,0E0,6.791578E0,1.0710961E1,2.9801414E1,1.0821047E1,7.0002623E0,0E0,6.1787243E0,9.433298E0,8.495007E0,4.292939E0,7.0544014E0,1.47344475E1,1.8593742E1,0E0,1.0232933E1,1.5466881E-1,7.531255E0,0E0,1.1116581E1,7.911475E-1,0E0,4.2183766E0,1.8595748E0,0E0,3.8794746E0,2.4233198E0,5.2242255E0,3.1038408E0,1.7667274E0,2.7627745E0,9.607162E0,0E0,9.767824E0,8.38511E0,0E0,0E0,0E0,0E0,0E0,0E0,0E0,0E0,0E0,0E0,0E0,0E0,0E0,0E0,0E0,0E0,0E0,0E0,0E0,0E0,0E0,0E0,0E0,0E0,0E0,0E0,0E0,0E0,0E0,0E0],"parents":[2147483647,0,0,1,1,2,2,3,3,4,4,5,5,6,6,7,7,8,8,11,11,12,12,13,13,14,14,15,15,17,17,18,18,19,19,20,20,21,21,22,22,23,23,25,25,26,26,27,27,29,29,30,30,32,32,33,33,35,35,36,36,37,37,38,38,39,39,40,40,41,41,43,43,44,44],"right_children":[2,4,6,8,10,12,14,16,18,-1,-1,20,22,24,26,28,-1,30,32,34,36,38,40,42,-1,44,46,48,-1,50,52,-1,54,56,-1,58,60,62,64,66,68,70,-1,72,74,-1,-1,-1,-1,-1,-1,-1,-1,-1,-1,-1,-1,-1,-1,-1,-1,-1,-1,-1,-1,-1,-1,-1,-1,-1,-1,-1,-1,-1,-1],"split_conditions":[-9.415792E-1,-9.429968E-1,-5.9962654E-1,-1.1235082E0,9.9493885E-1,1.9943191E-1,-3.6230734E-1,4.5011415E0,4.261513E0,-3.2937795E-1,-8.899341E-2,-1.1741692E0,4.193665E0,2.532067E0,6.7845635E0,4.5011415E0,-3.4379572E-1,5.8542914E0,-9.917897E-1,-1.2754911E0,3.831027E0,3.831027E0,-7.4701047E-1,5.1926837E0,1.2147994E0,4.0911055E0,-1.164037E0,4.965168E0,-3.1748003E-1,1.9943191E-1,-1.1685281E0,-3.4264264E-1,4.1035447E0,-1.5322969E0,-4.495632E-1,-1.0120541E0,-1.4312006E0,5.1926837E0,3.840633E-1,4.922984E0,-4.049154E-1,1.1384144E0,-4.329458E-1,1.0481276E1,-6.045594E-1,-1.1652503E-1,-3.328812E-1,2.2802828E-1,-2.9646447E-1,-3.933056E-2,-1.2981798E-1,1.7073537E-1,4.5529664E-2,1.8183265E-2,2.7215478E-1,-1.0123232E-1,1.3417633E-1,1.3806276E-1,-1.5501309E-2,6.596897E-2,2.3293664E-1,-7.550813E-2,2.5942495E-1,7.678726E-2,-2.8999326E-1,3.4425342E-1,-2.0594936E-2,-2.3066223E-1,5.54458E-3,8.307055E-2,2.4466099E-1,3.5915256E-2,6.9978106E-1,-4.1303924E-1,-5.2421827E-2],"split_indices":[64,64,1,3,1,4,4,25,58,0,0,3,18,1,23,20,0,61,3,3,10,10,0,32,0,24,3,5,0,4,1,0,28,1,0,3,0,32,62,47,0,2,0,60,64,0,0,0,0,0,0,0,0,0,0,0,0,0,0,0,0,0,0,0,0,0,0,0,0,0,0,0,0,0,0],"split_type":[0,0,0,0,0,0,0,0,0,0,0,0,0,0,0,0,0,0,0,0,0,0,0,0,0,0,0,0,0,0,0,0,0,0,0,0,0,0,0,0,0,0,0,0,0,0,0,0,0,0,0,0,0,0,0,0,0,0,0,0,0,0,0,0,0,0,0,0,0,0,0,0,0,0,0],"sum_hessian":[2.266866E3,7.5272296E2,1.514143E3,7.378707E2,1.4852236E1,4.2611792E2,1.088025E3,3.0481403E1,7.0738934E2,1.2067442E1,2.7847943E0,2.3433362E2,1.9178429E2,3.0487833E2,7.831467E2,2.8780937E1,1.7004658E0,5.6974176E2,1.3764755E2,1.5858195E1,2.1847542E2,1.5967021E2,3.211408E1,3.0372003E2,1.1583016E0,7.7509644E2,8.050298E0,2.6916515E1,1.8644223E0,5.431951E2,2.654665E1,5.4054074E0,1.3224214E2,1.0600735E1,5.257461E0,1.6113956E2,5.733587E1,1.3960245E2,2.0067772E1,1.423381E1,1.7880266E1,2.9877097E2,4.9490557E0,7.247776E2,5.0318832E1,1.8565295E0,6.1937685E0,2.5052094E1,1.8644223E0,3.573984E2,1.8579672E2,5.2733965E0,2.1273252E1,1.27057274E2,5.1848707E0,6.575773E0,4.024962E0,1.5468373E1,1.4567119E2,4.8595535E1,8.740334E0,1.3623851E2,3.3639336E0,1.9160248E0,1.8151749E1,1.304766E1,1.1861509E0,6.1382713E0,1.1741995E1,2.613312E2,3.7439754E1,7.237741E2,1.0034708E0,5.7509375E0,4.4567894E1],"tree_param":{"num_deleted":"0","num_feature":"65","num_nodes":"75","size_leaf_vector":"1"}},{"base_weights":[6.345412E-3,-4.8005085E-2,1.5683733E-1,9.042791E-1,-6.294274E-2,1.6951661E-1,-7.1429205E-1,-7.244566E-2,1.7743642E0,-5.807944E-2,-2.0645287E0,-1.50631E-1,2.0535882E-1,-2.6041454E-1,2.3670174E-2,6.4326954E-1,-6.9489795E-1,3.7921877E0,4.2872834E-1,-6.2079325E-2,1.7618263E0,-1.2870445E0,2.9851162E-1,-5.1024787E-2,-1.269127E0,1.6418028E-1,4.9675736E-1,6.238211E-3,7.6997274E-1,-1.08962655E-1,-2.4414541E-1,8.0701925E-2,1.5531601E0,-2.6118693E-1,6.828874E-1,-2.2951727E-1,-2.799811E-2,-3.4497425E-1,1.1736931E0,-1.12573914E-1,4.3159166E-1,-1.0704751E-1,-1.5042374E0,3.588731E-1,8.024796E-2,3.7283435E-1,3.9153478E-1,2.5592887E-1,6.834965E-2,2.3573558E-1,-3.2725376E-1,-8.474502E-2,1.00328945E-1,-1.0945502E-2,1.8703683E-1,1.5226452E-1,-5.5715643E-2,-1.4328519E-1,-5.445884E-1,1.3423227E-1,-1.1846418E-1,-2.8472367E-1,3.874282E-2,5.374062E-2,1.8593165E-1],"categories":[],"categories_nodes":[],"categories_segments":[],"categories_sizes":[],"default_left":[0,0,0,0,0,0,0,0,0,0,0,0,0,0,0,0,0,0,0,0,0,0,0,0,0,0,0,0,0,0,0,0,0,0,0,0,0,0,0,0,0,0,0,0,0,0,0,0,0,0,0,0,0,0,0,0,0,0,0,0,0,0,0,0,0],"id":14,"left_children":[1,3,5,7,9,11,13,15,17,19,21,23,25,-1,-1,27,29,31,33,35,37,-1,-1,39,41,43,45,-1,47,-1,-1,-1,-1,49,-1,51,53,-1,-1,55,-1,-1,57,59,61,-1,63,-1,-1,-1,-1,-1,-1,-1,-1,-1,-1,-1,-1,-1,-1,-1,-1,-1,-1],"loss_changes":[1.8557108E1,2.3768425E1,6.769949E0,2.2061487E1,1.586475E1,6.8485203E0,1.1451006E0,6.2919044E0,3.5542248E1,1.204137E1,3.1174408E1,6.663953E0,6.3349743E0,0E0,0E0,5.062678E-1,1.6307831E-4,2.4708557E1,1.2499375E1,9.332322E0,2.7220657E1,0E0,0E0,5.342256E0,5.1357794E-1,7.651867E0,4.672014E0,0E0,5.233693E-2,0E0,0E0,0E0,0E0,7.5432973E0,0E0,8.357458E0,7.5468273E0,0E0,0E0,2.5973945E0,0E0,0E0,2.7699757E-1,9.609671E0,1.6717089E1,0E0,2.7517052E0,0E0,0E0,0E0,0E0,0E0,0E0,0E0,0E0,0E0,0E0,0E0,0E0,0E0,0E0,0E0,0E0,0E0,0E0],"parents":[2147483647,0,0,1,1,2,2,3,3,4,4,5,5,6,6,7,7,8,8,9,9,10,10,11,11,12,12,15,15,16,16,17,17,18,18,19,19,20,20,23,23,24,24,25,25,26,26,28,28,33,33,35,35,36,36,39,39,42,42,43,43,44,44,46,46],"right_children":[2,4,6,8,10,12,14,16,18,20,22,24,26,-1,-1,28,30,32,34,36,38,-1,-1,40,42,44,46,-1,48,-1,-1,-1,-1,50,-1,52,54,-1,-1,56,-1,-1,58,60,62,-1,64,-1,-1,-1,-1,-1,-1,-1,-1,-1,-1,-1,-1,-1,-1,-1,-1,-1,-1],"split_conditions":[6.816438E-1,-1.4072096E0,1.0954423E0,2.1816945E-1,6.78025E-1,-1.164037E0,8.445082E-1,9.63465E-1,7.07753E-1,2.6688223E0,-6.472951E-1,3.8207316E0,9.9493885E-1,-2.6041454E-1,2.3670174E-2,-1.9138193E0,-1.0700643E0,9.63465E-1,4.3325167E0,-1.0016868E0,-5.763697E-1,-1.2870445E0,2.9851162E-1,4.965168E0,1.0626441E0,8.847427E-1,-9.2404664E-1,6.238211E-3,-4.4919583E-1,-1.08962655E-1,-2.4414541E-1,8.0701925E-2,1.5531601E0,9.63465E-1,6.828874E-1,4.437717E0,6.583529E0,-3.4497425E-1,1.1736931E0,3.840633E-1,4.3159166E-1,-1.0704751E-1,2.792748E-1,4.0911055E0,9.2714924E-1,3.7283435E-1,1.149965E0,2.5592887E-1,6.834965E-2,2.3573558E-1,-3.2725376E-1,-8.474502E-2,1.00328945E-1,-1.0945502E-2,1.8703683E-1,1.5226452E-1,-5.5715643E-2,-1.4328519E-1,-5.445884E-1,1.3423227E-1,-1.1846418E-1,-2.8472367E-1,3.874282E-2,5.374062E-2,1.8593165E-1],"split_indices":[64,3,3,1,64,3,1,0,1,1,3,26,1,0,0,3,1,0,19,1,3,0,0,5,64,64,4,0,1,0,0,0,0,0,0,38,31,0,0,62,0,0,0,24,2,0,64,0,0,0,0,0,0,0,0,0,0,0,0,0,0,0,0,0,0],"split_type":[0,0,0,0,0,0,0,0,0,0,0,0,0,0,0,0,0,0,0,0,0,0,0,0,0,0,0,0,0,0,0,0,0,0,0,0,0,0,0,0,0,0,0,0,0,0,0,0,0,0,0,0,0,0,0,0,0,0,0,0,0,0,0,0,0],"sum_hessian":[2.266866E3,1.6659025E3,6.0096344E2,2.4808512E1,1.641094E3,5.931358E2,7.8276815E0,1.2119903E1,1.2688608E1,1.6381427E3,2.9512167E0,5.9396385E1,5.337394E2,6.4776487E0,1.3500326E0,5.62205E0,6.4978533E0,4.3490033E0,8.339605E0,1.635514E3,2.6287305E0,1.4756083E0,1.4756083E0,5.549956E1,3.8968222E0,4.6902347E2,6.471592E1,1.1476953E0,4.4743543E0,2.7847943E0,3.713059E0,1.564209E0,2.7847943E0,6.697327E0,1.6422782E0,2.756307E2,1.3598833E3,1.3143653E0,1.3143653E0,5.4185196E1,1.3143653E0,1.3143653E0,2.582457E0,1.4030063E2,3.2872284E2,6.6631923E0,5.805273E1,3.382208E0,1.0921464E0,2.9842682E0,3.713059E0,2.5242221E2,2.3208502E1,1.3433269E3,1.6556349E1,5.090342E0,4.9094856E1,1.1900973E0,1.3923597E0,1.2591206E2,1.4388567E1,1.4071918E1,3.146509E2,3.0994179E1,2.705855E1],"tree_param":{"num_deleted":"0","num_feature":"65","num_nodes":"65","size_leaf_vector":"1"}},{"base_weights":[5.375685E-3,-1.0335209E-1,5.980969E-2,-1.1242207E-1,8.785479E-1,3.8741925E-1,3.356734E-2,-4.9630247E-2,-2.1338308E-1,4.0344706E-1,8.852968E-2,6.6109735E-1,1.5216292E-1,2.9502528E-2,1.5905849E0,-2.2284625E-1,2.1855958E-2,-1.4288056E-1,-4.2938036E-1,4.8732838E-1,2.196411E0,2.2924541E-1,-3.254189E-1,1.4982073E-1,-2.4968328E-2,8.1157875E-1,-6.340766E-2,-1.5227911E-1,-6.348483E-1,-2.29357E-2,4.257329E-1,-1.9354403E-1,2.5919524E-1,-7.0454615E-1,-8.3882496E-2,6.39366E-2,6.886124E-1,1.8456115E-1,8.40409E-1,1.4310989E-1,1.2223406E0,1.2341165E-1,8.147217E-1,-1.3941945E-1,7.0969306E-2,-9.13682E-2,-1.2312243E-2,-1.3170211E-1,-2.6799753E-1,-5.2728724E-2,5.528702E-2,3.8588247E-1,1.5381672E-2,-2.3042281E-1,-3.199695E-2,1.6659804E-1,4.6320833E-2,-2.3184776E-1,4.0146038E-2,5.7191047E-4,-1.0750001E-1,4.2048074E-2,-1.4893824E-1,2.1926108E-1,3.3504725E-2,6.575609E-2,-2.2514121E-1,6.684252E-2,4.6763343E-1,5.081717E-2,-3.975953E-2,8.4344375E-1,3.9805837E-2,-2.79448E-2,-2.6239535E-1,2.8778535E-1,9.648028E-3],"categories":[],"categories_nodes":[],"categories_segments":[],"categories_sizes":[],"default_left":[0,0,0,0,0,0,0,0,0,0,0,0,0,0,0,0,0,0,0,0,0,0,0,0,0,0,0,0,0,0,0,0,0,0,0,0,0,0,0,0,0,0,0,0,0,0,0,0,0,0,0,0,0,0,0,0,0,0,0,0,0,0,0,0,0,0,0,0,0,0,0,0,0,0,0,0,0],"id":15,"left_children":[1,3,5,7,9,11,13,15,17,-1,-1,19,21,23,25,27,29,31,33,35,37,39,-1,41,43,-1,-1,45,47,49,51,53,55,57,59,61,63,-1,-1,65,67,69,71,73,75,-1,-1,-1,-1,-1,-1,-1,-1,-1,-1,-1,-1,-1,-1,-1,-1,-1,-1,-1,-1,-1,-1,-1,-1,-1,-1,-1,-1,-1,-1,-1,-1],"loss_changes":[1.342852E1,6.8402147E0,1.2985121E1,4.7499475E0,1.5188317E0,7.1124134E0,8.81912E0,5.753907E0,4.319003E0,0E0,0E0,1.2665911E1,6.1163387E0,9.167545E0,7.8603954E0,3.8493237E0,5.9716406E0,4.498261E0,6.6228924E0,4.0072126E0,3.0113163E0,4.8512836E0,0E0,7.553357E0,1.0587639E1,0E0,0E0,1.9726782E0,5.9652185E-1,9.45758E0,1.055249E1,9.627268E0,6.858072E-1,2.335331E0,7.61078E-1,7.709716E-1,7.013941E-1,0E0,0E0,3.917119E0,1.1851177E0,4.9698668E0,2.2060822E1,1.487429E1,1.8058886E1,0E0,0E0,0E0,0E0,0E0,0E0,0E0,0E0,0E0,0E0,0E0,0E0,0E0,0E0,0E0,0E0,0E0,0E0,0E0,0E0,0E0,0E0,0E0,0E0,0E0,0E0,0E0,0E0,0E0,0E0,0E0,0E0],"parents":[2147483647,0,0,1,1,2,2,3,3,4,4,5,5,6,6,7,7,8,8,11,11,12,12,13,13,14,14,15,15,16,16,17,17,18,18,19,19,20,20,21,21,23,23,24,24,27,27,28,28,29,29,30,30,31,31,32,32,33,33,34,34,35,35,36,36,39,39,40,40,41,41,42,42,43,43,44,44],"right_children":[2,4,6,8,10,12,14,16,18,-1,-1,20,22,24,26,28,30,32,34,36,38,40,-1,42,44,-1,-1,46,48,50,52,54,56,58,60,62,64,-1,-1,66,68,70,72,74,76,-1,-1,-1,-1,-1,-1,-1,-1,-1,-1,-1,-1,-1,-1,-1,-1,-1,-1,-1,-1,-1,-1,-1,-1,-1,-1,-1,-1,-1,-1,-1,-1],"split_conditions":[-9.328718E-1,1.2417729E1,3.840633E-1,-3.2306486E-1,2.1429721E-2,6.213699E-1,2.6688223E0,-1.175069E0,-9.932198E-1,4.0344706E-1,8.852968E-2,-4.049154E-1,4.5011415E0,-1.4312006E0,2.8055775E0,6.174946E-1,4.154374E0,5.8542914E0,-9.517601E-1,-5.763697E-1,-4.4919583E-1,6.583529E0,-3.254189E-1,1.0140846E0,-6.9760025E-2,8.1157875E-1,-6.340766E-2,-2.1153908E0,-2.1153908E0,1.1150041E-1,-1.7732958E0,7.209069E-2,-1.1685281E0,1.1863961E0,1.0447813E0,3.831027E0,4.3325167E0,1.8456115E-1,8.40409E-1,4.1035447E0,-4.2279446E-1,4.0911055E0,-5.7097286E-1,-1.102888E-1,-4.9495637E-2,-9.13682E-2,-1.2312243E-2,-1.3170211E-1,-2.6799753E-1,-5.2728724E-2,5.528702E-2,3.8588247E-1,1.5381672E-2,-2.3042281E-1,-3.199695E-2,1.6659804E-1,4.6320833E-2,-2.3184776E-1,4.0146038E-2,5.7191047E-4,-1.0750001E-1,4.2048074E-2,-1.4893824E-1,2.1926108E-1,3.3504725E-2,6.575609E-2,-2.2514121E-1,6.684252E-2,4.6763343E-1,5.081717E-2,-3.975953E-2,8.4344375E-1,3.9805837E-2,-2.79448E-2,-2.6239535E-1,2.8778535E-1,9.648028E-3],"split_indices":[2,11,62,3,3,0,1,64,2,0,0,0,20,0,1,1,6,61,2,3,1,31,0,1,3,0,0,0,0,1,0,3,1,1,3,10,19,0,0,28,2,24,2,3,3,0,0,0,0,0,0,0,0,0,0,0,0,0,0,0,0,0,0,0,0,0,0,0,0,0,0,0,0,0,0,0,0],"split_type":[0,0,0,0,0,0,0,0,0,0,0,0,0,0,0,0,0,0,0,0,0,0,0,0,0,0,0,0,0,0,0,0,0,0,0,0,0,0,0,0,0,0,0,0,0,0,0,0,0,0,0,0,0,0,0,0,0,0,0,0,0,0,0,0,0,0,0,0,0,0,0,0,0,0,0,0,0],"sum_hessian":[2.266866E3,7.5597156E2,1.5108943E3,7.499299E2,6.041726E0,1.1103017E2,1.3998641E3,4.6328522E2,2.8664462E2,2.632752E0,3.4089742E0,5.048727E1,6.0542892E1,1.3972355E3,2.6287305E0,1.3472351E2,3.285617E2,2.173591E2,6.928554E1,4.6537502E1,3.9497676E0,5.77581E1,2.7847943E0,4.3488568E2,9.6234973E2,1.3143653E0,1.3143653E0,1.1619193E2,1.8531586E1,2.9660965E2,3.195205E1,1.9349628E2,2.386282E1,3.798991E1,3.1295626E1,1.5419962E1,3.1117542E1,1.6511045E0,2.2986631E0,5.4201103E1,3.5569954E0,4.1941272E2,1.547297E1,4.3862646E2,5.2372327E2,4.8313896E1,6.787804E1,1.2078474E1,6.453112E0,1.7079906E2,1.2581059E2,8.949757E0,2.3002293E1,2.43888E1,1.6910748E2,5.1134615E0,1.8749357E1,3.520117E1,2.7887406E0,2.4599329E1,6.6962957E0,1.423381E1,1.1861509E0,2.874524E1,2.3723018E0,5.0644108E1,3.5569954E0,1.3143653E0,2.24263E0,3.558282E2,6.358453E1,3.1445777E0,1.2328392E1,4.1371686E2,2.4909624E1,2.0930107E1,5.0279318E2],"tree_param":{"num_deleted":"0","num_feature":"65","num_nodes":"77","size_leaf_vector":"1"}},{"base_weights":[5.047077E-3,-1.2463347E-2,2.2538853E-1,-3.7044324E-3,-4.9473342E-1,1.7819148E-1,7.3884654E-1,-5.014358E-2,6.198828E-2,-3.6017966E-1,-3.4165233E-1,3.7259972E-1,-6.732317E-2,4.0172428E-1,2.4592353E-1,-7.928036E-2,1.43768E-1,7.431684E-2,-5.298048E-1,-9.250563E-3,-4.9513918E-1,1.306557E-1,6.8014765E-1,2.3445097E-1,-1.1386205E-1,1.8607992E-1,-2.3417506E-2,-2.1863157E-2,-1.6647364E-1,3.507469E-1,7.9551905E-2,5.0553903E-2,3.8467017E-1,-2.1320327E-1,-1.0308697E-1,1.924487E-1,-2.1709798E-1,-7.4846345E-1,3.942223E-2,-1.2462122E0,2.5935873E-1,1.3175493E0,5.752755E-1,1.8758347E-2,-4.371094E-1,-1.6782483E-3,-1.3909967E-1,-2.4806414E-2,-1.4987992E-1,1.3502945E-1,-4.1814327E-2,4.0760223E-2,-1.1181585E-1,4.7772107E-1,1.3579487E-2,3.6855064E-2,2.3488349E-1,-7.8350216E-2,3.686437E-2,1.430205E-1,-1.7017093E-1,-2.570085E-1,-2.696379E-2,-2.5204375E-2,5.0944757E-2,-5.231779E-1,-5.978366E-2,1.1659034E-1,-4.275935E-2,6.097608E-1,-7.6051936E-2,7.2038E-3,2.1488981E-1,-3.7158635E-3,1.5848668E-1,-1.477167E-1,4.802976E-2],"categories":[],"categories_nodes":[],"categories_segments":[],"categories_sizes":[],"default_left":[0,0,0,0,0,0,0,0,0,0,0,0,0,0,0,0,0,0,0,0,0,0,0,0,0,0,0,0,0,0,0,0,0,0,0,0,0,0,0,0,0,0,0,0,0,0,0,0,0,0,0,0,0,0,0,0,0,0,0,0,0,0,0,0,0,0,0,0,0,0,0,0,0,0,0,0,0],"id":16,"left_children":[1,3,5,7,9,11,13,15,17,-1,19,21,23,25,-1,27,29,31,33,35,37,39,41,-1,43,-1,-1,45,47,49,51,53,55,-1,57,59,-1,61,63,65,67,69,71,73,75,-1,-1,-1,-1,-1,-1,-1,-1,-1,-1,-1,-1,-1,-1,-1,-1,-1,-1,-1,-1,-1,-1,-1,-1,-1,-1,-1,-1,-1,-1,-1,-1],"loss_changes":[8.752852E0,8.876745E0,3.9156246E0,6.303962E0,3.6402512E0,7.3883586E0,4.5454025E-2,6.8509836E0,6.283367E0,0E0,1.6383567E0,6.328823E0,2.8155365E0,5.328744E-1,0E0,5.268419E0,2.0786483E0,6.1697774E0,1.2842078E0,1.7518989E0,3.0101633E0,9.096838E0,1.764658E0,0E0,2.8506825E0,0E0,0E0,4.5694866E0,1.1624586E1,1.8759079E0,3.164453E0,6.294275E0,6.112012E0,0E0,2.6090103E-1,2.325856E0,0E0,9.9104595E-1,1.4346454E-1,1.9476213E0,2.4508076E0,5.6338086E0,2.640071E0,7.6786673E-1,7.1700764E-1,0E0,0E0,0E0,0E0,0E0,0E0,0E0,0E0,0E0,0E0,0E0,0E0,0E0,0E0,0E0,0E0,0E0,0E0,0E0,0E0,0E0,0E0,0E0,0E0,0E0,0E0,0E0,0E0,0E0,0E0,0E0,0E0],"parents":[2147483647,0,0,1,1,2,2,3,3,4,4,5,5,6,6,7,7,8,8,10,10,11,11,12,12,13,13,15,15,16,16,17,17,18,18,19,19,20,20,21,21,22,22,24,24,27,27,28,28,29,29,30,30,31,31,32,32,34,34,35,35,37,37,38,38,39,39,40,40,41,41,42,42,43,43,44,44],"right_children":[2,4,6,8,10,12,14,16,18,-1,20,22,24,26,-1,28,30,32,34,36,38,40,42,-1,44,-1,-1,46,48,50,52,54,56,-1,58,60,-1,62,64,66,68,70,72,74,76,-1,-1,-1,-1,-1,-1,-1,-1,-1,-1,-1,-1,-1,-1,-1,-1,-1,-1,-1,-1,-1,-1,-1,-1,-1,-1,-1,-1,-1,-1,-1,-1],"split_conditions":[1.149965E0,1.1189686E0,6.496258E-1,-3.3420855E-1,-9.442496E-1,1.8354483E-1,-4.3825543E-1,4.802293E0,7.587229E0,-3.6017966E-1,-1.4314355E-2,1.4979187E-1,-1.5569128E0,-6.8988496E-1,2.4592353E-1,1.9943191E-1,-2.1153908E0,3.8729835E0,-3.3319706E-1,-7.4701047E-1,1.0441707E0,-3.6230734E-1,-3.6230734E-1,2.3445097E-1,4.165853E-1,1.8607992E-1,-2.3417506E-2,5.8542914E0,-6.009876E-1,7.3783916E-1,3.831027E0,-1.9138193E0,-1.3465892E-1,-2.1320327E-1,-1.8936099E-1,4.0911055E0,-2.1709798E-1,-7.4701047E-1,1.1098132E0,-6.1330205E-1,5.5383635E0,8.2262737E-1,2.646662E-1,4.154374E0,1.3286215E0,-1.6782483E-3,-1.3909967E-1,-2.4806414E-2,-1.4987992E-1,1.3502945E-1,-4.1814327E-2,4.0760223E-2,-1.1181585E-1,4.7772107E-1,1.3579487E-2,3.6855064E-2,2.3488349E-1,-7.8350216E-2,3.686437E-2,1.430205E-1,-1.7017093E-1,-2.570085E-1,-2.696379E-2,-2.5204375E-2,5.0944757E-2,-5.231779E-1,-5.978366E-2,1.1659034E-1,-4.275935E-2,6.097608E-1,-7.6051936E-2,7.2038E-3,2.1488981E-1,-3.7158635E-3,1.5848668E-1,-1.477167E-1,4.802976E-2],"split_indices":[64,64,3,2,1,3,1,34,53,0,1,1,1,1,0,4,0,22,3,0,1,4,4,0,3,0,0,61,64,1,10,3,1,0,1,24,0,0,1,1,33,1,1,6,1,0,0,0,0,0,0,0,0,0,0,0,0,0,0,0,0,0,0,0,0,0,0,0,0,0,0,0,0,0,0,0,0],"split_type":[0,0,0,0,0,0,0,0,0,0,0,0,0,0,0,0,0,0,0,0,0,0,0,0,0,0,0,0,0,0,0,0,0,0,0,0,0,0,0,0,0,0,0,0,0,0,0,0,0,0,0,0,0,0,0,0,0,0,0,0,0,0,0,0,0,0,0,0,0,0,0,0,0,0,0,0,0],"sum_hessian":[2.266866E3,2.1008555E3,1.6601048E2,2.0643704E3,3.6485092E1,1.5326904E2,1.2741444E1,1.2095548E3,8.548155E2,5.2828217E0,3.120227E1,8.524837E1,6.802067E1,3.620362E0,9.121082E0,1.0520647E3,1.5749008E2,8.3822754E2,1.6587994E1,1.0191381E1,2.101089E1,4.8510563E1,3.6737804E1,2.7146926E0,6.530597E1,2.28619E0,1.3341721E0,6.350994E2,4.1696533E2,3.623542E1,1.21254654E2,7.7969147E2,5.8536026E1,1.1182587E1,5.4054074E0,8.517307E0,1.6740739E0,1.3983892E1,7.026997E0,3.4046535E0,4.510591E1,3.5567708E0,3.3181034E1,4.6975185E1,1.8330788E1,6.135197E2,2.1579678E1,3.3416632E2,8.279903E1,3.0196186E1,6.039237E0,1.08450325E2,1.2804327E1,1.6395648E0,7.7805194E2,3.6107765E1,2.2428259E1,3.0888042E0,2.3166032E0,6.468972E0,2.0483353E0,1.1751794E1,2.2320986E0,3.792511E0,3.234486E0,1.8563797E0,1.5482737E0,3.4152935E1,1.0952976E1,2.2424803E0,1.3142904E0,6.9976153E0,2.618342E1,4.518876E1,1.7864279E0,1.6938427E1,1.3923597E0],"tree_param":{"num_deleted":"0","num_feature":"65","num_nodes":"77","size_leaf_vector":"1"}},{"base_weights":[3.6630095E-3,-9.778843E-3,2.246297E-1,-4.103378E-2,5.7099726E-2,1.6239922E-1,1.4445357E0,6.429355E-1,-5.2136138E-2,6.884264E-2,-1.047685E0,2.0032719E-1,-8.83196E-1,8.665519E-1,2.6333677E-3,