{"learner":{"attributes":{},"feature_names":["year","avg_grid_pos_track","track_avg_lap_time","temperature","years_since_reg_change","driver_ALB","driver_ALO","driver_ANT","driver_BEA","driver_BOR","driver_BOT","driver_COL","driver_DOO","driver_GAS","driver_HAD","driver_HAM","driver_HUL","driver_LAW","driver_LEC","driver_MAG","driver_NOR","driver_OCO","driver_PER","driver_PIA","driver_RIC","driver_RUS","driver_SAI","driver_SAR","driver_STR","driver_TSU","driver_VER","driver_ZHO","track_Abu Dhabi","track_Austin","track_Australia","track_Austria","track_Bahrain","track_Baku","track_Brazil","track_Canada","track_China","track_France","track_Hockenheim","track_Hungary","track_Imola","track_Jeddah","track_Las Vegas","track_Mexico","track_Miami","track_Monaco","track_Monza","track_Nürburgring","track_Portugal","track_Qatar","track_Russia","track_Silverstone","track_Singapore","track_Spa-Francorchamps","track_Spain","track_Suzuka","track_Turkey","track_Zandvoort","rain_Dry","rain_Wet","year_x_avg_time"],"feature_types":["float","float","float","float","float","float","float","float","float","float","float","float","float","float","float","float","float","float","float","float","float","float","float","float","float","float","float","float","float","float","float","float","float","float","float","float","float","float","float","float","float","float","float","float","float","float","float","float","float","float","float","float","float","float","float","float","float","float","float","float","float","float","float","float","float"],"gradient_booster":{"model":{"gbtree_model_param":{"num_parallel_tree":"1","num_trees":"50"},"iteration_indptr":[0,1,2,3,4,5,6,7,8,9,10,11,12,13,14,15,16,17,18,19,20,21,22,23,24,25,26,27,28,29,30,31,32,33,34,35,36,37,38,39,40,41,42,43,44,45,46,47,48,49,50],"tree_info":[0,0,0,0,0,0,0,0,0,0,0,0,0,0,0,0,0,0,0,0,0,0,0,0,0,0,0,0,0,0,0,0,0,0,0,0,0,0,0,0,0,0,0,0,0,0,0,0,0,0],"trees":[{"base_weights":[-2.7369663E-6,-8.373936E0,9.390934E0,-1.1508065E1,-2.7276094E0,3.833165E0,1.405526E1,-1.6319717E1,-9.250533E0,1.0132186E1,-4.908501E0,6.514194E0,2.3125095E0,1.2902974E1,2.3318354E1,-1.7824291E1,-4.422962E0,-1.080386E1,-4.3162465E0,-1.4197196E0,1.7662222E1,-1.154318E0,-6.883806E0,6.794122E0,-4.080022E0,-2.493822E0,3.2105422E0,1.7260267E1,9.808943E0,5.213695E0,7.679275E0,-4.7293468E0,-5.998346E0,-8.867412E0,-1.181317E1,4.5707282E-1,-8.731485E0,-6.3362503E-1,-6.172539E-1,5.8317423E0,2.1775196E0,7.804459E-1,-1.5273117E0,-5.977245E0,-8.328793E0,1.094657E1,6.0924687E0,-1.034685E1,1.2126559E0,-1.1684834E0,-1.6766714E0,4.147413E0,2.1548054E0,1.9728794E1,3.8787842E0,8.500488E0,4.9642076E0,-2.4561672E0,-3.6128623E0,-3.613424E0,-2.4550378E0,4.565896E-1,-5.7625926E-1,-1.9059346E0,-3.7548926E0,-2.2783485E-1,-1.1586308E-1,3.1365238E-2,4.2541595E0,-2.1270914E0,-7.623357E-1,-2.74642E0,-1.5574517E0,3.5283606E0,-1.1912971E-1,2.2039418E0,8.960473E-1,-5.019058E0,4.6918592E-1,-6.0023284E-1,-1.1656033E-1,9.065011E-1,1.5125759E0,5.090397E-1,7.4264604E-1,6.658897E0,3.4308789E0,4.414155E0,2.2688682E0],"categories":[],"categories_nodes":[],"categories_segments":[],"categories_sizes":[],"default_left":[0,0,0,0,0,0,0,0,0,0,0,0,0,0,0,0,0,0,0,0,0,0,0,0,0,0,0,0,0,0,0,0,0,0,0,0,0,0,0,0,0,0,0,0,0,0,0,0,0,0,0,0,0,0,0,0,0,0,0,0,0,0,0,0,0,0,0,0,0,0,0,0,0,0,0,0,0,0,0,0,0,0,0,0,0,0,0,0,0],"id":0,"left_children":[1,3,5,7,9,11,13,15,17,19,21,23,25,27,29,31,-1,33,35,37,39,41,43,45,47,49,51,53,55,-1,-1,-1,-1,57,59,61,63,-1,65,-1,-1,67,-1,69,71,73,75,77,-1,-1,79,81,83,85,-1,87,-1,-1,-1,-1,-1,-1,-1,-1,-1,-1,-1,-1,-1,-1,-1,-1,-1,-1,-1,-1,-1,-1,-1,-1,-1,-1,-1,-1,-1,-1,-1,-1,-1],"loss_changes":[1.7233053E5,2.046861E4,2.6724273E4,7.9375E3,1.1683309E4,1.9121831E3,5.6898438E3,2.9816016E2,3.855707E3,5.285396E3,2.627083E3,5.334614E2,1.3166337E3,6.5903906E3,3.789414E2,2.043164E2,0E0,6.5078125E2,2.6082375E3,1.2469135E1,5.3706445E2,9.461993E2,2.5494922E2,4.1847705E2,2.9707947E2,4.876169E1,2.4416455E2,1.9567266E3,2.464918E3,0E0,0E0,0E0,0E0,1.9614941E2,1.1250781E2,1.5568568E2,4.9876855E2,0E0,1.3032484E-1,0E0,0E0,7.575886E2,0E0,5.422378E2,1.78271E2,2.1550317E2,5.416089E2,2.6274512E2,0E0,0E0,1.26905365E1,1.2020166E2,1.3776306E1,2.403629E3,0E0,1.3423535E3,0E0,0E0,0E0,0E0,0E0,0E0,0E0,0E0,0E0,0E0,0E0,0E0,0E0,0E0,0E0,0E0,0E0,0E0,0E0,0E0,0E0,0E0,0E0,0E0,0E0,0E0,0E0,0E0,0E0,0E0,0E0,0E0,0E0],"parents":[2147483647,0,0,1,1,2,2,3,3,4,4,5,5,6,6,7,7,8,8,9,9,10,10,11,11,12,12,13,13,14,14,15,15,17,17,18,18,19,19,20,20,21,21,22,22,23,23,24,24,25,25,26,26,27,27,28,28,33,33,34,34,35,35,36,36,38,38,41,41,43,43,44,44,45,45,46,46,47,47,50,50,51,51,52,52,53,53,55,55],"right_children":[2,4,6,8,10,12,14,16,18,20,22,24,26,28,30,32,-1,34,36,38,40,42,44,46,48,50,52,54,56,-1,-1,-1,-1,58,60,62,64,-1,66,-1,-1,68,-1,70,72,74,76,78,-1,-1,80,82,84,86,-1,88,-1,-1,-1,-1,-1,-1,-1,-1,-1,-1,-1,-1,-1,-1,-1,-1,-1,-1,-1,-1,-1,-1,-1,-1,-1,-1,-1,-1,-1,-1,-1,-1,-1],"split_conditions":[1.03035904E-1,-6.278824E-1,8.474021E-1,-1.18984E0,-2.0878196E0,7.1929246E-1,4.599901E0,-1.2180719E0,4.4270296E0,-5.790156E-1,-1.3860415E0,6.4779794E-1,2.258658E-1,-1.3860415E0,7.1929246E-1,-1.3860415E0,-4.422962E0,-3.402725E-1,-1.3860415E0,2.763911E-1,7.422997E-1,-4.5665926E-1,1.0701815E0,1.5128157E-1,1.751446E-2,-1.1359897E0,-8.24864E-2,5.780291E0,1.604932E0,5.213695E0,7.679275E0,-4.7293468E0,-5.998346E0,-8.086877E-1,4.655579E0,-1.7369306E0,7.1929246E-1,-6.3362503E-1,2.8184032E-1,5.8317423E0,2.1775196E0,7.722704E-1,-1.5273117E0,4.655579E0,-3.6782777E-1,1.751446E-2,-5.325266E-1,-6.0412395E-1,1.2126559E0,-1.1684834E0,1.5142918E-1,1.0474058E-1,5.1669896E-1,1.0808984E0,3.8787842E0,8.550002E-1,4.9642076E0,-2.4561672E0,-3.6128623E0,-3.613424E0,-2.4550378E0,4.565896E-1,-5.7625926E-1,-1.9059346E0,-3.7548926E0,-2.2783485E-1,-1.1586308E-1,3.1365238E-2,4.2541595E0,-2.1270914E0,-7.623357E-1,-2.74642E0,-1.5574517E0,3.5283606E0,-1.1912971E-1,2.2039418E0,8.960473E-1,-5.019058E0,4.6918592E-1,-6.0023284E-1,-1.1656033E-1,9.065011E-1,1.5125759E0,5.090397E-1,7.4264604E-1,6.658897E0,3.4308789E0,4.414155E0,2.2688682E0],"split_indices":[2,2,2,64,0,0,57,2,58,2,0,64,2,0,0,0,0,4,0,1,1,2,0,64,0,3,3,54,2,0,0,0,0,3,34,0,0,0,1,0,0,1,0,34,2,0,3,3,0,0,2,1,2,64,0,64,0,0,0,0,0,0,0,0,0,0,0,0,0,0,0,0,0,0,0,0,0,0,0,0,0,0,0,0,0,0,0,0,0],"split_type":[0,0,0,0,0,0,0,0,0,0,0,0,0,0,0,0,0,0,0,0,0,0,0,0,0,0,0,0,0,0,0,0,0,0,0,0,0,0,0,0,0,0,0,0,0,0,0,0,0,0,0,0,0,0,0,0,0,0,0,0,0,0,0,0,0,0,0,0,0,0,0,0,0,0,0,0,0,0,0,0,0,0,0,0,0,0,0,0,0],"sum_hessian":[2.1894111E3,1.1574325E3,1.0319785E3,7.436265E2,4.1380597E2,4.717214E2,5.6025714E2,2.3548666E2,5.0813983E2,5.9472996E1,3.5433298E2,1.695349E2,3.0218652E2,5.0040237E2,5.9854736E1,1.15219124E2,1.2026754E2,3.855714E2,1.2256843E2,2.3789198E1,3.5683796E1,1.2270649E2,2.316265E2,1.655201E2,4.0147963E0,4.7293198E1,2.5489333E2,2.0588213E2,2.9452026E2,1.8991173E1,4.0863564E1,6.3352917E1,5.186621E1,1.3546194E2,2.5010947E2,5.932673E1,6.32417E1,1.1894599E1,1.1894599E1,2.9736498E1,5.9472995E0,8.280997E1,3.9896523E1,1.4548688E2,8.613962E1,2.181512E1,1.4370497E2,2.1116333E0,1.9031632E0,1.6034039E1,3.1259157E1,1.3349774E2,1.21395584E2,1.2887318E2,7.7008934E1,2.485238E2,4.5996456E1,1.1451164E2,2.0950294E1,2.3293015E2,1.7179327E1,4.122516E1,1.8101568E1,4.04817E1,2.276E1,5.9472995E0,5.9472995E0,7.9793045E1,3.016928E0,1.09087006E2,3.6399868E1,6.6669716E1,1.9469904E1,2.031912E1,1.4959998E0,1.01397125E2,4.2307854E1,1.111386E0,1.0002474E0,2.4533195E1,6.7259617E0,6.1047318E1,7.2450424E1,5.2584324E1,6.8811264E1,9.802745E1,3.0845737E1,3.0658587E1,2.178652E2],"tree_param":{"num_deleted":"0","num_feature":"65","num_nodes":"89","size_leaf_vector":"1"}},{"base_weights":[5.9312927E-3,-5.888058E0,6.6157327E0,-8.100054E0,-1.9030657E0,2.693703E0,9.907293E0,-1.1487866E1,-6.5105643E0,7.208813E0,-3.4484317E0,4.578536E0,1.6246462E0,9.08317E0,1.6534712E1,-1.0368361E1,-1.2726791E1,-7.594097E0,-3.068152E0,-1.0332276E0,1.2581887E1,-7.857251E-1,-4.8495865E0,4.7949753E0,-3.5214884E0,-1.7847134E0,2.261725E0,1.4712396E1,7.7022114E0,6.000834E0,4.135855E0,-3.2637503E0,-2.6307573E0,-4.2328815E0,-3.358176E0,-3.9467232E0,-7.9153285E0,-4.9768844E-1,-7.540244E0,-4.582781E-1,-4.5873272E-1,4.1391397E0,1.6182936E0,-2.5900233E0,1.9609326E0,-5.3233485E0,-2.9735787E0,4.598053E0,4.6099486E0,-8.705009E0,9.741699E-1,-5.1055044E-1,-2.2363753E0,1.868889E0,3.684983E0,1.2069838E1,6.598536E0,3.7280269E0,6.9405627E0,-1.4252796E0,-5.774441E-1,-1.8531715E0,-2.5642996E0,3.228569E-1,-6.657901E-1,-1.7190675E0,-2.6758354E0,-1.6932236E-1,-8.610818E-2,-9.972265E-1,1.495566E0,9.0681356E-1,3.1979296E-2,-1.2841616E0,-1.8931378E0,-6.91013E-1,-1.1105804E0,1.9244022E0,1.1203158E0,-4.226483E0,3.9879948E-1,-2.3827723E-1,1.5879878E-1,-4.884555E-1,-8.385184E-1,1.0810394E0,4.6205482E-1,8.8228315E-1,1.1946104E0,4.2407875E0,2.8623886E0,1.8686892E0,3.4927993E0],"categories":[],"categories_nodes":[],"categories_segments":[],"categories_sizes":[],"default_left":[0,0,0,0,0,0,0,0,0,0,0,0,0,0,0,0,0,0,0,0,0,0,0,0,0,0,0,0,0,0,0,0,0,0,0,0,0,0,0,0,0,0,0,0,0,0,0,0,0,0,0,0,0,0,0,0,0,0,0,0,0,0,0,0,0,0,0,0,0,0,0,0,0,0,0,0,0,0,0,0,0,0,0,0,0,0,0,0,0,0,0,0,0],"id":1,"left_children":[1,3,5,7,9,11,13,15,17,19,21,23,25,27,29,31,33,35,37,39,41,43,45,47,49,51,53,55,57,-1,-1,-1,-1,-1,-1,59,61,63,65,-1,67,-1,-1,69,71,73,75,-1,77,79,-1,81,83,85,87,89,-1,-1,91,-1,-1,-1,-1,-1,-1,-1,-1,-1,-1,-1,-1,-1,-1,-1,-1,-1,-1,-1,-1,-1,-1,-1,-1,-1,-1,-1,-1,-1,-1,-1,-1,-1,-1],"loss_changes":[8.53732E4,1.0195918E4,1.3308641E4,3.9349375E3,5.8658203E3,9.4509204E2,2.9153008E3,1.9605078E2,1.8757734E3,2.691052E3,1.3218892E3,3.1586084E2,6.625673E2,3.7844414E3,3.043125E2,1.0484375E1,7.068359E1,4.216875E2,1.4167094E3,6.3396473E0,2.4599463E2,6.1814215E2,1.9092383E2,2.5383765E2,2.0421536E2,2.6650528E1,1.361847E2,1.6142656E3,1.3701406E3,0E0,0E0,0E0,0E0,0E0,0E0,4.4977844E1,3.3658203E2,2.1790468E2,6.130371E1,0E0,7.197261E-2,0E0,0E0,4.3413675E2,9.736345E1,1.6286426E2,1.5473999E1,0E0,2.3688867E2,1.8681073E2,0E0,4.531407E0,7.4635315E0,1.0994891E2,2.952881E-1,2.5111914E2,0E0,0E0,1.1012754E3,0E0,0E0,0E0,0E0,0E0,0E0,0E0,0E0,0E0,0E0,0E0,0E0,0E0,0E0,0E0,0E0,0E0,0E0,0E0,0E0,0E0,0E0,0E0,0E0,0E0,0E0,0E0,0E0,0E0,0E0,0E0,0E0,0E0,0E0],"parents":[2147483647,0,0,1,1,2,2,3,3,4,4,5,5,6,6,7,7,8,8,9,9,10,10,11,11,12,12,13,13,14,14,15,15,16,16,17,17,18,18,19,19,20,20,21,21,22,22,23,23,24,24,25,25,26,26,27,27,28,28,35,35,36,36,37,37,38,38,40,40,43,43,44,44,45,45,46,46,48,48,49,49,51,51,52,52,53,53,54,54,55,55,58,58],"right_children":[2,4,6,8,10,12,14,16,18,20,22,24,26,28,30,32,34,36,38,40,42,44,46,48,50,52,54,56,58,-1,-1,-1,-1,-1,-1,60,62,64,66,-1,68,-1,-1,70,72,74,76,-1,78,80,-1,82,84,86,88,90,-1,-1,92,-1,-1,-1,-1,-1,-1,-1,-1,-1,-1,-1,-1,-1,-1,-1,-1,-1,-1,-1,-1,-1,-1,-1,-1,-1,-1,-1,-1,-1,-1,-1,-1,-1,-1],"split_conditions":[1.03035904E-1,-6.278824E-1,8.474021E-1,-1.18984E0,-2.0878196E0,7.1929246E-1,4.599901E0,-1.3860415E0,4.4270296E0,-5.790156E-1,-1.3860415E0,6.4779794E-1,2.258658E-1,-8.8623905E-1,3.9743835E-1,-1.2129403E0,-1.2180719E0,-1.0848488E0,-1.0351526E0,2.763911E-1,7.422997E-1,4.655579E0,-1.588181E-1,-1.8826473E0,1.751446E-2,1.0701815E0,6.5278727E-1,5.3995037E0,8.334541E-1,6.000834E0,4.135855E0,-3.2637503E0,-2.6307573E0,-4.2328815E0,-3.358176E0,-9.870912E-1,-1.7369306E0,-1.7369306E0,7.1929246E-1,-4.582781E-1,2.8184032E-1,4.1391397E0,1.6182936E0,9.847901E-1,-1.7369306E0,-5.638301E-1,7.3576856E-1,4.598053E0,-1.7369306E0,-6.0412395E-1,9.741699E-1,1.0665284E0,1.5142918E-1,1.0701815E0,-1.1257615E0,8.970265E-1,6.598536E0,3.7280269E0,1.604932E0,-1.4252796E0,-5.774441E-1,-1.8531715E0,-2.5642996E0,3.228569E-1,-6.657901E-1,-1.7190675E0,-2.6758354E0,-1.6932236E-1,-8.610818E-2,-9.972265E-1,1.495566E0,9.0681356E-1,3.1979296E-2,-1.2841616E0,-1.8931378E0,-6.91013E-1,-1.1105804E0,1.9244022E0,1.1203158E0,-4.226483E0,3.9879948E-1,-2.3827723E-1,1.5879878E-1,-4.884555E-1,-8.385184E-1,1.0810394E0,4.6205482E-1,8.8228315E-1,1.1946104E0,4.2407875E0,2.8623886E0,1.8686892E0,3.4927993E0],"split_indices":[2,2,2,64,0,0,57,0,58,2,0,64,2,4,62,64,2,3,0,1,1,34,2,3,0,0,2,40,64,0,0,0,0,0,0,2,0,0,0,0,1,0,0,1,0,64,3,0,0,3,0,1,2,0,3,2,0,0,2,0,0,0,0,0,0,0,0,0,0,0,0,0,0,0,0,0,0,0,0,0,0,0,0,0,0,0,0,0,0,0,0,0,0],"split_type":[0,0,0,0,0,0,0,0,0,0,0,0,0,0,0,0,0,0,0,0,0,0,0,0,0,0,0,0,0,0,0,0,0,0,0,0,0,0,0,0,0,0,0,0,0,0,0,0,0,0,0,0,0,0,0,0,0,0,0,0,0,0,0,0,0,0,0,0,0,0,0,0,0,0,0,0,0,0,0,0,0,0,0,0,0,0,0,0,0,0,0,0,0],"sum_hessian":[2.1894111E3,1.1574325E3,1.0319785E3,7.436265E2,4.1380597E2,4.717214E2,5.6025714E2,2.3548666E2,5.0813983E2,5.9472996E1,3.5433298E2,1.695349E2,3.0218652E2,5.0040237E2,5.9854736E1,1.2862694E2,1.0685972E2,3.855714E2,1.2256843E2,2.3789198E1,3.5683796E1,1.2270649E2,2.316265E2,1.655201E2,4.0147963E0,4.7293198E1,2.5489333E2,9.667416E1,4.0372824E2,2.368792E1,3.6166817E1,9.308942E1,3.553753E1,5.186621E1,5.4993507E1,3.2284794E1,3.5328662E2,7.853784E1,4.403059E1,1.1894599E1,1.1894599E1,2.9736498E1,5.9472995E0,7.409199E1,4.8614502E1,1.834587E2,4.81678E1,1.4448017E0,1.640753E2,2.1116333E0,1.9031632E0,1.2934542E1,3.4358654E1,2.0157057E2,5.3322758E1,7.288496E1,2.3789198E1,5.3923347E1,3.4980487E2,2.2132093E1,1.0152699E1,9.71156E1,2.5617102E2,4.122516E1,3.731268E1,2.1270588E1,2.276E1,5.9472995E0,5.9472995E0,6.8058136E1,6.033856E0,3.0512936E1,1.8101568E1,9.180737E1,9.165133E1,2.7253096E1,2.0914705E1,5.1531452E1,1.12543846E2,1.111386E0,1.0002474E0,1.0347633E1,2.5869083E0,1.8324615E1,1.6034039E1,3.0525518E1,1.7104506E2,1.8324615E1,3.4998142E1,3.7583893E1,3.5301064E1,3.0584424E2,4.396064E1],"tree_param":{"num_deleted":"0","num_feature":"65","num_nodes":"93","size_leaf_vector":"1"}},{"base_weights":[1.1816852E-2,-4.1416173E0,4.669669E0,-5.0122747E0,9.087396E-1,1.9004071E0,6.993773E0,-8.098532E0,-4.036036E0,8.964271E0,-1.278757E0,3.3528836E0,1.2047912E0,8.276815E0,4.3742332E0,-7.3033266E0,-8.979133E0,-2.603118E0,-4.9463325E0,2.937798E0,1.2026871E0,9.8818123E-1,-4.2247353E0,3.7982635E0,-6.1236924E-1,3.782861E0,1.1138247E0,1.0292567E0,8.803586E0,3.2487118E0,2.4943252E0,-2.2950323E0,-1.8631295E0,-9.444578E0,-1.9073935E0,-1.7782784E0,-1.6519977E0,-5.883006E0,-3.7534552E0,2.1446729E0,1.8962497E-1,-9.859574E-1,-1.4305083E0,4.579465E0,2.3777106E0,-8.75451E-2,-1.3638558E0,-8.2880914E-1,1.6358088E0,8.102442E0,3.939368E0,3.679972E0,1.5389571E0,-2.8644185E0,-1.1131214E0,-1.116766E0,-2.5857815E-1,-1.2734188E0,-2.1008775E0,-1.2729095E0,-6.3545287E-1,4.8486352E-1,1.326654E0,-3.8870755E-1,1.423401E-1,1.5002569E0,8.1791127E-1,3.366581E-1,8.4569955E-1,-2.9281962E-1,7.5382486E-2,-4.8621204E-1,-1.3944687E-1,1.0044513E0,-2.885472E-1,-1.4731332E0,5.3010267E-1,3.1725788E0,2.09144E0,1.1634507E0,1.9817398E-1,2.366865E-1,4.863476E-1],"categories":[],"categories_nodes":[],"categories_segments":[],"categories_sizes":[],"default_left":[0,0,0,0,0,0,0,0,0,0,0,0,0,0,0,0,0,0,0,0,0,0,0,0,0,0,0,0,0,0,0,0,0,0,0,0,0,0,0,0,0,0,0,0,0,0,0,0,0,0,0,0,0,0,0,0,0,0,0,0,0,0,0,0,0,0,0,0,0,0,0,0,0,0,0,0,0,0,0,0,0,0,0],"id":2,"left_children":[1,3,5,7,9,11,13,15,17,19,21,23,25,27,29,31,33,35,37,-1,-1,39,41,43,45,-1,47,-1,49,51,-1,-1,-1,53,-1,55,-1,57,59,61,63,-1,-1,65,67,69,71,73,75,77,-1,79,81,-1,-1,-1,-1,-1,-1,-1,-1,-1,-1,-1,-1,-1,-1,-1,-1,-1,-1,-1,-1,-1,-1,-1,-1,-1,-1,-1,-1,-1,-1],"loss_changes":[4.2395215E4,5.098332E3,6.6350117E3,2.9448184E3,3.028053E3,4.7358228E2,1.8501699E3,1.0002637E2,9.690029E2,1.11326416E2,9.0912317E2,2.7168347E2,3.1918542E2,9.28625E2,8.0071045E2,1.6162109E0,7.1541016E1,6.9562646E2,4.9101562E2,0E0,0E0,7.106326E1,1.4480103E1,1.4143164E2,6.2944922E0,0E0,3.255964E2,0E0,9.1964844E2,1.0259143E2,0E0,0E0,0E0,1.7701172E1,0E0,4.0809692E2,0E0,4.389922E2,1.5493091E2,3.078099E1,2.0446823E1,0E0,0E0,5.467517E1,2.4970978E1,3.449581E0,7.750063E-1,4.1215206E1,2.2543036E2,7.47416E2,0E0,6.717053E1,6.501541E-1,0E0,0E0,0E0,0E0,0E0,0E0,0E0,0E0,0E0,0E0,0E0,0E0,0E0,0E0,0E0,0E0,0E0,0E0,0E0,0E0,0E0,0E0,0E0,0E0,0E0,0E0,0E0,0E0,0E0,0E0],"parents":[2147483647,0,0,1,1,2,2,3,3,4,4,5,5,6,6,7,7,8,8,9,9,10,10,11,11,12,12,13,13,14,14,15,15,16,16,17,17,18,18,21,21,22,22,23,23,24,24,26,26,28,28,29,29,33,33,35,35,37,37,38,38,39,39,40,40,43,43,44,44,45,45,46,46,47,47,48,48,49,49,51,51,52,52],"right_children":[2,4,6,8,10,12,14,16,18,20,22,24,26,28,30,32,34,36,38,-1,-1,40,42,44,46,-1,48,-1,50,52,-1,-1,-1,54,-1,56,-1,58,60,62,64,-1,-1,66,68,70,72,74,76,78,-1,80,82,-1,-1,-1,-1,-1,-1,-1,-1,-1,-1,-1,-1,-1,-1,-1,-1,-1,-1,-1,-1,-1,-1,-1,-1,-1,-1,-1,-1,-1,-1],"split_conditions":[1.03035904E-1,4.655579E0,8.474021E-1,-1.18984E0,-2.0878196E0,-3.3337456E-1,-4.711575E-1,-1.3860415E0,-1.3860415E0,7.422997E-1,-3.3337456E-1,4.752758E0,-1.8826473E0,-1.6883118E0,1.604932E0,-1.2129403E0,4.6745653E0,4.8773084E0,-6.9995147E-1,2.937798E0,1.2026871E0,-1.7369306E0,3.9743835E-1,6.3094574E-1,-6.842636E-1,3.782861E0,4.662222E-1,1.0292567E0,1.751446E-2,1.4210705E0,2.4943252E0,-2.2950323E0,-1.8631295E0,1.8435937E0,-1.9073935E0,-1.0854877E0,-1.6519977E0,-5.52983E-1,-3.6732426E-1,4.198878E0,-7.04469E-1,-9.859574E-1,-1.4305083E0,5.2877593E0,-1.0123501E0,-1.5409247E0,3.96274E-1,1.0294898E-1,1.751446E-2,-2.0878196E0,3.939368E0,1.1653525E0,-1.1295084E0,-2.8644185E0,-1.1131214E0,-1.116766E0,-2.5857815E-1,-1.2734188E0,-2.1008775E0,-1.2729095E0,-6.3545287E-1,4.8486352E-1,1.326654E0,-3.8870755E-1,1.423401E-1,1.5002569E0,8.1791127E-1,3.366581E-1,8.4569955E-1,-2.9281962E-1,7.5382486E-2,-4.8621204E-1,-1.3944687E-1,1.0044513E0,-2.885472E-1,-1.4731332E0,5.3010267E-1,3.1725788E0,2.09144E0,1.1634507E0,1.9817398E-1,2.366865E-1,4.863476E-1],"split_indices":[2,34,2,64,0,0,3,0,0,1,0,55,3,3,2,64,49,39,2,0,0,0,62,64,0,0,2,0,0,0,0,0,0,4,0,2,0,3,64,19,1,0,0,59,1,1,1,64,0,0,0,3,1,0,0,0,0,0,0,0,0,0,0,0,0,0,0,0,0,0,0,0,0,0,0,0,0,0,0,0,0,0,0],"split_type":[0,0,0,0,0,0,0,0,0,0,0,0,0,0,0,0,0,0,0,0,0,0,0,0,0,0,0,0,0,0,0,0,0,0,0,0,0,0,0,0,0,0,0,0,0,0,0,0,0,0,0,0,0,0,0,0,0,0,0,0,0,0,0,0,0,0,0,0,0,0,0,0,0,0,0,0,0,0,0,0,0,0,0],"sum_hessian":[2.1894111E3,1.1574325E3,1.0319785E3,9.8724396E2,1.7018855E2,4.717214E2,5.6025714E2,2.3548666E2,7.5175726E2,3.5683796E1,1.3450476E2,1.5152031E2,3.202011E2,3.746131E2,1.8564401E2,1.2862694E2,1.0685972E2,2.9354358E2,4.5821368E2,2.9736498E1,5.9472995E0,7.638831E1,5.8116447E1,1.3625784E2,1.5262467E1,1.4448017E0,3.1875632E2,3.7465626E1,3.371475E2,1.458159E2,3.9828106E1,9.308942E1,3.553753E1,8.85351E1,1.8324615E1,2.2985786E2,6.368572E1,2.5446803E2,2.0374565E2,3.0512936E1,4.587538E1,2.3905289E1,3.421116E1,8.647765E1,4.978019E1,9.6438675E0,5.6185994E0,6.738525E1,2.5137105E2,2.926121E2,4.4535397E1,1.15524284E2,3.029162E1,8.631233E1,2.222772E0,7.264995E1,1.5720792E2,1.05267426E2,1.492006E2,1.5557448E2,4.8171177E1,2.6153944E1,4.3589907E0,6.8109055E0,3.9064476E1,6.9072105E1,1.7405548E1,1.386775E1,3.5912437E1,2.1430817E0,7.500786E0,3.745733E0,1.8728665E0,1.3336631E0,6.605159E1,4.2232666E0,2.4714778E2,8.9209496E1,2.0340259E2,1.08141304E2,7.382974E0,4.0388827E0,2.6252737E1],"tree_param":{"num_deleted":"0","num_feature":"65","num_nodes":"83","size_leaf_vector":"1"}},{"base_weights":[1.0992634E-2,-2.912136E0,3.289121E0,-3.5271637E0,6.553315E-1,1.3434259E0,4.9220314E0,-5.7114415E0,-2.8362641E0,6.387859E0,-9.0141237E-1,2.153938E0,6.310145E-1,5.8210144E0,3.0864954E0,-6.405247E0,-4.999421E0,-1.832461E0,-3.4739358E0,2.0851328E0,8.9381486E-1,8.46191E-1,-2.8788862E0,3.1121953E0,2.0524664E0,-1.3226088E0,9.440675E-1,1.0465333E1,5.4786177E0,2.2882957E0,1.7643559E0,-1.631374E0,-7.1657877E0,-1.7197379E0,-1.388068E0,-2.4360673E0,5.514048E-1,-4.128334E0,-2.6315162E0,1.5185826E-1,1.456312E0,-1.7509942E0,-3.1414955E0,1.9632447E0,3.1840057E0,-1.7468628E0,-8.802008E-1,6.30088E-1,2.0591543E0,6.752026E0,3.5712566E0,7.5602E0,4.7031426E0,3.595463E0,1.9062773E0,-2.1821232E0,-8.8280284E-1,-9.288086E-1,-1.23531215E-1,-4.2974137E-2,4.1331604E-1,-8.967707E-1,-1.4748108E0,-1.1522602E0,-6.8019277E-1,-2.804352E-1,1.4232317E-1,5.931253E-1,1.0722041E-2,-5.60237E-1,-2.3329723E-1,-9.5409524E-1,-2.3524892E-1,1.4004091E0,5.051295E-1,-5.477215E-1,-1.04521275E-1,-2.7729568E-1,-2.8813947E-2,-4.8004195E-2,2.8497145E-1,6.4043343E-1,2.2737688E-1,9.178399E-1,2.5796623E0,1.6989918E0,3.7854536E0,7.15948E-1,1.5620478E0,1.2450261E0,7.302947E-1,1.5636177E-1,7.296129E-1],"categories":[],"categories_nodes":[],"categories_segments":[],"categories_sizes":[],"default_left":[0,0,0,0,0,0,0,0,0,0,0,0,0,0,0,0,0,0,0,0,0,0,0,0,0,0,0,0,0,0,0,0,0,0,0,0,0,0,0,0,0,0,0,0,0,0,0,0,0,0,0,0,0,0,0,0,0,0,0,0,0,0,0,0,0,0,0,0,0,0,0,0,0,0,0,0,0,0,0,0,0,0,0,0,0,0,0,0,0,0,0,0,0],"id":3,"left_children":[1,3,5,7,9,11,13,15,17,19,21,23,25,27,29,31,33,35,37,-1,-1,39,41,-1,43,45,47,49,51,53,-1,-1,55,-1,-1,57,59,61,63,65,67,69,71,73,-1,75,77,79,81,83,-1,85,87,89,91,-1,-1,-1,-1,-1,-1,-1,-1,-1,-1,-1,-1,-1,-1,-1,-1,-1,-1,-1,-1,-1,-1,-1,-1,-1,-1,-1,-1,-1,-1,-1,-1,-1,-1,-1,-1,-1,-1],"loss_changes":[2.0998953E4,2.5440195E3,3.2753096E3,1.4751748E3,1.5334579E3,2.7159882E2,9.081738E2,8.480371E1,4.754707E2,4.9635254E1,4.7071893E2,1.628114E2,1.5598059E2,5.399629E2,4.0289294E2,4.6534668E1,6.592041E0,4.2516693E2,2.422915E2,0E0,0E0,3.0579132E1,1.3396118E1,0E0,1.4665015E2,5.099003E0,7.525221E1,5.1547363E1,5.325215E2,6.646033E1,0E0,0E0,6.8242188E0,0E0,0E0,3.1296472E2,3.4824986E1,2.1562451E2,8.093457E1,1.2753921E1,2.8473198E1,1.6969681E-1,2.1266785E0,1.5711578E2,0E0,1.242836E0,5.7976055E-1,4.3625694E1,3.0657043E0,3.647464E1,0E0,8.29208E2,2.898452E2,1.0553467E1,8.301776E1,0E0,0E0,0E0,0E0,0E0,0E0,0E0,0E0,0E0,0E0,0E0,0E0,0E0,0E0,0E0,0E0,0E0,0E0,0E0,0E0,0E0,0E0,0E0,0E0,0E0,0E0,0E0,0E0,0E0,0E0,0E0,0E0,0E0,0E0,0E0,0E0,0E0,0E0],"parents":[2147483647,0,0,1,1,2,2,3,3,4,4,5,5,6,6,7,7,8,8,9,9,10,10,11,11,12,12,13,13,14,14,15,15,16,16,17,17,18,18,21,21,22,22,24,24,25,25,26,26,27,27,28,28,29,29,32,32,35,35,36,36,37,37,38,38,39,39,40,40,41,41,42,42,43,43,45,45,46,46,47,47,48,48,49,49,51,51,52,52,53,53,54,54],"right_children":[2,4,6,8,10,12,14,16,18,20,22,24,26,28,30,32,34,36,38,-1,-1,40,42,-1,44,46,48,50,52,54,-1,-1,56,-1,-1,58,60,62,64,66,68,70,72,74,-1,76,78,80,82,84,-1,86,88,90,92,-1,-1,-1,-1,-1,-1,-1,-1,-1,-1,-1,-1,-1,-1,-1,-1,-1,-1,-1,-1,-1,-1,-1,-1,-1,-1,-1,-1,-1,-1,-1,-1,-1,-1,-1,-1,-1,-1],"split_conditions":[1.03035904E-1,4.655579E0,8.474021E-1,-1.18984E0,-2.0878196E0,1.0701815E0,-4.711575E-1,-1.2180719E0,-1.3860415E0,7.422997E-1,-6.842636E-1,-1.8826473E0,2.258658E-1,3.9743835E-1,1.604932E0,-1.7369306E0,-5.137462E-1,4.4270296E0,-6.990315E-1,2.0851328E0,8.9381486E-1,1.0474058E-1,1.0701815E0,3.1121953E0,2.5296447E0,-1.8134362E-1,6.5278727E-1,-1.2417708E-2,-8.8623905E-1,-6.842636E-1,1.7643559E0,-1.631374E0,1.8435937E0,-1.7197379E0,-1.388068E0,4.129837E0,-3.1489987E-2,-5.52983E-1,-9.442348E-1,-1.5218525E0,3.7111626E0,9.738916E-1,1.4398001E0,1.0294898E-1,3.1840057E0,4.3163495E0,2.041708E1,-5.6823844E-1,7.0933623E0,-3.402725E-1,3.5712566E0,5.3995037E0,-1.1769024E0,9.5829934E-1,9.5829934E-1,-2.1821232E0,-8.8280284E-1,-9.288086E-1,-1.23531215E-1,-4.2974137E-2,4.1331604E-1,-8.967707E-1,-1.4748108E0,-1.1522602E0,-6.8019277E-1,-2.804352E-1,1.4232317E-1,5.931253E-1,1.0722041E-2,-5.60237E-1,-2.3329723E-1,-9.5409524E-1,-2.3524892E-1,1.4004091E0,5.051295E-1,-5.477215E-1,-1.04521275E-1,-2.7729568E-1,-2.8813947E-2,-4.8004195E-2,2.8497145E-1,6.4043343E-1,2.2737688E-1,9.178399E-1,2.5796623E0,1.6989918E0,3.7854536E0,7.15948E-1,1.5620478E0,1.2450261E0,7.302947E-1,1.5636177E-1,7.296129E-1],"split_indices":[2,34,2,64,0,0,3,2,0,1,0,3,2,62,2,0,1,58,64,0,0,1,0,0,1,1,2,1,4,0,0,0,4,0,0,43,1,3,1,1,10,1,1,64,0,21,12,1,23,4,0,40,3,2,2,0,0,0,0,0,0,0,0,0,0,0,0,0,0,0,0,0,0,0,0,0,0,0,0,0,0,0,0,0,0,0,0,0,0,0,0,0,0],"split_type":[0,0,0,0,0,0,0,0,0,0,0,0,0,0,0,0,0,0,0,0,0,0,0,0,0,0,0,0,0,0,0,0,0,0,0,0,0,0,0,0,0,0,0,0,0,0,0,0,0,0,0,0,0,0,0,0,0,0,0,0,0,0,0,0,0,0,0,0,0,0,0,0,0,0,0,0,0,0,0,0,0,0,0,0,0,0,0,0,0,0,0,0,0],"sum_hessian":[2.1894111E3,1.1574325E3,1.0319785E3,9.8724396E2,1.7018855E2,4.717214E2,5.6025714E2,2.3548666E2,7.5175726E2,3.5683796E1,1.3450476E2,2.1972092E2,2.520005E2,3.746131E2,1.8564401E2,1.15219124E2,1.2026754E2,2.9354358E2,4.5821368E2,2.9736498E1,5.9472995E0,7.170615E1,6.279861E1,1.4448017E0,2.1827611E2,3.4358654E1,2.1764185E2,2.36916E1,3.509215E2,1.458159E2,3.9828106E1,5.430213E1,6.0916992E1,3.567682E1,8.459072E1,2.3421686E2,5.932673E1,2.5569055E2,2.0252313E2,3.412264E1,3.7583508E1,1.3308224E1,4.9490387E1,2.1724135E2,1.0347633E0,1.6034039E1,1.8324615E1,1.7104506E2,4.6596794E1,8.2062E0,1.5485401E1,9.287396E1,2.5804755E2,3.1074684E1,1.1474122E2,5.869422E1,2.222772E0,1.762322E2,5.7984665E1,3.268029E1,2.6646437E1,1.06489944E2,1.492006E2,4.4665474E1,1.5785765E2,7.3759184E0,2.6746721E1,2.7214937E1,1.036857E1,1.1065585E1,2.2426388E0,4.83451E1,1.1452885E0,1.887432E1,1.9836703E2,1.488875E1,1.1452885E0,1.7179327E1,1.1452885E0,4.942964E1,1.2161541E2,4.3432064E1,3.1647298E0,3.6216717E0,4.584528E0,6.908476E1,2.3789198E1,4.7109493E1,2.1093805E2,1.9287735E1,1.1786949E1,3.2118885E1,8.262233E1],"tree_param":{"num_deleted":"0","num_feature":"65","num_nodes":"93","size_leaf_vector":"1"}},{"base_weights":[1.526218E-2,-1.6746767E0,2.8678417E0,-2.8028533E0,-3.439054E-1,2.4765453E0,5.4389076E0,-3.208375E0,-7.38726E-1,2.6037672E0,-6.5436757E-1,3.9600892E0,1.5422057E0,7.611915E0,4.7284265E0,-4.0310106E0,-2.6968248E0,2.4354434E-1,-2.4573119E0,-3.853645E-1,4.5527043E0,-1.2469062E0,3.1127203E-1,2.4126954E0,4.446688E0,1.5992348E0,-4.8493714E0,5.4736714E0,2.7208848E0,1.0332673E0,1.477814E0,-3.6763988E0,-4.7840633E0,-7.248078E-1,-2.8744814E0,8.326503E-1,-4.1207775E-1,-1.4170864E0,-9.986725E-1,-2.257166E-1,1.1545379E-2,4.933145E0,6.6426754E-1,-1.4552225E0,1.627164E0,3.3380876E0,8.699912E-3,7.6790863E-1,5.34781E-1,5.3981085E0,2.8057141E0,4.676164E0,1.512234E0,-3.4062033E0,1.3439993E0,7.970044E-1,2.0406673E0,-1.246144E0,-9.6422756E-1,-1.5876321E0,-9.3453246E-1,-4.2413822E-1,2.9707244E-1,-1.0477152E0,-7.262169E-1,-4.33315E-2,4.3490872E-1,-1.5375884E-1,2.9412916E-1,-5.227425E-1,3.275459E-1,-2.7707368E-2,3.413604E-2,1.1959798E0,1.7801057E0,-1.180648E-2,-5.322373E-1,3.0447476E0,-1.2923712E-2,4.410509E-1,1.0821587E0,2.5604317E0,-2.8922321E-2,1.8571728E0,8.293034E-1,5.5489683E-1,9.165844E-1,1.6209203E0,5.435788E-2,2.0407662E-1,5.4287374E-1,4.8419213E-1,1.2063246E-1],"categories":[],"categories_nodes":[],"categories_segments":[],"categories_sizes":[],"default_left":[0,0,0,0,0,0,0,0,0,0,0,0,0,0,0,0,0,0,0,0,0,0,0,0,0,0,0,0,0,0,0,0,0,0,0,0,0,0,0,0,0,0,0,0,0,0,0,0,0,0,0,0,0,0,0,0,0,0,0,0,0,0,0,0,0,0,0,0,0,0,0,0,0,0,0,0,0,0,0,0,0,0,0,0,0,0,0,0,0,0,0,0,0],"id":4,"left_children":[1,3,5,7,9,11,13,15,17,19,21,23,25,27,29,31,33,35,37,39,41,43,45,47,49,51,53,55,-1,-1,-1,57,59,61,63,65,67,69,-1,-1,71,73,-1,75,77,79,81,-1,-1,83,85,87,89,-1,91,-1,-1,-1,-1,-1,-1,-1,-1,-1,-1,-1,-1,-1,-1,-1,-1,-1,-1,-1,-1,-1,-1,-1,-1,-1,-1,-1,-1,-1,-1,-1,-1,-1,-1,-1,-1,-1,-1],"loss_changes":[1.0564085E4,2.0651125E3,8.067207E2,6.2091895E2,5.8055237E2,9.772295E2,1.2897314E2,2.5090234E2,2.0919629E2,3.5404782E2,3.282758E2,1.9520508E2,1.670122E2,2.730603E1,4.1394043E0,4.556372E1,1.3334863E2,3.106309E1,3.6109955E1,3.619866E0,2.1712646E1,2.1511133E2,2.0027959E2,1.6999512E0,3.078506E2,1.0905469E2,1.8090958E2,2.8822418E1,0E0,0E0,0E0,2.3088135E1,4.4894653E1,4.0730812E1,9.088086E1,2.5667284E1,5.8616686E0,2.00835E1,0E0,0E0,1.4749125E-1,5.4541016E0,0E0,1.4976648E2,3.4897324E2,4.6870728E0,1.7991393E2,0E0,0E0,2.5395483E2,1.2961731E1,3.643463E1,1.0349927E2,0E0,1.1399269E-1,0E0,0E0,0E0,0E0,0E0,0E0,0E0,0E0,0E0,0E0,0E0,0E0,0E0,0E0,0E0,0E0,0E0,0E0,0E0,0E0,0E0,0E0,0E0,0E0,0E0,0E0,0E0,0E0,0E0,0E0,0E0,0E0,0E0,0E0,0E0,0E0,0E0,0E0],"parents":[2147483647,0,0,1,1,2,2,3,3,4,4,5,5,6,6,7,7,8,8,9,9,10,10,11,11,12,12,13,13,14,14,15,15,16,16,17,17,18,18,19,19,20,20,21,21,22,22,23,23,24,24,25,25,26,26,27,27,31,31,32,32,33,33,34,34,35,35,36,36,37,37,40,40,41,41,43,43,44,44,45,45,46,46,49,49,50,50,51,51,52,52,54,54],"right_children":[2,4,6,8,10,12,14,16,18,20,22,24,26,28,30,32,34,36,38,40,42,44,46,48,50,52,54,56,-1,-1,-1,58,60,62,64,66,68,70,-1,-1,72,74,-1,76,78,80,82,-1,-1,84,86,88,90,-1,92,-1,-1,-1,-1,-1,-1,-1,-1,-1,-1,-1,-1,-1,-1,-1,-1,-1,-1,-1,-1,-1,-1,-1,-1,-1,-1,-1,-1,-1,-1,-1,-1,-1,-1,-1,-1,-1,-1],"split_conditions":[5.524137E-1,-6.278824E-1,1.604932E0,4.4270296E0,-2.0878196E0,-1.3860415E0,3.9743835E-1,-1.18984E0,-1.0351526E0,-5.790156E-1,1.03035904E-1,8.474021E-1,1.8435937E0,1.1563903E-1,-1.1948991E0,-8.086877E-1,-1.0848488E0,-1.7369306E0,7.1929246E-1,2.763911E-1,7.422997E-1,4.198878E0,1.0294898E-1,-1.7369306E0,5.780291E0,-8.8623905E-1,-6.0412395E-1,-3.402725E-1,2.7208848E0,1.0332673E0,1.477814E0,-1.6965097E0,4.6745653E0,7.422997E-1,-4.401817E-1,-7.04469E-1,4.0768228E0,3.6840346E-1,-9.986725E-1,-2.257166E-1,2.8184032E-1,1.0474058E-1,6.6426754E-1,-1.7369306E0,-6.4137346E-1,-1.5736201E0,-1.8826473E0,7.6790863E-1,5.34781E-1,1.0808984E0,-1.4401141E0,5.2877593E0,-6.499768E-1,-3.4062033E0,8.474021E-1,7.970044E-1,2.0406673E0,-1.246144E0,-9.6422756E-1,-1.5876321E0,-9.3453246E-1,-4.2413822E-1,2.9707244E-1,-1.0477152E0,-7.262169E-1,-4.33315E-2,4.3490872E-1,-1.5375884E-1,2.9412916E-1,-5.227425E-1,3.275459E-1,-2.7707368E-2,3.413604E-2,1.1959798E0,1.7801057E0,-1.180648E-2,-5.322373E-1,3.0447476E0,-1.2923712E-2,4.410509E-1,1.0821587E0,2.5604317E0,-2.8922321E-2,1.8571728E0,8.293034E-1,5.5489683E-1,9.165844E-1,1.6209203E0,5.435788E-2,2.0407662E-1,5.4287374E-1,4.8419213E-1,1.2063246E-1],"split_indices":[64,2,2,58,0,0,62,64,0,2,2,2,4,1,1,3,3,0,0,1,1,19,64,0,54,4,3,4,0,0,0,64,49,1,1,1,28,0,0,0,1,1,0,0,64,1,3,0,0,64,1,59,1,0,2,0,0,0,0,0,0,0,0,0,0,0,0,0,0,0,0,0,0,0,0,0,0,0,0,0,0,0,0,0,0,0,0,0,0,0,0,0,0],"split_type":[0,0,0,0,0,0,0,0,0,0,0,0,0,0,0,0,0,0,0,0,0,0,0,0,0,0,0,0,0,0,0,0,0,0,0,0,0,0,0,0,0,0,0,0,0,0,0,0,0,0,0,0,0,0,0,0,0,0,0,0,0,0,0,0,0,0,0,0,0,0,0,0,0,0,0,0,0,0,0,0,0,0,0,0,0,0,0,0,0,0,0,0,0],"sum_hessian":[2.1894111E3,1.3751506E3,8.142604E2,7.436265E2,6.315241E2,7.084092E2,1.058512E2,6.2105804E2,1.2256843E2,5.9472996E1,5.7205115E2,2.7249823E2,4.3591098E2,2.368792E1,8.216328E1,2.3548666E2,3.855714E2,7.853784E1,4.403059E1,2.3789198E1,3.5683796E1,3.5433298E2,2.1771815E2,6.661609E1,2.0588213E2,4.327991E2,3.1118805E0,1.1530006E1,1.2157913E1,1.3415182E1,6.874809E1,1.6409605E2,7.139061E1,3.2284794E1,3.5328662E2,4.122516E1,3.731268E1,2.1270588E1,2.276E1,1.1894599E1,1.1894599E1,2.9736498E1,5.9472995E0,3.308465E2,2.3486502E1,1.887432E1,1.9884383E2,5.1531452E1,1.508464E1,1.2887318E2,7.7008934E1,1.0450526E1,4.2234857E2,1.111386E0,2.0004947E0,4.656435E0,6.8735714E0,7.68007E1,8.729536E1,5.3065994E1,1.8324615E1,2.3157423E1,9.127371E0,1.4675183E2,2.0653477E2,1.625359E1,2.4971571E1,3.5391567E1,1.9211112E0,1.909905E1,2.1715379E0,5.9472995E0,5.9472995E0,1.7841898E1,1.1894599E1,6.102587E1,2.6982062E2,3.016928E0,2.0469572E1,3.1906536E0,1.5683666E1,1.4448017E0,1.9739903E2,9.802745E1,3.0845737E1,1.7682209E1,5.932673E1,8.821873E0,1.6286534E0,1.1206786E2,3.102807E2,1.0002474E0,1.0002474E0],"tree_param":{"num_deleted":"0","num_feature":"65","num_nodes":"93","size_leaf_vector":"1"}},{"base_weights":[1.790495E-2,-1.2634978E0,1.8889275E0,-2.0357723E0,-3.488001E-1,8.646043E-1,2.4887512E0,-2.353328E0,-5.224648E-1,1.8792101E0,-5.989809E-1,1.9322047E0,4.8399872E-1,2.2334268E0,4.5515585E0,-4.403465E-1,-2.4630635E0,1.7716897E-1,-1.7466304E0,-2.786006E-1,3.2861307E0,-1.4709269E0,-1.9921982E-1,1.7209852E0,2.9571366E0,5.6807595E-1,-3.4840307E0,3.432509E0,1.6890222E0,5.553493E0,3.7635646E0,-1.1317084E0,5.3371865E-1,-1.942292E0,-2.9392805E0,-2.2146487E-1,6.822188E-1,2.6026526E-1,-1.899325E0,-1.6325332E-1,8.582499E-3,2.8169472E0,1.4666703E0,-1.8496145E0,-5.5144244E-1,3.4357235E-1,-7.163012E-1,2.0251865E0,8.905967E-1,2.1774564E0,4.3290877E-1,-2.8683183E0,4.8373705E-1,4.1538553E0,2.1079712E0,3.6729066E0,1.3284069E0,4.058041E0,6.555516E0,4.3725607E-1,1.1516455E0,-4.6952793E-1,4.440205E-1,5.054572E-1,-1.8622497E-1,-7.0053357E-1,-2.654598E-1,-4.5214403E-1,-9.537035E-1,-1.3172242E-1,1.6768104E-1,3.0017138E-1,5.051799E-2,-3.7372208E-1,-7.116802E-1,-2.0590957E-2,2.5369845E-2,9.094786E-1,4.9367157E-1,-2.8548357E-1,-6.018272E-1,2.9609957E-1,-2.7889815E-1,2.4385014E-1,-4.136965E-1,-4.2003557E-1,-5.0211873E-2,5.522267E-1,1.7019972E0,7.023448E-2,3.7308967E-1,2.367226E-1,7.071123E-1,1.8000585E-1,-1.5786056E-1,-7.278808E-2,4.1155437E-1,1.4089503E0,6.350895E-1,4.2968938E-1,8.385477E-1,8.8101643E-1,1.4284291E0,2.7877074E-1,7.983161E-1,6.001738E-1,1.5062214E0,2.077384E0,7.501669E-1],"categories":[],"categories_nodes":[],"categories_segments":[],"categories_sizes":[],"default_left":[0,0,0,0,0,0,0,0,0,0,0,0,0,0,0,0,0,0,0,0,0,0,0,0,0,0,0,0,0,0,0,0,0,0,0,0,0,0,0,0,0,0,0,0,0,0,0,0,0,0,0,0,0,0,0,0,0,0,0,0,0,0,0,0,0,0,0,0,0,0,0,0,0,0,0,0,0,0,0,0,0,0,0,0,0,0,0,0,0,0,0,0,0,0,0,0,0,0,0,0,0,0,0,0,0,0,0,0,0],"id":5,"left_children":[1,3,5,7,9,11,13,15,17,19,21,23,25,27,29,31,33,35,37,39,41,43,45,47,-1,49,51,53,55,57,59,61,63,65,67,69,71,-1,73,-1,75,77,-1,79,81,83,85,87,89,91,93,-1,95,97,99,101,103,105,107,-1,-1,-1,-1,-1,-1,-1,-1,-1,-1,-1,-1,-1,-1,-1,-1,-1,-1,-1,-1,-1,-1,-1,-1,-1,-1,-1,-1,-1,-1,-1,-1,-1,-1,-1,-1,-1,-1,-1,-1,-1,-1,-1,-1,-1,-1,-1,-1,-1,-1],"loss_changes":[5.2539707E3,9.180647E2,5.4514404E2,3.375752E2,3.3368878E2,1.3336064E2,2.8544092E2,1.2118506E2,1.06141785E2,1.8450365E2,1.8694275E2,1.2787256E2,8.370932E1,3.2151123E2,2.7144897E1,2.2703806E1,1.3084912E2,1.616444E1,1.9622711E1,1.8953246E0,1.3814117E1,5.7720184E1,1.03940605E2,1.9792038E1,0E0,5.1430252E1,1.3056973E2,1.3990625E2,2.4323376E2,1.0391663E1,8.546753E-1,2.4404533E1,2.0053347E1,1.08409E2,9.328833E1,7.922599E0,5.6108513E0,0E0,1.0292831E1,0E0,8.146188E-2,2.7394714E0,0E0,1.4821075E1,3.0380539E1,1.4736649E2,7.091024E1,3.112761E1,5.434889E0,2.7292023E0,3.6113754E1,0E0,2.985387E0,1.00261475E2,2.2411575E1,2.8310242E1,1.5447021E2,1.4773926E1,2.3778076E0,0E0,0E0,0E0,0E0,0E0,0E0,0E0,0E0,0E0,0E0,0E0,0E0,0E0,0E0,0E0,0E0,0E0,0E0,0E0,0E0,0E0,0E0,0E0,0E0,0E0,0E0,0E0,0E0,0E0,0E0,0E0,0E0,0E0,0E0,0E0,0E0,0E0,0E0,0E0,0E0,0E0,0E0,0E0,0E0,0E0,0E0,0E0,0E0,0E0,0E0],"parents":[2147483647,0,0,1,1,2,2,3,3,4,4,5,5,6,6,7,7,8,8,9,9,10,10,11,11,12,12,13,13,14,14,15,15,16,16,17,17,18,18,19,19,20,20,21,21,22,22,23,23,25,25,26,26,27,27,28,28,29,29,30,30,31,31,32,32,33,33,34,34,35,35,36,36,38,38,40,40,41,41,43,43,44,44,45,45,46,46,47,47,48,48,49,49,50,50,52,52,53,53,54,54,55,55,56,56,57,57,58,58],"right_children":[2,4,6,8,10,12,14,16,18,20,22,24,26,28,30,32,34,36,38,40,42,44,46,48,-1,50,52,54,56,58,60,62,64,66,68,70,72,-1,74,-1,76,78,-1,80,82,84,86,88,90,92,94,-1,96,98,100,102,104,106,108,-1,-1,-1,-1,-1,-1,-1,-1,-1,-1,-1,-1,-1,-1,-1,-1,-1,-1,-1,-1,-1,-1,-1,-1,-1,-1,-1,-1,-1,-1,-1,-1,-1,-1,-1,-1,-1,-1,-1,-1,-1,-1,-1,-1,-1,-1,-1,-1,-1,-1],"split_conditions":[5.243849E-1,-6.9548696E-1,8.474021E-1,4.4270296E0,-2.0878196E0,-3.402725E-1,4.599901E0,-1.0848488E0,-1.0351526E0,-5.790156E-1,-5.5733997E-1,9.221139E0,1.8435937E0,-1.7369306E0,3.9743835E-1,3.96274E-1,-1.3860415E0,-3.1489987E-2,-8.8623905E-1,2.763911E-1,3.7111626E0,-3.6732426E-1,7.1929246E-1,-7.984595E-1,2.9571366E0,3.9743835E-1,-6.0412395E-1,5.780291E0,8.550002E-1,1.1563903E-1,-1.5436493E0,3.7111626E0,1.0701815E0,4.6745653E0,3.9743835E-1,4.1433926E0,-1.7369306E0,2.6026526E-1,3.6840346E-1,-1.6325332E-1,2.8184032E-1,3.281587E-1,1.4666703E0,-6.4495367E-1,1.751446E-2,4.772891E0,-3.6782777E-1,-8.086877E-1,5.907541E-1,-1.4401141E0,7.5166065E-1,-2.8683183E0,5.830858E-1,1.0808984E0,-2.0878196E0,2.2462349E-1,1.1872251E0,-3.402725E-1,4.0768228E0,4.3725607E-1,1.1516455E0,-4.6952793E-1,4.440205E-1,5.054572E-1,-1.8622497E-1,-7.0053357E-1,-2.654598E-1,-4.5214403E-1,-9.537035E-1,-1.3172242E-1,1.6768104E-1,3.0017138E-1,5.051799E-2,-3.7372208E-1,-7.116802E-1,-2.0590957E-2,2.5369845E-2,9.094786E-1,4.9367157E-1,-2.8548357E-1,-6.018272E-1,2.9609957E-1,-2.7889815E-1,2.4385014E-1,-4.136965E-1,-4.2003557E-1,-5.0211873E-2,5.522267E-1,1.7019972E0,7.023448E-2,3.7308967E-1,2.367226E-1,7.071123E-1,1.8000585E-1,-1.5786056E-1,-7.278808E-2,4.1155437E-1,1.4089503E0,6.350895E-1,4.2968938E-1,8.385477E-1,8.8101643E-1,1.4284291E0,2.7877074E-1,7.983161E-1,6.001738E-1,1.5062214E0,2.077384E0,7.501669E-1],"split_indices":[64,64,2,58,0,4,57,3,0,2,1,27,4,0,62,1,0,1,4,1,10,64,0,3,0,62,3,54,64,1,1,15,0,49,62,6,0,0,0,0,1,1,0,64,0,47,2,3,64,1,4,0,2,64,0,1,64,4,28,0,0,0,0,0,0,0,0,0,0,0,0,0,0,0,0,0,0,0,0,0,0,0,0,0,0,0,0,0,0,0,0,0,0,0,0,0,0,0,0,0,0,0,0,0,0,0,0,0,0],"split_type":[0,0,0,0,0,0,0,0,0,0,0,0,0,0,0,0,0,0,0,0,0,0,0,0,0,0,0,0,0,0,0,0,0,0,0,0,0,0,0,0,0,0,0,0,0,0,0,0,0,0,0,0,0,0,0,0,0,0,0,0,0,0,0,0,0,0,0,0,0,0,0,0,0,0,0,0,0,0,0,0,0,0,0,0,0,0,0,0,0,0,0,0,0,0,0,0,0,0,0,0,0,0,0,0,0,0,0,0,0],"sum_hessian":[2.1894111E3,1.2996486E3,8.897625E2,7.040214E2,5.9562714E2,3.295054E2,5.6025714E2,5.8145294E2,1.2256843E2,5.9472996E1,5.361541E2,8.5526505E1,2.439789E2,5.0040237E2,5.9854736E1,3.181669E1,5.496363E2,7.853784E1,4.403059E1,2.3789198E1,3.5683796E1,1.6769772E2,3.684564E2,8.4491745E1,1.0347633E0,2.3975563E2,4.2232666E0,1.5459435E2,3.45808E2,2.368792E1,3.6166817E1,1.8514103E1,1.3302588E1,2.6496262E2,2.8467368E2,4.420696E1,3.433088E1,2.1715379E0,4.185905E1,1.1894599E1,1.1894599E1,2.9736498E1,5.9472995E0,1.1806241E2,4.963531E1,1.7992284E2,1.8853355E2,6.0785107E1,2.3706635E1,1.7405548E1,2.2235008E2,1.111386E0,3.1118805E0,9.870391E1,5.589044E1,5.177708E1,2.9403094E2,1.1530006E1,1.2157913E1,1.7866172E0,3.43802E1,1.6222912E1,2.2911904E0,6.430857E0,6.871731E0,1.9231267E2,7.264995E1,4.186462E1,2.4280905E2,3.490993E1,9.2970295E0,2.061258E1,1.3718301E1,1.909905E1,2.276E1,5.9472995E0,5.9472995E0,2.3789198E1,5.9472995E0,1.8570362E1,9.949205E1,9.477005E0,4.0158306E1,1.4181703E2,3.8105797E1,8.326148E1,1.0527208E2,5.9292175E1,1.4929323E0,8.871997E0,1.4834638E1,2.6112983E0,1.47942505E1,1.8967624E2,3.2673843E1,2.1116333E0,1.0002474E0,7.690896E1,2.1794952E1,2.9736498E1,2.6153944E1,3.30934E1,1.8683683E1,2.2756506E2,6.646588E1,4.656435E0,6.8735714E0,1.0494936E1,1.6629769E0],"tree_param":{"num_deleted":"0","num_feature":"65","num_nodes":"109","size_leaf_vector":"1"}},{"base_weights":[1.9836571E-2,-1.0167383E0,1.1822829E0,-1.2678672E0,4.3892732E-1,4.4745225E-1,1.7342702E0,-2.0329163E0,-1.0258346E0,1.4692427E0,-9.523456E-1,2.0589833E0,4.110353E-1,2.1308844E0,9.546224E-1,-2.7030463E0,-1.7609015E0,-4.615174E-1,-1.3439606E0,2.3785233E0,9.170091E-1,-4.861316E-1,-1.4994221E0,3.6924133E-1,5.134436E0,1.8980246E0,3.5551045E0,6.873916E-1,1.9834713E0,-9.370027E-1,-6.749693E-1,-1.6200298E0,-7.793227E-1,-9.391696E-1,-1.4087093E-1,-1.436231E0,9.612263E-2,2.0175142E0,1.090004E0,7.243615E-1,2.0883236E0,-6.1793506E-1,1.6879804E-1,-1.5614226E0,-1.0808917E-1,2.1687014E0,2.8348204E-1,2.078443E0,1.5443523E-1,2.4699152E0,1.3257854E0,9.0211964E-1,4.5498395E0,1.4343638E0,4.1405416E-1,2.0358515E0,1.2720068E-1,-5.8037317E-1,-4.1512945E-1,-3.5888776E-1,2.3668995E-3,3.916041E-1,-9.156505E-2,-4.7003502E-1,-2.226186E-1,9.443727E-1,-2.4228758E-1,6.476419E-1,3.6688697E-1,1.6933222E-1,4.412843E-1,8.018408E-1,2.3660663E-1,-3.956124E-1,-1.6289845E-1,1.0824167E-1,-6.1500855E-2,-4.8849645E-1,-1.1872358E-1,3.423542E-1,7.299813E-1,3.7414095E-1,2.9695667E-2,5.7647973E-1,1.1556998E0,6.974637E-1,2.811874E-1,1.5019073E0,7.1389705E-1,6.2111044E-1,3.2181495E-1,-4.7743234E-1,2.0723099E-1,6.198096E-1,1.6528827E-1],"categories":[],"categories_nodes":[],"categories_segments":[],"categories_sizes":[],"default_left":[0,0,0,0,0,0,0,0,0,0,0,0,0,0,0,0,0,0,0,0,0,0,0,0,0,0,0,0,0,0,0,0,0,0,0,0,0,0,0,0,0,0,0,0,0,0,0,0,0,0,0,0,0,0,0,0,0,0,0,0,0,0,0,0,0,0,0,0,0,0,0,0,0,0,0,0,0,0,0,0,0,0,0,0,0,0,0,0,0,0,0,0,0,0,0],"id":6,"left_children":[1,3,5,7,9,11,13,15,17,19,21,-1,23,25,27,29,31,33,35,37,39,41,43,45,47,49,51,53,55,-1,-1,57,-1,59,61,63,65,67,-1,69,71,73,75,77,-1,79,81,-1,-1,83,85,-1,87,89,91,93,-1,-1,-1,-1,-1,-1,-1,-1,-1,-1,-1,-1,-1,-1,-1,-1,-1,-1,-1,-1,-1,-1,-1,-1,-1,-1,-1,-1,-1,-1,-1,-1,-1,-1,-1,-1,-1,-1,-1],"loss_changes":[2.640566E3,4.2403284E2,4.1821777E2,1.8090454E2,2.4678943E2,1.010222E2,1.8025989E2,3.8348206E1,1.345177E2,4.7402786E1,1.8002945E1,0E0,8.555747E1,1.22573E2,5.3786835E1,5.62088E0,1.5959412E1,4.1663834E1,6.403345E1,9.287521E0,1.2717361E1,3.654852E0,1.790062E0,6.73165E1,2.798742E1,1.0710596E2,1.556604E1,3.222976E1,2.4718475E0,0E0,0E0,8.402527E0,0E0,2.6658218E1,3.948744E1,3.979706E1,8.4986435E1,8.105087E-1,0E0,5.818392E0,4.2544174E0,1.0933962E0,6.2491375E-1,1.795784E0,0E0,2.6260529E0,7.4783775E1,0E0,0E0,1.19590515E2,6.40968E1,0E0,5.03714E0,7.5916977E0,6.719427E1,6.2013245E-1,0E0,0E0,0E0,0E0,0E0,0E0,0E0,0E0,0E0,0E0,0E0,0E0,0E0,0E0,0E0,0E0,0E0,0E0,0E0,0E0,0E0,0E0,0E0,0E0,0E0,0E0,0E0,0E0,0E0,0E0,0E0,0E0,0E0,0E0,0E0,0E0,0E0,0E0,0E0],"parents":[2147483647,0,0,1,1,2,2,3,3,4,4,5,5,6,6,7,7,8,8,9,9,10,10,12,12,13,13,14,14,15,15,16,16,17,17,18,18,19,19,20,20,21,21,22,22,23,23,24,24,25,25,26,26,27,27,28,28,31,31,33,33,34,34,35,35,36,36,37,37,39,39,40,40,41,41,42,42,43,43,45,45,46,46,49,49,50,50,52,52,53,53,54,54,55,55],"right_children":[2,4,6,8,10,12,14,16,18,20,22,-1,24,26,28,30,32,34,36,38,40,42,44,46,48,50,52,54,56,-1,-1,58,-1,60,62,64,66,68,-1,70,72,74,76,78,-1,80,82,-1,-1,84,86,-1,88,90,92,94,-1,-1,-1,-1,-1,-1,-1,-1,-1,-1,-1,-1,-1,-1,-1,-1,-1,-1,-1,-1,-1,-1,-1,-1,-1,-1,-1,-1,-1,-1,-1,-1,-1,-1,-1,-1,-1,-1,-1],"split_conditions":[1.03035904E-1,4.655579E0,6.688632E-1,-1.18984E0,-1.0351526E0,-1.8826473E0,-1.9499645E-1,-5.6823844E-1,-3.402725E-1,-2.0878196E0,1.4210705E0,2.0589833E0,2.6658754E0,1.6123289E0,1.604932E0,-1.2180719E0,6.0280216E-1,-5.137462E-1,1.6223491E0,3.7111626E0,4.198878E0,9.738916E-1,4.3163495E0,1.0294898E-1,5.48898E-1,-3.402725E-1,5.2433074E-1,8.5069096E-1,4.184813E0,-9.370027E-1,-6.749693E-1,-1.6934541E0,-7.793227E-1,4.4270296E0,-4.3200788E-1,4.4270296E0,-1.3860415E0,3.281587E-1,1.090004E0,7.422997E-1,-1.7369306E0,-8.8623905E-1,-5.8545595E-1,1.4419728E1,-1.0808917E-1,-1.034147E0,-1.3860415E0,2.078443E0,1.5443523E-1,5.3995037E0,9.5829934E-1,9.0211964E-1,4.0768228E0,-3.3337456E-1,-4.1573647E-2,7.0933623E0,1.2720068E-1,-5.8037317E-1,-4.1512945E-1,-3.5888776E-1,2.3668995E-3,3.916041E-1,-9.156505E-2,-4.7003502E-1,-2.226186E-1,9.443727E-1,-2.4228758E-1,6.476419E-1,3.6688697E-1,1.6933222E-1,4.412843E-1,8.018408E-1,2.3660663E-1,-3.956124E-1,-1.6289845E-1,1.0824167E-1,-6.1500855E-2,-4.8849645E-1,-1.1872358E-1,3.423542E-1,7.299813E-1,3.7414095E-1,2.9695667E-2,5.7647973E-1,1.1556998E0,6.974637E-1,2.811874E-1,1.5019073E0,7.1389705E-1,6.2111044E-1,3.2181495E-1,-4.7743234E-1,2.0723099E-1,6.198096E-1,1.6528827E-1],"split_indices":[2,34,64,64,0,3,3,1,4,0,0,0,1,64,2,2,3,1,1,10,19,1,21,64,2,4,1,64,18,0,0,64,0,58,1,58,0,1,0,1,0,4,64,17,0,1,0,0,0,40,2,0,28,0,3,23,0,0,0,0,0,0,0,0,0,0,0,0,0,0,0,0,0,0,0,0,0,0,0,0,0,0,0,0,0,0,0,0,0,0,0,0,0,0,0],"split_type":[0,0,0,0,0,0,0,0,0,0,0,0,0,0,0,0,0,0,0,0,0,0,0,0,0,0,0,0,0,0,0,0,0,0,0,0,0,0,0,0,0,0,0,0,0,0,0,0,0,0,0,0,0,0,0,0,0,0,0,0,0,0,0,0,0,0,0,0,0,0,0,0,0,0,0,0,0,0,0,0,0,0,0,0,0,0,0,0,0,0,0,0,0,0,0],"sum_hessian":[2.1894111E3,1.1574325E3,1.0319785E3,9.8724396E2,1.7018855E2,4.4344925E2,5.885293E2,2.3548666E2,7.5175726E2,9.774608E1,7.244248E1,1.4448017E0,4.4200443E2,3.8893915E2,1.9959015E2,6.5409096E1,1.7007756E2,2.7189648E2,4.7986078E2,3.5683796E1,6.2062283E1,4.0131416E1,3.231106E1,4.3919647E2,2.8079586E0,3.3628864E2,5.2650513E1,1.5976205E2,3.9828106E1,3.0877567E1,3.453153E1,1.4808519E2,2.1992382E1,1.0843576E2,1.6346072E2,4.5096857E2,2.8892221E1,2.9736498E1,5.9472995E0,5.4686363E1,7.3759184E0,3.345512E1,6.676297E0,3.029162E1,2.0194414E0,1.887432E1,4.2032217E2,1.6626701E0,1.1452885E0,1.6653693E2,1.697517E2,3.654139E1,1.6109127E1,4.166178E1,1.18100266E2,3.8238262E1,1.5898428E0,6.043627E1,8.764891E1,8.507504E1,2.3360712E1,1.5971486E1,1.4748923E2,3.785228E2,7.244577E1,6.033856E0,2.2858366E1,2.3789198E1,5.9472995E0,4.648515E1,8.201213E0,4.3589907E0,3.016928E0,1.6286534E0,3.1826468E1,4.4336586E0,2.2426388E0,2.8272179E1,2.0194414E0,4.952688E0,1.3921631E1,6.661609E1,3.5370605E2,1.20952774E2,4.5584152E1,4.6131252E1,1.23620445E2,1.2229628E1,3.8794994E0,1.3389601E1,2.8272179E1,1.3743462E1,1.04356804E2,3.7092976E1,1.1452885E0],"tree_param":{"num_deleted":"0","num_feature":"65","num_nodes":"95","size_leaf_vector":"1"}},{"base_weights":[1.948939E-2,-6.2867576E-1,9.6588707E-1,-1.0432159E0,-1.3962421E-1,1.3054719E0,4.4483972E-1,-1.2165692E0,-2.1937239E-1,1.0245409E0,-2.7012876E-1,9.4582844E-1,2.1008375E0,2.9091245E-1,1.7877603E0,-1.8928553E-3,-1.2869083E0,8.996109E-2,-1.5225731E0,-4.9404487E-2,1.722334E0,4.514978E0,-3.0359343E-1,1.195936E0,2.6806754E-1,4.7419853E0,1.6288065E0,1.2132762E-1,1.9287847E0,1.9669654E0,7.766744E-1,-2.1553105E-1,6.1706823E-1,-9.547746E-1,-1.5929327E0,-9.9592465E-1,2.6729548E-1,-1.686843E0,-1.9951247E-1,-1.8582398E-1,9.084642E-2,1.445265E0,8.1007165E-1,1.6939448E0,4.2781147E-1,-7.892986E-1,-4.361312E-2,1.1336128E0,2.6727018E0,5.0188744E-1,-1.1463914E0,9.1441756E-1,1.534467E0,2.6533463E0,1.1679537E0,1.4807404E0,-2.4650665E-2,1.2923532E0,8.00161E-1,2.0802996E0,1.6874419E-1,4.373017E-2,3.17182E-1,-1.21403776E-1,4.436997E-1,-3.3759406E-1,2.7720837E-3,-5.845657E-1,-3.7191933E-1,-2.1945007E-1,-4.3327412E-1,2.2547276E-1,-3.175014E-2,-5.2572936E-1,-1.03746586E-1,-2.2160409E-2,-8.130968E-2,8.213654E-3,4.2371247E-2,2.1109013E-1,4.7844267E-1,-1.7094707E-1,-4.2286676E-1,1.2018622E-1,-1.0400867E-1,2.7087638E-1,4.8078412E-1,1.059839E-1,7.9027444E-1,-3.6904937E-1,-2.4302643E-2,6.66275E-1,1.1059241E0,1.2142172E-1,4.122282E-1,2.2272578E-1,4.9226514E-1,1.0203333E-2,-7.325146E-1,4.336385E-1,1.518802E-1,6.5384614E-1,2.5919318E-1],"categories":[],"categories_nodes":[],"categories_segments":[],"categories_sizes":[],"default_left":[0,0,0,0,0,0,0,0,0,0,0,0,0,0,0,0,0,0,0,0,0,0,0,0,0,0,0,0,0,0,0,0,0,0,0,0,0,0,0,0,0,0,0,0,0,0,0,0,0,0,0,0,0,0,0,0,0,0,0,0,0,0,0,0,0,0,0,0,0,0,0,0,0,0,0,0,0,0,0,0,0,0,0,0,0,0,0,0,0,0,0,0,0,0,0,0,0,0,0,0,0,0,0],"id":7,"left_children":[1,3,5,7,9,11,13,15,17,19,21,23,25,27,29,31,33,35,37,39,41,43,45,47,49,51,53,55,57,59,61,63,-1,65,67,69,71,73,-1,75,77,79,-1,-1,-1,81,83,85,-1,87,89,-1,-1,91,93,95,97,99,-1,101,-1,-1,-1,-1,-1,-1,-1,-1,-1,-1,-1,-1,-1,-1,-1,-1,-1,-1,-1,-1,-1,-1,-1,-1,-1,-1,-1,-1,-1,-1,-1,-1,-1,-1,-1,-1,-1,-1,-1,-1,-1,-1,-1],"loss_changes":[1.3442534E3,2.6353687E2,1.5703058E2,1.0024646E2,9.110775E1,1.521278E2,7.244732E1,4.9657227E1,4.9950325E1,4.540306E1,8.7582436E1,6.2878967E1,2.0040393E2,8.806126E1,5.014267E0,1.4877273E1,5.4321716E1,1.9678371E1,2.2251778E0,4.9117213E-1,6.036812E0,5.2364883E0,6.7594894E1,1.2067343E2,3.4238697E1,6.817627E-2,6.4492615E1,5.74122E1,1.0538132E1,3.6078186E0,1.1007466E0,1.0418092E1,0E0,4.37352E1,3.3312683E1,6.462736E-1,1.5880791E1,1.0905609E0,0E0,1.0298842E-1,3.737255E-2,2.286705E0,0E0,0E0,0E0,2.460817E1,4.7250416E1,2.7874664E1,0E0,2.6968573E1,1.2162094E0,0E0,0E0,1.1302643E1,1.5259415E1,2.0986862E0,3.7242287E1,1.4253597E0,0E0,1.4232101E0,0E0,0E0,0E0,0E0,0E0,0E0,0E0,0E0,0E0,0E0,0E0,0E0,0E0,0E0,0E0,0E0,0E0,0E0,0E0,0E0,0E0,0E0,0E0,0E0,0E0,0E0,0E0,0E0,0E0,0E0,0E0,0E0,0E0,0E0,0E0,0E0,0E0,0E0,0E0,0E0,0E0,0E0,0E0],"parents":[2147483647,0,0,1,1,2,2,3,3,4,4,5,5,6,6,7,7,8,8,9,9,10,10,11,11,12,12,13,13,14,14,15,15,16,16,17,17,18,18,19,19,20,20,21,21,22,22,23,23,24,24,25,25,26,26,27,27,28,28,29,29,30,30,31,31,33,33,34,34,35,35,36,36,37,37,39,39,40,40,41,41,45,45,46,46,47,47,49,49,50,50,53,53,54,54,55,55,56,56,57,57,59,59],"right_children":[2,4,6,8,10,12,14,16,18,20,22,24,26,28,30,32,34,36,38,40,42,44,46,48,50,52,54,56,58,60,62,64,-1,66,68,70,72,74,-1,76,78,80,-1,-1,-1,82,84,86,-1,88,90,-1,-1,92,94,96,98,100,-1,102,-1,-1,-1,-1,-1,-1,-1,-1,-1,-1,-1,-1,-1,-1,-1,-1,-1,-1,-1,-1,-1,-1,-1,-1,-1,-1,-1,-1,-1,-1,-1,-1,-1,-1,-1,-1,-1,-1,-1,-1,-1,-1,-1],"split_conditions":[5.243849E-1,-6.9995147E-1,2.0569406E-1,4.4270296E0,-2.0878196E0,1.1088773E0,1.1782781E0,-1.0848488E0,7.1929246E-1,-5.790156E-1,-1.7905936E0,1.0701815E0,-2.0878196E0,4.9209266E0,1.8194274E0,6.386369E0,-1.3860415E0,-1.4537371E0,1.0311085E0,2.763911E-1,3.7111626E0,1.751446E-2,-4.3200788E-1,2.6658754E0,-1.3362733E-1,-1.1295084E0,-9.723387E-1,3.9743835E-1,2.2462349E-1,3.7111626E0,-6.036584E-1,3.7111626E0,6.1706823E-1,4.1433926E0,3.934991E-2,7.5166065E-1,-3.402725E-1,3.964125E0,-1.9951247E-1,-9.442348E-1,2.8184032E-1,-1.5218525E0,8.1007165E-1,1.6939448E0,4.2781147E-1,4.129837E0,-6.842636E-1,1.810297E-1,2.6727018E0,4.1708784E0,4.1708784E0,9.1441756E-1,1.534467E0,8.0496573E-1,-1.7369306E0,-1.3801726E0,1.8435937E0,4.0638614E0,8.00161E-1,4.0638614E0,1.6874419E-1,4.373017E-2,3.17182E-1,-1.21403776E-1,4.436997E-1,-3.3759406E-1,2.7720837E-3,-5.845657E-1,-3.7191933E-1,-2.1945007E-1,-4.3327412E-1,2.2547276E-1,-3.175014E-2,-5.2572936E-1,-1.03746586E-1,-2.2160409E-2,-8.130968E-2,8.213654E-3,4.2371247E-2,2.1109013E-1,4.7844267E-1,-1.7094707E-1,-4.2286676E-1,1.2018622E-1,-1.0400867E-1,2.7087638E-1,4.8078412E-1,1.059839E-1,7.9027444E-1,-3.6904937E-1,-2.4302643E-2,6.66275E-1,1.1059241E0,1.2142172E-1,4.122282E-1,2.2272578E-1,4.9226514E-1,1.0203333E-2,-7.325146E-1,4.336385E-1,1.518802E-1,6.5384614E-1,2.5919318E-1],"split_indices":[64,2,4,58,0,2,64,3,0,2,3,0,0,56,64,31,0,1,1,1,10,0,1,1,3,1,3,62,1,10,1,15,0,6,1,4,4,24,0,1,1,1,0,0,0,43,0,1,0,13,13,0,0,1,0,1,4,30,0,30,0,0,0,0,0,0,0,0,0,0,0,0,0,0,0,0,0,0,0,0,0,0,0,0,0,0,0,0,0,0,0,0,0,0,0,0,0,0,0,0,0,0,0],"split_type":[0,0,0,0,0,0,0,0,0,0,0,0,0,0,0,0,0,0,0,0,0,0,0,0,0,0,0,0,0,0,0,0,0,0,0,0,0,0,0,0,0,0,0,0,0,0,0,0,0,0,0,0,0,0,0,0,0,0,0,0,0,0,0,0,0,0,0,0,0,0,0,0,0,0,0,0,0,0,0,0,0,0,0,0,0,0,0,0,0,0,0,0,0,0,0,0,0,0,0,0,0,0,0],"sum_hessian":[2.1894111E3,1.2996486E3,8.897625E2,7.027964E2,5.968521E2,5.377721E2,3.5199042E2,5.8022797E2,1.2256843E2,5.9472996E1,5.373791E2,3.7182965E2,1.6594244E2,3.1688525E2,3.5105164E1,3.181669E1,5.484113E2,9.9808426E1,2.276E1,2.3789198E1,3.5683796E1,2.802013E0,5.345771E2,2.7104425E2,1.00785385E2,2.3789198E1,1.4215324E2,2.8812677E2,2.875849E1,2.9016815E1,6.08835E0,2.9636639E1,2.1800518E0,2.6496262E2,2.834487E2,1.336337E1,8.644506E1,1.8289371E1,4.4706287E0,1.1894599E1,1.1894599E1,2.9736498E1,5.9472995E0,1.4448017E0,1.3572111E0,1.8566837E2,3.4890872E2,2.700095E2,1.0347633E0,8.704192E1,1.3743462E1,5.9472995E0,1.7841898E1,4.262794E1,9.952531E1,2.7053097E1,2.6107367E2,1.6922989E1,1.1835501E1,2.6404903E1,2.6119118E0,2.3420033E0,3.7463465E0,2.7345448E1,2.2911904E0,2.2499295E2,3.9969654E1,1.3899019E2,1.444585E2,1.0060965E1,3.3024056E0,3.7177956E1,4.92671E1,1.7144083E1,1.1452885E0,5.9472995E0,5.9472995E0,5.9472995E0,5.9472995E0,5.9472995E0,2.3789198E1,1.3855872E2,4.7109642E1,1.4137329E2,2.0753543E2,1.8294699E2,8.706251E1,8.246077E1,4.581154E0,1.2598173E1,1.1452885E0,3.226995E1,1.0357988E1,2.1794952E1,7.7730354E1,5.8265343E0,2.1226562E1,2.5585016E2,5.2235136E0,1.3462121E1,3.4608686E0,2.3681852E1,2.7230504E0],"tree_param":{"num_deleted":"0","num_feature":"65","num_nodes":"103","size_leaf_vector":"1"}},{"base_weights":[1.951115E-2,-5.280946E-1,6.0119176E-1,-6.6899806E-1,2.6400015E-1,2.3433025E-1,8.9520067E-1,-1.3221924E0,-5.741166E-1,7.3161095E-1,-7.04164E-1,1.2954922E0,1.2096886E-1,1.0118108E0,7.628113E-2,-1.4129888E0,-1.192541E-1,-9.616688E-1,-4.1861776E-1,1.0734098E0,2.5503716E-1,-3.2737744E-1,-9.5395076E-1,1.393624E0,1.0809424E0,8.826207E-2,3.7535865E0,3.6490926E-1,1.1590979E0,-6.1357963E-1,7.975862E-1,1.0686471E-1,-1.4803091E0,-9.775267E-2,2.1279311E-1,-1.0073847E0,7.2798735E-1,-1.4993371E-1,-6.394814E-1,1.4456975E-1,1.2293692E0,1.6406958E-1,4.9695742E-1,-3.2484156E-1,-2.1318415E-1,-9.944366E-1,-6.5533176E-2,1.3216469E0,8.616231E-1,-3.4704608E-1,2.3513427E-1,1.5196099E0,1.1272643E-1,5.5294216E-1,-1.757499E-1,2.136601E0,1.0868161E0,-9.044024E-1,-4.0533412E-1,2.96353E-1,1.6594622E0,4.4598553E-1,-6.521816E-1,-2.2928472E-1,-4.7254857E-1,-1.8354904E-2,1.0411831E-1,-3.0858034E-1,5.280976E-1,3.9414656E-1,-1.10437155E-1,-6.371855E-2,6.7040914E-1,2.76222E-1,-2.0682152E-1,4.1296116E-1,1.7130409E-1,1.295773E-2,1.5032028E-1,-9.291172E-2,1.1171983E-1,-3.1127578E-1,-7.403366E-2,2.9422706E-1,-2.8738537E-1,-4.5847204E-1,-5.5486362E-2,8.115738E-2,-4.8725843E-1,4.2257994E-1,1.03340976E-1,-8.864969E-4,-1.6515464E-1,2.8956744E-1,7.579495E-1,4.2781386E-1,2.710159E-1,-3.1122202E-1,-5.607289E-3,3.129667E-2,-1.3929452E-1,4.8276737E-1,3.1823315E-2,2.661966E-1,5.5100244E-1],"categories":[],"categories_nodes":[],"categories_segments":[],"categories_sizes":[],"default_left":[0,0,0,0,0,0,0,0,0,0,0,0,0,0,0,0,0,0,0,0,0,0,0,0,0,0,0,0,0,0,0,0,0,0,0,0,0,0,0,0,0,0,0,0,0,0,0,0,0,0,0,0,0,0,0,0,0,0,0,0,0,0,0,0,0,0,0,0,0,0,0,0,0,0,0,0,0,0,0,0,0,0,0,0,0,0,0,0,0,0,0,0,0,0,0,0,0,0,0,0,0,0,0,0,0],"id":8,"left_children":[1,3,5,7,9,11,13,15,17,19,21,23,25,27,29,31,33,35,37,39,41,43,45,-1,47,49,51,53,55,57,59,61,63,-1,65,67,69,71,73,-1,75,77,-1,-1,79,81,-1,-1,83,85,87,-1,-1,89,91,93,95,97,99,101,103,-1,-1,-1,-1,-1,-1,-1,-1,-1,-1,-1,-1,-1,-1,-1,-1,-1,-1,-1,-1,-1,-1,-1,-1,-1,-1,-1,-1,-1,-1,-1,-1,-1,-1,-1,-1,-1,-1,-1,-1,-1,-1,-1,-1],"loss_changes":[6.980326E2,1.2615906E2,1.1440576E2,5.865085E1,7.8016335E1,5.687473E1,5.6219635E1,1.3027222E1,5.014563E1,1.8609604E1,4.982975E0,2.7792282E1,5.069124E1,4.873816E1,3.759247E1,1.1642639E1,7.258911E-1,1.9226227E1,3.5531784E1,5.606598E0,6.06812E0,1.8353858E0,7.7470016E-1,0E0,2.8439735E1,2.73583E1,1.4969616E1,9.973454E0,2.7340454E1,1.9758472E0,1.5443039E1,2.1149021E1,6.1006927E0,0E0,1.785272E-1,1.5523163E1,4.9062967E0,4.10136E1,2.6276978E1,0E0,4.3036804E0,1.9258159E0,0E0,0E0,1.3617448E0,7.5343895E-1,0E0,0E0,1.0199543E1,2.0401882E1,2.1469725E1,0E0,0E0,1.2415503E1,1.6708763E0,1.0290382E1,2.316275E1,1.7861729E0,7.804303E-1,5.9595633E0,1.9646454E-1,0E0,0E0,0E0,0E0,0E0,0E0,0E0,0E0,0E0,0E0,0E0,0E0,0E0,0E0,0E0,0E0,0E0,0E0,0E0,0E0,0E0,0E0,0E0,0E0,0E0,0E0,0E0,0E0,0E0,0E0,0E0,0E0,0E0,0E0,0E0,0E0,0E0,0E0,0E0,0E0,0E0,0E0,0E0,0E0],"parents":[2147483647,0,0,1,1,2,2,3,3,4,4,5,5,6,6,7,7,8,8,9,9,10,10,11,11,12,12,13,13,14,14,15,15,16,16,17,17,18,18,19,19,20,20,21,21,22,22,24,24,25,25,26,26,27,27,28,28,29,29,30,30,31,31,32,32,34,34,35,35,36,36,37,37,38,38,40,40,41,41,44,44,45,45,48,48,49,49,50,50,53,53,54,54,55,55,56,56,57,57,58,58,59,59,60,60],"right_children":[2,4,6,8,10,12,14,16,18,20,22,24,26,28,30,32,34,36,38,40,42,44,46,-1,48,50,52,54,56,58,60,62,64,-1,66,68,70,72,74,-1,76,78,-1,-1,80,82,-1,-1,84,86,88,-1,-1,90,92,94,96,98,100,102,104,-1,-1,-1,-1,-1,-1,-1,-1,-1,-1,-1,-1,-1,-1,-1,-1,-1,-1,-1,-1,-1,-1,-1,-1,-1,-1,-1,-1,-1,-1,-1,-1,-1,-1,-1,-1,-1,-1,-1,-1,-1,-1,-1,-1],"split_conditions":[-1.5476471E-1,4.655579E0,6.688632E-1,-1.1485807E0,-5.8906025E-1,3.9743835E-1,4.698357E-1,5.9254627E0,-1.1233689E0,-1.7369306E0,1.0701815E0,2.0540993E-1,2.6658754E0,-9.905532E-1,1.1797152E0,-1.0848488E0,4.184813E0,6.386369E0,-1.3860415E0,-4.2928326E-1,4.0768228E0,-8.8623905E-1,4.3163495E0,1.393624E0,-8.8623905E-1,-7.04469E-1,5.48898E-1,5.780291E0,3.9743835E-1,-6.9684847E-3,7.05084E-1,6.4336076E0,-8.8623905E-1,-9.775267E-2,1.4210705E0,1.6276028E1,6.0280216E-1,1.0774269E0,-1.4223789E0,1.4456975E-1,3.964125E0,2.0569406E-1,4.9695742E-1,-3.2484156E-1,1.1673391E0,1.4419728E1,-6.5533176E-2,1.3216469E0,4.511138E0,-1.1359897E0,1.8435937E0,1.5196099E0,1.1272643E-1,-8.8623905E-1,-1.3860415E0,-1.2140217E-1,-3.402725E-1,4.1433926E0,3.6840346E-1,7.1929246E-1,-4.2928326E-1,4.4598553E-1,-6.521816E-1,-2.2928472E-1,-4.7254857E-1,-1.8354904E-2,1.0411831E-1,-3.0858034E-1,5.280976E-1,3.9414656E-1,-1.10437155E-1,-6.371855E-2,6.7040914E-1,2.76222E-1,-2.0682152E-1,4.1296116E-1,1.7130409E-1,1.295773E-2,1.5032028E-1,-9.291172E-2,1.1171983E-1,-3.1127578E-1,-7.403366E-2,2.9422706E-1,-2.8738537E-1,-4.5847204E-1,-5.5486362E-2,8.115738E-2,-4.8725843E-1,4.2257994E-1,1.03340976E-1,-8.864969E-4,-1.6515464E-1,2.8956744E-1,7.579495E-1,4.2781386E-1,2.710159E-1,-3.1122202E-1,-5.607289E-3,3.129667E-2,-1.3929452E-1,4.8276737E-1,3.1823315E-2,2.661966E-1,5.5100244E-1],"split_indices":[64,34,64,1,64,62,3,44,2,0,0,2,1,1,2,3,18,31,0,1,28,4,21,0,4,1,2,54,62,1,3,61,4,0,0,11,3,1,3,0,24,4,0,0,1,17,0,0,25,3,4,0,0,4,0,1,4,6,0,0,1,0,0,0,0,0,0,0,0,0,0,0,0,0,0,0,0,0,0,0,0,0,0,0,0,0,0,0,0,0,0,0,0,0,0,0,0,0,0,0,0,0,0,0,0],"split_type":[0,0,0,0,0,0,0,0,0,0,0,0,0,0,0,0,0,0,0,0,0,0,0,0,0,0,0,0,0,0,0,0,0,0,0,0,0,0,0,0,0,0,0,0,0,0,0,0,0,0,0,0,0,0,0,0,0,0,0,0,0,0,0,0,0,0,0,0,0,0,0,0,0,0,0,0,0,0,0,0,0,0,0,0,0,0,0,0,0,0,0,0,0,0,0,0,0,0,0,0,0,0,0,0,0],"sum_hessian":[2.1894111E3,1.1277844E3,1.0616266E3,9.575958E2,1.7018855E2,4.7309735E2,5.885293E2,1.19815125E2,8.377807E2,1.1492541E2,5.5263153E1,4.4655426E1,4.2844193E2,5.149652E2,7.3564064E1,1.1124394E2,8.571178E0,2.3840804E2,5.993727E2,6.619673E1,4.8728672E1,2.2952091E1,3.231106E1,1.4448017E0,4.3210625E1,4.2563397E2,2.8079586E0,9.614838E1,4.1881686E2,3.7677967E1,3.5886097E1,4.6935196E0,1.0655042E2,5.29531E0,3.2758684E0,2.3252068E2,5.8873596E0,2.711696E2,3.282031E2,1.4665281E1,5.1531452E1,4.6807564E1,1.9211112E0,1.9000957E0,2.1051996E1,3.029162E1,2.0194414E0,1.4929323E0,4.1717693E1,1.0703491E2,3.1859906E2,1.6626701E0,1.1452885E0,7.132123E1,2.4827143E1,2.6870787E1,3.9194608E2,1.4326919E1,2.3351051E1,2.3540003E1,1.2346095E1,3.1413743E0,1.552145E0,1.35232525E1,9.3027176E1,1.256427E0,2.0194414E0,2.3137538E2,1.1452885E0,3.7073076E0,2.1800518E0,2.651357E2,6.033856E0,9.635318E0,3.1856778E2,4.122516E1,1.030629E1,3.5280895E1,1.1526668E1,1.8477474E1,2.5745208E0,2.8272179E1,2.0194414E0,3.9586807E1,2.1308868E0,1.1898666E1,9.5136246E1,3.1348666E2,5.1123753E0,1.2844646E1,5.8476585E1,1.7682209E1,7.1449347E0,7.5784073E0,1.929238E1,1.3517769E2,2.5676837E2,1.2307477E1,2.0194414E0,2.3423102E0,2.100874E1,2.0358167E0,2.1504187E1,3.4259317E0,8.920163E0],"tree_param":{"num_deleted":"0","num_feature":"65","num_nodes":"105","size_leaf_vector":"1"}},{"base_weights":[1.7009538E-2,-3.8930452E-1,4.1487744E-1,-4.9709433E-1,1.8849367E-1,3.3636948E-1,1.1467212E0,-5.803524E-1,-2.7585363E-2,5.241101E-1,-5.0636536E-1,5.2893585E-1,2.5512494E-2,1.0550323E0,9.2284644E-1,-2.5802338E-1,-7.551732E-1,2.6422113E-1,-1.1928914E0,7.6223177E-1,1.9180457E-1,-2.4194136E-1,-6.812965E-1,5.0656617E-1,2.1163962E0,-4.7034702E-1,1.3505225E-1,7.370617E-1,1.257465E0,-5.674744E-1,-1.0747601E-2,-8.258431E-1,1.9133094E-1,2.53552E-2,5.2666483E0,8.616123E-2,-1.5702537E0,6.7976946E-1,4.760771E-1,1.1826585E-1,3.9890835E-1,-2.6099175E-1,-1.4837651E-1,-7.121687E-1,-4.071599E-2,-3.3053175E-2,6.5219647E-1,-2.9077974E-1,-1.0086462E0,1.9281211E-1,-1.05574E0,-7.369643E-2,9.3252414E-1,1.3026744E0,2.1242009E-1,-3.2764935E-1,-8.089258E-2,-7.5911954E-2,4.8544413E-1,-4.799674E-1,-2.3093572E-1,1.3693507E-1,2.684058E-3,1.5198383E-1,-5.027558E-2,1.9128574E0,1.7182516E-1,7.061317E-2,-6.395048E-2,-7.7081937E-1,-1.4067212E-1,2.782501E-1,9.601858E-2,5.6270164E-2,-9.199474E-2,-2.1475513E-2,-2.1304739E-1,-2.6077867E-1,-1.4611949E-1,2.6754932E-2,-3.3840546E-1,1.3217039E0,1.9061254E-1,-9.638036E-2,8.2126506E-2,-3.1525797E-1,-6.7749E-2,1.302047E-1,-1.5738595E-2,-3.3332953E-1,-6.381688E-2,1.7325018E-1,-8.228371E-2,5.5415905E-1,2.3150551E-1,5.245252E-1,3.3837736E-1,9.11884E-2,5.6085835E-4],"categories":[],"categories_nodes":[],"categories_segments":[],"categories_sizes":[],"default_left":[0,0,0,0,0,0,0,0,0,0,0,0,0,0,0,0,0,0,0,0,0,0,0,0,0,0,0,0,0,0,0,0,0,0,0,0,0,0,0,0,0,0,0,0,0,0,0,0,0,0,0,0,0,0,0,0,0,0,0,0,0,0,0,0,0,0,0,0,0,0,0,0,0,0,0,0,0,0,0,0,0,0,0,0,0,0,0,0,0,0,0,0,0,0,0,0,0,0,0],"id":9,"left_children":[1,3,5,7,9,11,13,15,17,19,21,23,25,27,-1,29,31,33,35,37,39,41,43,45,-1,47,49,51,53,55,57,59,61,63,65,67,69,71,-1,73,-1,-1,75,77,-1,79,81,83,85,87,89,91,93,95,97,-1,-1,-1,-1,-1,-1,-1,-1,-1,-1,-1,-1,-1,-1,-1,-1,-1,-1,-1,-1,-1,-1,-1,-1,-1,-1,-1,-1,-1,-1,-1,-1,-1,-1,-1,-1,-1,-1,-1,-1,-1,-1,-1,-1],"loss_changes":[3.542619E2,6.761963E1,6.3228638E1,3.5713852E1,4.0187603E1,5.9927406E1,1.5657379E1,4.3549957E1,4.748662E1,9.02688E0,2.4376764E0,8.667943E1,2.0925201E1,5.736885E0,0E0,2.099895E1,3.3790253E1,1.3340881E2,1.3631702E1,3.4910393E0,4.0039864E0,1.2783805E0,4.64406E-1,4.852646E1,0E0,6.4456425E0,2.189404E1,6.83346E0,2.644928E0,1.8755543E1,6.1030575E1,1.9077942E1,1.7243147E0,1.00825815E1,2.2849167E1,3.7704486E-1,2.2612251E1,5.3026524E0,0E0,1.4653156E0,0E0,0E0,9.0048707E-1,6.8316174E-1,0E0,1.7784956E1,2.7892685E1,1.0119233E0,3.255825E-1,1.7866718E1,4.516945E-1,1.3625572E0,3.6453362E0,2.6298447E0,7.1884856E-2,0E0,0E0,0E0,0E0,0E0,0E0,0E0,0E0,0E0,0E0,0E0,0E0,0E0,0E0,0E0,0E0,0E0,0E0,0E0,0E0,0E0,0E0,0E0,0E0,0E0,0E0,0E0,0E0,0E0,0E0,0E0,0E0,0E0,0E0,0E0,0E0,0E0,0E0,0E0,0E0,0E0,0E0,0E0,0E0],"parents":[2147483647,0,0,1,1,2,2,3,3,4,4,5,5,6,6,7,7,8,8,9,9,10,10,11,11,12,12,13,13,15,15,16,16,17,17,18,18,19,19,20,20,21,21,22,22,23,23,25,25,26,26,27,27,28,28,29,29,30,30,31,31,32,32,33,33,34,34,35,35,36,36,37,37,39,39,42,42,43,43,45,45,46,46,47,47,48,48,49,49,50,50,51,51,52,52,53,53,54,54],"right_children":[2,4,6,8,10,12,14,16,18,20,22,24,26,28,-1,30,32,34,36,38,40,42,44,46,-1,48,50,52,54,56,58,60,62,64,66,68,70,72,-1,74,-1,-1,76,78,-1,80,82,84,86,88,90,92,94,96,98,-1,-1,-1,-1,-1,-1,-1,-1,-1,-1,-1,-1,-1,-1,-1,-1,-1,-1,-1,-1,-1,-1,-1,-1,-1,-1,-1,-1,-1,-1,-1,-1,-1,-1,-1,-1,-1,-1,-1,-1,-1,-1,-1,-1],"split_conditions":[-4.5237958E-1,4.655579E0,1.604932E0,8.485595E-1,-5.8906025E-1,1.0701815E0,1.9847225E0,-1.7369306E0,-6.3421315E-1,-1.7369306E0,1.0701815E0,2.6658754E0,2.258658E-1,-1.540975E-1,9.2284644E-1,-1.1419299E0,5.9254627E0,-6.278824E-1,-3.402725E-1,4.198878E0,4.0768228E0,-8.8623905E-1,4.331687E0,-9.905532E-1,2.1163962E0,1.5142918E-1,4.9209266E0,-3.402725E-1,4.511138E0,-4.3200788E-1,4.1433926E0,-1.6903986E0,2.0569406E-1,1.0311085E0,-1.3860415E0,-1.7369306E0,-4.7070348E-1,-2.0878196E0,4.760771E-1,3.7111626E0,3.9890835E-1,-2.6099175E-1,4.198878E0,3.96274E-1,-4.071599E-2,1.0808984E0,-1.8826473E0,6.386369E0,1.6276028E1,1.4210705E0,4.1708784E0,7.1929246E-1,3.9743835E-1,3.9743835E-1,2.930775E0,-3.2764935E-1,-8.089258E-2,-7.5911954E-2,4.8544413E-1,-4.799674E-1,-2.3093572E-1,1.3693507E-1,2.684058E-3,1.5198383E-1,-5.027558E-2,1.9128574E0,1.7182516E-1,7.061317E-2,-6.395048E-2,-7.7081937E-1,-1.4067212E-1,2.782501E-1,9.601858E-2,5.6270164E-2,-9.199474E-2,-2.1475513E-2,-2.1304739E-1,-2.6077867E-1,-1.4611949E-1,2.6754932E-2,-3.3840546E-1,1.3217039E0,1.9061254E-1,-9.638036E-2,8.2126506E-2,-3.1525797E-1,-6.7749E-2,1.302047E-1,-1.5738595E-2,-3.3332953E-1,-6.381688E-2,1.7325018E-1,-8.228371E-2,5.5415905E-1,2.3150551E-1,5.245252E-1,3.3837736E-1,9.11884E-2,5.6085835E-4],"split_indices":[64,34,2,1,64,0,1,0,64,0,0,1,2,1,0,64,44,2,4,19,28,4,16,1,0,2,56,4,20,1,6,64,4,1,0,0,64,0,0,10,0,0,19,1,0,64,3,31,11,0,13,0,62,62,2,0,0,0,0,0,0,0,0,0,0,0,0,0,0,0,0,0,0,0,0,0,0,0,0,0,0,0,0,0,0,0,0,0,0,0,0,0,0,0,0,0,0,0,0],"split_type":[0,0,0,0,0,0,0,0,0,0,0,0,0,0,0,0,0,0,0,0,0,0,0,0,0,0,0,0,0,0,0,0,0,0,0,0,0,0,0,0,0,0,0,0,0,0,0,0,0,0,0,0,0,0,0,0,0,0,0,0,0,0,0,0,0,0,0,0,0,0,0,0,0,0,0,0,0,0,0,0,0,0,0,0,0,0,0,0,0,0,0,0,0,0,0,0,0,0,0],"sum_hessian":[2.1894111E3,1.0832188E3,1.1061924E3,9.1303015E2,1.7018855E2,1.0003411E3,1.058512E2,7.7530853E2,1.377216E2,1.1492541E2,5.5263153E1,6.172636E2,3.830775E2,1.02525856E2,3.3253403E0,2.735049E2,5.0180362E2,1.1075939E2,2.6962212E1,6.619673E1,4.8728672E1,2.2952091E1,3.231106E1,6.162289E2,1.0347633E0,6.871731E1,3.143602E2,4.168705E1,6.0838802E1,1.209048E2,1.5260011E2,4.670586E2,3.474503E1,1.0667093E2,4.0884686E0,6.318299E0,2.0643911E1,6.183774E1,4.3589907E0,4.6807564E1,1.9211112E0,1.9000957E0,2.1051996E1,3.029162E1,2.0194414E0,1.3112617E2,4.851027E2,5.268327E1,1.6034039E1,3.0061673E2,1.3743462E1,8.218894E0,3.346816E1,5.80797E1,2.7591004E0,4.281347E1,7.809133E1,1.3357584E2,1.9024271E1,2.968089E1,4.3737772E2,1.3548221E1,2.1196808E1,3.0061592E1,7.660934E1,3.016928E0,1.0715408E0,4.3589907E0,1.9593084E0,1.0125278E1,1.0518634E1,3.5683796E1,2.6153944E1,4.0724236E1,6.083328E0,1.9512238E1,1.5397575E0,1.615553E1,1.4136089E1,1.1878426E2,1.2341914E1,1.0002474E0,4.8410245E2,5.0392693E1,2.290577E0,1.488875E1,1.1452885E0,1.5117807E2,1.4943866E2,1.2598173E1,1.1452885E0,1.4929323E0,6.7259617E0,3.4370925E0,3.0031065E1,1.382089E1,4.4258812E1,1.6138119E0,1.1452885E0],"tree_param":{"num_deleted":"0","num_feature":"65","num_nodes":"99","size_leaf_vector":"1"}},{"base_weights":[1.4816074E-2,-2.0474091E-1,3.838811E-1,-3.7818965E-1,-2.5962884E-2,5.3511673E-1,1.259132E-1,-3.470865E-1,-1.8773285E0,-4.0351328E-2,3.038642E0,3.3328405E-1,9.53893E-1,2.747192E-1,-4.6602342E-1,-4.15943E-1,1.1042086E-1,-6.099349E-1,-1.5909341E-1,9.4668347E-1,-5.2055955E-2,1.916269E0,-4.662505E-1,4.1806912E-1,-5.836419E-1,2.865266E0,6.1624575E-1,-2.7931005E-1,5.7223463E-1,-1.0610616E0,-2.4391311E-1,-5.762158E-1,-2.564133E-1,-9.711819E-1,4.0507144E-1,-3.4168613E-1,6.0951743E-2,1.0553069E0,3.9250204E-1,2.4448895E-1,-8.104098E-1,3.1375353E0,5.1432323E-1,-6.153632E-2,8.0294937E-1,-1.3454975E-1,-4.073584E0,4.7481647E-1,1.6460382E0,-5.7898945E-1,-4.0690053E-1,4.3717837E-3,-3.6036652E-1,5.80145E-1,-1.8215343E-1,-6.918269E-2,-3.4754092E-1,-1.8566965E-1,-4.191014E-1,1.8302324E0,-1.6286897E-2,-6.524004E-2,-2.1684365E-1,9.044416E-2,-3.896334E-2,6.513894E-2,2.095007E-1,-2.0773858E-3,1.3090003E-1,-2.590254E-1,-1.1709697E-1,5.641812E-1,1.0714254E0,-2.6439908E-1,1.381941E-1,3.3215633E-1,1.2608796E-1,2.1651836E-1,-1.11302614E-1,-2.2660058E0,4.9082074E-1,1.6899756E-1,-1.3758175E-1,5.414237E-1,1.03752196E-1,-1.8014123E-1,9.236365E-2,-5.4694522E-2,1.815137E-1,-1.2124518E-1,5.5035006E-2],"categories":[],"categories_nodes":[],"categories_segments":[],"categories_sizes":[],"default_left":[0,0,0,0,0,0,0,0,0,0,0,0,0,0,0,0,0,0,0,0,0,0,0,0,0,0,0,0,0,0,0,0,0,0,0,0,0,0,0,0,0,0,0,0,0,0,0,0,0,0,0,0,0,0,0,0,0,0,0,0,0,0,0,0,0,0,0,0,0,0,0,0,0,0,0,0,0,0,0,0,0,0,0,0,0,0,0,0,0,0,0],"id":10,"left_children":[1,3,5,7,9,11,13,15,17,19,21,23,25,27,29,31,33,-1,-1,-1,35,-1,-1,37,39,41,43,45,47,49,51,53,55,57,59,61,63,-1,65,67,69,71,-1,73,75,77,79,81,83,-1,85,87,89,-1,-1,-1,-1,-1,-1,-1,-1,-1,-1,-1,-1,-1,-1,-1,-1,-1,-1,-1,-1,-1,-1,-1,-1,-1,-1,-1,-1,-1,-1,-1,-1,-1,-1,-1,-1,-1,-1],"loss_changes":[1.7756935E2,4.2597435E1,3.182161E1,3.1863884E1,3.000559E1,4.320941E1,2.6852407E1,2.1605888E1,1.8485794E0,2.5433706E1,5.88396E1,2.737854E1,1.0597389E2,4.0226894E1,7.8454514E0,1.5067223E1,2.9177681E1,0E0,0E0,0E0,2.2082312E1,0E0,0E0,2.3984684E1,5.8243856E0,2.3884888E0,1.816465E1,4.6468185E1,1.5796543E1,8.518812E0,1.3301785E0,2.418158E1,6.716633E0,2.0802937E0,1.8789433E2,8.806395E0,2.2332964E1,0E0,1.6935448E1,3.507078E-1,1.9187927E-1,3.5591888E0,0E0,1.403859E1,1.2609352E1,1.7171892E1,7.418059E1,1.2378281E1,2.0122414E0,0E0,1.6522563E0,1.8662922E0,8.1921196E-1,0E0,0E0,0E0,0E0,0E0,0E0,0E0,0E0,0E0,0E0,0E0,0E0,0E0,0E0,0E0,0E0,0E0,0E0,0E0,0E0,0E0,0E0,0E0,0E0,0E0,0E0,0E0,0E0,0E0,0E0,0E0,0E0,0E0,0E0,0E0,0E0,0E0,0E0],"parents":[2147483647,0,0,1,1,2,2,3,3,4,4,5,5,6,6,7,7,8,8,9,9,10,10,11,11,12,12,13,13,14,14,15,15,16,16,20,20,23,23,24,24,25,25,26,26,27,27,28,28,29,29,30,30,31,31,32,32,33,33,34,34,35,35,36,36,38,38,39,39,40,40,41,41,43,43,44,44,45,45,46,46,47,47,48,48,50,50,51,51,52,52],"right_children":[2,4,6,8,10,12,14,16,18,20,22,24,26,28,30,32,34,-1,-1,-1,36,-1,-1,38,40,42,44,46,48,50,52,54,56,58,60,62,64,-1,66,68,70,72,-1,74,76,78,80,82,84,-1,86,88,90,-1,-1,-1,-1,-1,-1,-1,-1,-1,-1,-1,-1,-1,-1,-1,-1,-1,-1,-1,-1,-1,-1,-1,-1,-1,-1,-1,-1,-1,-1,-1,-1,-1,-1,-1,-1,-1,-1],"split_conditions":[5.440903E-1,3.934991E-2,2.0569406E-1,6.4336076E0,2.6658754E0,1.1088773E0,5.3995037E0,4.1433926E0,3.7111626E0,-1.7905936E0,1.0701815E0,-3.177347E-1,-2.0878196E0,6.52011E-1,-1.0351526E0,-9.8722994E-1,-1.1419299E0,-6.099349E-1,-1.5909341E-1,9.4668347E-1,-1.052531E0,1.916269E0,-4.662505E-1,5.565754E-1,6.5278727E-1,3.964125E0,-1.3860415E0,6.4779794E-1,4.0768228E0,-6.717737E-1,-3.3337456E-1,-1.0848488E0,5.48898E-1,-1.1832398E0,-1.1385945E0,2.0569406E-1,-6.842636E-1,1.0553069E0,1.810297E-1,2.9546338E-1,1.3716849E0,-1.1295084E0,5.1432323E-1,-9.333364E-1,2.345874E-1,3.9743835E-1,-6.0412395E-1,3.7111626E0,1.2976272E0,-5.7898945E-1,1.1128469E0,3.96274E-1,1.4419728E1,5.80145E-1,-1.8215343E-1,-6.918269E-2,-3.4754092E-1,-1.8566965E-1,-4.191014E-1,1.8302324E0,-1.6286897E-2,-6.524004E-2,-2.1684365E-1,9.044416E-2,-3.896334E-2,6.513894E-2,2.095007E-1,-2.0773858E-3,1.3090003E-1,-2.590254E-1,-1.1709697E-1,5.641812E-1,1.0714254E0,-2.6439908E-1,1.381941E-1,3.3215633E-1,1.2608796E-1,2.1651836E-1,-1.11302614E-1,-2.2660058E0,4.9082074E-1,1.6899756E-1,-1.3758175E-1,5.414237E-1,1.03752196E-1,-1.8014123E-1,9.236365E-2,-5.4694522E-2,1.815137E-1,-1.2124518E-1,5.5035006E-2],"split_indices":[64,1,4,61,1,2,40,6,15,3,0,3,0,64,0,64,64,0,0,0,2,0,0,64,2,24,0,64,28,1,0,3,2,64,64,4,0,0,1,1,1,1,0,1,3,62,3,10,4,0,1,1,17,0,0,0,0,0,0,0,0,0,0,0,0,0,0,0,0,0,0,0,0,0,0,0,0,0,0,0,0,0,0,0,0,0,0,0,0,0,0],"split_type":[0,0,0,0,0,0,0,0,0,0,0,0,0,0,0,0,0,0,0,0,0,0,0,0,0,0,0,0,0,0,0,0,0,0,0,0,0,0,0,0,0,0,0,0,0,0,0,0,0,0,0,0,0,0,0,0,0,0,0,0,0,0,0,0,0,0,0,0,0,0,0,0,0,0,0,0,0,0,0,0,0,0,0,0,0,0,0,0,0,0,0],"sum_hessian":[2.1894111E3,1.3730363E3,8.1637476E2,6.9633923E2,6.76697E2,5.139773E2,3.0239746E2,6.8339215E2,1.2947043E1,6.7451697E2,2.1800518E0,3.4803488E2,1.6594244E2,2.420778E2,6.0319653E1,5.9407294E2,8.931925E1,1.1148346E1,1.7986981E0,1.4811583E0,6.730358E2,1.0347633E0,1.1452885E0,3.1907513E2,2.8959759E1,2.3789198E1,1.4215324E2,8.4599304E1,1.574785E2,1.536889E1,4.4950764E1,2.950433E2,2.990296E2,1.8631336E1,7.068792E1,1.883319E2,4.8470392E2,1.4929323E0,3.1758218E2,6.20858E0,2.2751179E1,1.7841898E1,5.9472995E0,3.0845737E1,1.1130751E2,8.248767E1,2.1116333E0,1.4570221E2,1.1776288E1,5.763334E0,9.6055565E0,1.46591425E1,3.029162E1,2.8462698E0,2.9219702E2,2.9193414E2,7.0954633E0,1.1538748E1,7.092588E0,4.3589907E0,6.6328926E1,1.432224E2,4.5109486E1,2.1417268E2,2.7053125E2,2.0292825E2,1.1465393E2,3.10429E0,3.10429E0,1.9264921E1,3.4862573E0,5.9472995E0,1.1894599E1,1.1734909E1,1.9110828E1,6.0952557E1,5.0354954E1,1.7405548E1,6.508212E1,1.111386E0,1.0002474E0,1.334452E2,1.2257007E1,1.0149361E1,1.626927E0,7.684445E0,1.9211112E0,1.1714735E1,2.9444075E0,2.8272179E1,2.0194414E0],"tree_param":{"num_deleted":"0","num_feature":"65","num_nodes":"91","size_leaf_vector":"1"}},{"base_weights":[1.2449135E-2,-2.0343734E-1,2.2384484E-1,-6.6528045E-2,-4.3879408E-1,1.8999402E-1,8.9515024E-1,-1.4643028E-1,3.751431E-1,-1.6978753E0,-4.0054148E-1,3.8615048E-2,3.217471E-1,7.434293E-1,1.0432277E0,-2.2282693E-1,2.953437E-1,6.120369E-1,2.452458E-1,-1.2928679E0,-8.174503E-1,-2.6043147E-1,-8.0748767E-1,-1.3127546E-1,1.7412202E-1,6.16825E-1,2.3096949E-1,2.3453076E0,4.8866963E-1,-2.6042858E-1,8.3511597E-1,4.1667736E-1,-2.975997E-1,7.688513E-1,-5.095326E-2,1.517401E-1,9.127143E-1,-4.2023692E-1,-1.25969E-1,-3.2271218E-1,1.5991073E0,-1.19681E0,-3.9514926E-1,-8.5149664E-1,-5.551608E-2,2.0675898E0,1.11219995E-1,5.189884E-1,1.5020868E0,-4.1495353E-1,3.4371555E-1,1.1239175E0,2.1442503E-1,1.576747E0,2.2178572E-1,-2.539301E-1,-6.595432E-2,-1.07743904E-1,1.4614809E0,1.4070846E-1,-1.6012901E-2,2.7732024E-1,3.0946195E-2,3.2366898E-2,3.0235854E-1,3.3783507E-1,1.2023894E-1,-7.602895E-2,-4.0577587E-1,5.0824946E-1,1.3112634E-1,-4.8818648E-1,-2.374963E-1,-1.353214E-1,3.4752395E-2,-3.3608124E-1,5.131682E-1,-2.4542304E-2,2.711319E-1,1.7705919E0,-2.710136E-1,1.20889835E-1,-1.0553257E-2,6.369411E-2,2.4336405E-1,1.0471886E-1,-1.6646133E-1,6.2772477E-1,6.516452E-2,5.4351187E-1,6.257011E-2,2.360415E-2,2.5212243E-1],"categories":[],"categories_nodes":[],"categories_segments":[],"categories_sizes":[],"default_left":[0,0,0,0,0,0,0,0,0,0,0,0,0,0,0,0,0,0,0,0,0,0,0,0,0,0,0,0,0,0,0,0,0,0,0,0,0,0,0,0,0,0,0,0,0,0,0,0,0,0,0,0,0,0,0,0,0,0,0,0,0,0,0,0,0,0,0,0,0,0,0,0,0,0,0,0,0,0,0,0,0,0,0,0,0,0,0,0,0,0,0,0,0],"id":11,"left_children":[1,3,5,7,9,11,13,15,17,19,21,23,25,27,-1,29,31,33,35,37,-1,39,41,43,45,47,49,51,53,55,57,59,-1,61,-1,63,65,-1,-1,67,69,71,73,75,77,79,81,83,-1,85,87,-1,-1,89,91,-1,-1,-1,-1,-1,-1,-1,-1,-1,-1,-1,-1,-1,-1,-1,-1,-1,-1,-1,-1,-1,-1,-1,-1,-1,-1,-1,-1,-1,-1,-1,-1,-1,-1,-1,-1,-1,-1],"loss_changes":[1.0001036E2,3.4907078E1,2.4990047E1,2.4287212E1,1.8516167E1,2.1035381E1,1.8132793E1,1.971439E1,3.0954695E0,1.2366905E0,2.191949E1,1.1354346E1,1.4967648E1,1.9755823E1,0E0,1.9984982E1,1.3887573E1,4.6283913E0,4.217136E0,3.6425972E-1,0E0,3.4124557E1,1.5408371E1,1.1900503E1,3.2433617E1,5.4145695E1,3.1674706E1,1.2776661E1,1.2849582E1,1.1243389E1,8.511273E1,1.9822788E0,0E0,3.0873775E0,0E0,2.2343028E0,4.636798E-1,0E0,0E0,1.9751602E1,3.1684685E-1,7.5006027E0,1.4678087E0,1.621968E1,5.0979757E0,1.0513371E2,1.1396018E1,1.1509277E1,0E0,7.1206226E0,8.1213165E1,0E0,0E0,2.4475822E0,3.2682316E0,0E0,0E0,0E0,0E0,0E0,0E0,0E0,0E0,0E0,0E0,0E0,0E0,0E0,0E0,0E0,0E0,0E0,0E0,0E0,0E0,0E0,0E0,0E0,0E0,0E0,0E0,0E0,0E0,0E0,0E0,0E0,0E0,0E0,0E0,0E0,0E0,0E0,0E0],"parents":[2147483647,0,0,1,1,2,2,3,3,4,4,5,5,6,6,7,7,8,8,9,9,10,10,11,11,12,12,13,13,15,15,16,16,17,17,18,18,19,19,21,21,22,22,23,23,24,24,25,25,26,26,27,27,28,28,29,29,30,30,31,31,33,33,35,35,36,36,39,39,40,40,41,41,42,42,43,43,44,44,45,45,46,46,47,47,49,49,50,50,53,53,54,54],"right_children":[2,4,6,8,10,12,14,16,18,20,22,24,26,28,-1,30,32,34,36,38,-1,40,42,44,46,48,50,52,54,56,58,60,-1,62,-1,64,66,-1,-1,68,70,72,74,76,78,80,82,84,-1,86,88,-1,-1,90,92,-1,-1,-1,-1,-1,-1,-1,-1,-1,-1,-1,-1,-1,-1,-1,-1,-1,-1,-1,-1,-1,-1,-1,-1,-1,-1,-1,-1,-1,-1,-1,-1,-1,-1,-1,-1,-1,-1],"split_conditions":[-4.5237958E-1,-8.086877E-1,1.4752201E0,4.655579E0,-1.6842875E0,6.688632E-1,5.677908E0,4.4270296E0,-2.0878196E0,1.8435937E0,-6.3421315E-1,-1.5682212E-1,8.550002E-1,3.9743835E-1,1.0432277E0,1.5760307E0,-1.0351526E0,7.422997E-1,4.198878E0,4.0768228E0,-8.174503E-1,-6.278824E-1,4.655579E0,-1.1359897E0,-1.371238E0,8.5069096E-1,9.309558E-1,-1.0848488E0,7.1929246E-1,-1.4673603E0,4.129837E0,3.7111626E0,-2.975997E-1,3.964125E0,-5.095326E-2,4.0768228E0,-1.7369306E0,-4.2023692E-1,-1.25969E-1,6.4336076E0,7.0687973E-1,1.751446E-2,1.2976272E0,3.7111626E0,4.331687E0,9.248486E-1,-3.3337456E-1,8.205264E-1,1.5020868E0,3.9743835E-1,-2.0878196E0,1.1239175E0,2.1442503E-1,1.1653525E0,1.1088773E0,-2.539301E-1,-6.595432E-2,-1.07743904E-1,1.4614809E0,1.4070846E-1,-1.6012901E-2,2.7732024E-1,3.0946195E-2,3.2366898E-2,3.0235854E-1,3.3783507E-1,1.2023894E-1,-7.602895E-2,-4.0577587E-1,5.0824946E-1,1.3112634E-1,-4.8818648E-1,-2.374963E-1,-1.353214E-1,3.4752395E-2,-3.3608124E-1,5.131682E-1,-2.4542304E-2,2.711319E-1,1.7705919E0,-2.710136E-1,1.20889835E-1,-1.0553257E-2,6.369411E-2,2.4336405E-1,1.0471886E-1,-1.6646133E-1,6.2772477E-1,6.516452E-2,5.4351187E-1,6.257011E-2,2.360415E-2,2.5212243E-1],"split_indices":[64,3,1,34,64,64,45,58,0,4,64,1,64,62,0,1,0,1,19,28,0,2,34,3,3,64,64,3,0,1,43,15,0,24,0,28,0,0,0,61,1,0,4,10,16,1,0,64,0,62,0,0,0,3,2,0,0,0,0,0,0,0,0,0,0,0,0,0,0,0,0,0,0,0,0,0,0,0,0,0,0,0,0,0,0,0,0,0,0,0,0,0,0],"split_type":[0,0,0,0,0,0,0,0,0,0,0,0,0,0,0,0,0,0,0,0,0,0,0,0,0,0,0,0,0,0,0,0,0,0,0,0,0,0,0,0,0,0,0,0,0,0,0,0,0,0,0,0,0,0,0,0,0,0,0,0,0,0,0,0,0,0,0,0,0,0,0,0,0,0,0,0,0,0,0,0,0,0,0,0,0,0,0,0,0,0,0,0,0],"sum_hessian":[2.1894111E3,1.0832188E3,1.1061924E3,6.856513E2,3.9756738E2,1.0543113E3,5.188102E1,5.8117926E2,1.0447204E2,1.0443235E1,3.8712415E2,4.9121652E2,5.630948E2,5.021835E1,1.6626701E0,4.959155E2,8.52638E1,3.5683796E1,6.8788246E1,9.109572E0,1.3336631E0,2.8919528E2,9.7928856E1,2.1797003E2,2.732465E2,1.3111218E2,4.319826E2,5.7647533E0,4.4453594E1,4.7962247E2,1.6293015E1,7.853784E1,6.7259617E0,2.9736498E1,5.9472995E0,6.1412323E1,7.3759184E0,7.5692015E0,1.540371E0,2.8062296E2,8.572327E0,4.9391666E1,4.853719E1,1.9771257E1,1.9819876E2,7.7608395E0,2.6548566E2,1.2934781E2,1.7643745E0,6.3798737E1,3.6818387E2,2.4026358E0,3.3621178E0,7.789217E0,3.666438E1,2.977665E1,4.4984583E2,1.3276087E1,3.016928E0,7.066943E1,7.8684106E0,2.3789198E1,5.9472995E0,5.949121E1,1.9211112E0,4.3589907E0,3.016928E0,2.6410217E2,1.6520779E1,7.500786E0,1.0715408E0,2.2484945E1,2.6906723E1,4.3855026E1,4.682166E0,1.8403385E1,1.3678724E0,1.9380188E2,4.396881E0,2.9574084E0,4.803431E0,8.812149E1,1.7736415E2,6.3955975E1,6.539184E1,9.6438675E0,5.415487E1,2.3789198E1,3.4439468E2,6.3709526E0,1.4182644E0,3.069169E1,5.9726887E0],"tree_param":{"num_deleted":"0","num_feature":"65","num_nodes":"93","size_leaf_vector":"1"}},{"base_weights":[1.2191806E-2,-1.4251842E-1,1.6367994E-1,-4.3785132E-2,-3.1225985E-1,6.4161754E-1,1.2683792E-1,-1.0102109E-1,2.7255818E-1,-3.7457746E-1,2.4836142E-1,5.192744E-1,2.1255896E0,3.153366E-1,4.296483E-2,7.468351E-1,-1.2983859E-1,2.150249E-1,7.074911E-1,-3.7657343E-2,-4.7366503E-1,1.8269344E-1,2.730872E-1,8.685208E-1,4.3079534E-1,8.858347E-1,1.8727948E-1,2.830739E-1,1.5499773E0,-2.3608955E-3,4.4928828E-1,7.64233E-1,3.5994327E-1,-6.670532E-2,-5.001724E-1,4.3198805E-2,3.455099E-1,2.5149027E-1,4.3530267E-1,-3.9546597E-1,2.1148415E-1,-1.3076811E0,-4.3613982E-1,2.3020814E-1,-1.263277E-1,3.0423513E-1,1.823449E0,7.055785E-2,4.931023E-1,-3.8577612E-2,6.1472726E-1,6.1800706E-1,3.198623E-1,-7.923582E-2,4.5029488E-1,-1.258827E-1,3.19594E-4,-2.2096097E-1,-1.1590542E-1,-8.369798E-3,1.782268E-1,1.3552625E-1,-3.9193537E-3,6.399931E-3,2.566644E-1,-1.8527934E-1,-9.510356E-3,3.558513E-1,-6.663383E-3,-2.8771135E-1,-6.773009E-1,-3.1932044E-1,-1.188738E-1,1.4315137E-2,1.05302535E-1,1.5297894E-1,-1.4176968E-1,8.6049145E-1,1.280865E-1,3.779554E-2,-2.686802E-1,4.9180445E-1,9.666536E-2,-2.2372477E-2,1.5791553E-1,2.7972165E-1,-2.484182E-2,2.0849806E-1,-4.116522E-2,5.7785302E-2,1.7267604E-1],"categories":[],"categories_nodes":[],"categories_segments":[],"categories_sizes":[],"default_left":[0,0,0,0,0,0,0,0,0,0,0,0,0,0,0,0,0,0,0,0,0,0,0,0,0,0,0,0,0,0,0,0,0,0,0,0,0,0,0,0,0,0,0,0,0,0,0,0,0,0,0,0,0,0,0,0,0,0,0,0,0,0,0,0,0,0,0,0,0,0,0,0,0,0,0,0,0,0,0,0,0,0,0,0,0,0,0,0,0,0,0],"id":12,"left_children":[1,3,5,7,9,11,13,15,17,19,21,23,25,27,29,31,33,35,37,39,41,43,-1,-1,45,-1,-1,47,-1,49,51,-1,53,55,57,59,61,-1,63,65,67,69,71,73,-1,75,77,79,81,83,85,87,89,-1,-1,-1,-1,-1,-1,-1,-1,-1,-1,-1,-1,-1,-1,-1,-1,-1,-1,-1,-1,-1,-1,-1,-1,-1,-1,-1,-1,-1,-1,-1,-1,-1,-1,-1,-1,-1,-1],"loss_changes":[5.1359467E1,1.8156836E1,1.9414326E1,1.2460189E1,1.4017483E1,1.3237888E1,1.62581E1,1.4321407E1,2.487111E0,1.1970272E1,1.5929537E0,1.4371443E1,5.2269936E0,4.8116684E1,1.3140257E1,1.2517887E1,1.3150693E1,2.1057777E0,5.8260918E-2,7.4553704E0,8.111271E0,1.1891507E0,0E0,0E0,1.2277952E1,0E0,0E0,1.4057886E1,0E0,1.4390235E1,1.3658733E0,0E0,1.2529452E1,1.1550167E1,1.9208488E0,1.6603816E0,2.0485525E0,0E0,1.0147818E0,2.7513967E0,1.1278926E1,1.6248913E0,6.269108E0,7.7555263E-1,0E0,1.1097116E1,7.333332E0,8.579624E0,3.0543575E1,1.2406954E1,7.986908E0,1.8402119E0,1.2750659E0,0E0,0E0,0E0,0E0,0E0,0E0,0E0,0E0,0E0,0E0,0E0,0E0,0E0,0E0,0E0,0E0,0E0,0E0,0E0,0E0,0E0,0E0,0E0,0E0,0E0,0E0,0E0,0E0,0E0,0E0,0E0,0E0,0E0,0E0,0E0,0E0,0E0,0E0],"parents":[2147483647,0,0,1,1,2,2,3,3,4,4,5,5,6,6,7,7,8,8,9,9,10,10,11,11,12,12,13,13,14,14,15,15,16,16,17,17,18,18,19,19,20,20,21,21,24,24,27,27,29,29,30,30,32,32,33,33,34,34,35,35,36,36,38,38,39,39,40,40,41,41,42,42,43,43,45,45,46,46,47,47,48,48,49,49,50,50,51,51,52,52],"right_children":[2,4,6,8,10,12,14,16,18,20,22,24,26,28,30,32,34,36,38,40,42,44,-1,-1,46,-1,-1,48,-1,50,52,-1,54,56,58,60,62,-1,64,66,68,70,72,74,-1,76,78,80,82,84,86,88,90,-1,-1,-1,-1,-1,-1,-1,-1,-1,-1,-1,-1,-1,-1,-1,-1,-1,-1,-1,-1,-1,-1,-1,-1,-1,-1,-1,-1,-1,-1,-1,-1,-1,-1,-1,-1,-1,-1],"split_conditions":[-4.5604438E-1,-8.086877E-1,3.9743835E-1,4.655579E0,5.9254627E0,1.5760307E0,-3.402725E-1,-1.1973588E0,4.1433926E0,3.9743835E-1,9.738916E-1,-8.8623905E-1,1.8312722E0,2.6658754E0,1.604932E0,7.1929246E-1,4.8773084E0,1.0474058E-1,-2.0878196E0,-3.177347E-1,-1.6842875E0,4.511138E0,2.730872E-1,8.685208E-1,4.331687E0,8.858347E-1,1.8727948E-1,8.205264E-1,1.5499773E0,4.198878E0,1.8194274E0,7.64233E-1,4.3169394E-1,-1.2180719E0,-9.0881485E-1,2.0569406E-1,3.7519755E0,2.5149027E-1,-1.3860415E0,4.3169394E-1,-6.842636E-1,1.8435937E0,-3.5864744E-1,-6.608752E-1,-1.263277E-1,4.3011627E0,-1.0848488E0,5.0350127E0,8.550002E-1,5.0350127E0,7.5166065E-1,3.964125E0,4.4804162E-1,-7.923582E-2,4.5029488E-1,-1.258827E-1,3.19594E-4,-2.2096097E-1,-1.1590542E-1,-8.369798E-3,1.782268E-1,1.3552625E-1,-3.9193537E-3,6.399931E-3,2.566644E-1,-1.8527934E-1,-9.510356E-3,3.558513E-1,-6.663383E-3,-2.8771135E-1,-6.773009E-1,-3.1932044E-1,-1.188738E-1,1.4315137E-2,1.05302535E-1,1.5297894E-1,-1.4176968E-1,8.6049145E-1,1.280865E-1,3.779554E-2,-2.686802E-1,4.9180445E-1,9.666536E-2,-2.2372477E-2,1.5791553E-1,2.7972165E-1,-2.484182E-2,2.0849806E-1,-4.116522E-2,5.7785302E-2,1.7267604E-1],"split_indices":[64,3,62,34,44,1,4,3,6,62,1,4,2,1,2,0,39,1,0,3,64,25,0,0,16,0,0,64,0,19,64,0,1,2,1,4,22,0,0,1,0,4,3,1,0,38,3,32,64,32,4,24,1,0,0,0,0,0,0,0,0,0,0,0,0,0,0,0,0,0,0,0,0,0,0,0,0,0,0,0,0,0,0,0,0,0,0,0,0,0,0],"split_type":[0,0,0,0,0,0,0,0,0,0,0,0,0,0,0,0,0,0,0,0,0,0,0,0,0,0,0,0,0,0,0,0,0,0,0,0,0,0,0,0,0,0,0,0,0,0,0,0,0,0,0,0,0,0,0,0,0,0,0,0,0,0,0,0,0,0,0,0,0,0,0,0,0,0,0,0,0,0,0,0,0,0,0,0,0,0,0,0,0,0,0],"sum_hessian":[2.1894111E3,1.0832153E3,1.1061957E3,6.856513E2,3.97564E2,7.7993965E1,1.0282018E3,5.8117926E2,1.0447204E2,3.5809113E2,3.9472874E1,7.330075E1,4.6932125E0,3.1577057E2,7.1243115E2,1.8285152E1,5.628941E2,9.35867E1,1.0885339E1,8.16938E1,2.763973E2,3.7071156E1,2.4017155E0,1.4929323E0,7.1807816E1,2.4026358E0,2.290577E0,3.147358E2,1.0347633E0,6.418288E2,7.0602356E1,2.2463198E0,1.6038832E1,4.8191843E2,8.097572E1,4.096887E1,5.2617832E1,5.9472995E0,4.9380393E0,3.329267E1,4.840113E1,1.0443235E1,2.659541E2,3.494027E1,2.1308868E0,6.694272E1,4.8650975E0,1.5710545E2,1.5763034E2,6.071338E2,3.4695015E1,2.9010065E1,4.1592293E1,1.0865015E1,5.1738167E0,7.68007E1,4.051177E2,2.4541359E1,5.643436E1,3.7126644E1,3.8422225E0,4.039043E1,1.2227402E1,3.016928E0,1.9211112E0,2.0237135E1,1.3055536E1,8.572327E0,3.9828804E1,9.109572E0,1.3336631E0,1.434609E1,2.51608E2,1.4472266E1,2.0468004E1,5.319926E1,1.3743462E1,2.1800518E0,2.685046E0,1.4940395E2,7.7015123E0,1.9336058E1,1.3829428E2,5.715827E2,3.5551105E1,2.360696E1,1.1088056E1,2.6398767E1,2.6112983E0,2.8943613E1,1.264868E1],"tree_param":{"num_deleted":"0","num_feature":"65","num_nodes":"91","size_leaf_vector":"1"}},{"base_weights":[1.1338247E-2,-9.929596E-2,1.1966594E-1,5.7840824E-2,-1.790153E-1,-2.2314603E-2,2.2672015E-1,-1.8048315E-1,1.0548689E-1,-2.3783422E-1,7.715764E-2,-4.04231E-1,1.7514339E-2,3.531716E-1,5.9042543E-2,1.844925E-1,-3.99295E-1,7.522619E-2,-2.8993845E-1,2.890704E-1,-3.8859338E-1,-4.8122388E-1,5.174278E-1,1.15256496E-1,-1.5735191E-1,3.293519E-1,1.313508E0,1.2813673E-2,1.612221E0,1.2729599E-1,5.9094024E-1,-2.1414341E-1,-2.3242564E-1,5.747721E-1,-1.6609384E-3,-3.3307812E-1,7.539967E-2,1.283465E-1,3.054428E0,-8.6354023E-1,-1.266235E-1,-2.7518E-1,-1.2071058E0,-1.4316079E-1,4.7396693E-1,1.239556E-3,3.129732E-1,-5.7781383E-2,-1.0184247E0,2.2243379E-1,5.3517187E-1,5.6285866E-2,-9.1838664E-1,1.5149314E0,-7.033836E-1,-1.976094E-2,8.5638806E-2,-1.703537E-1,4.6796346E-1,-1.01178706E-1,-3.440247E-3,-3.1803794E-2,1.4345771E-1,-1.1220756E-1,4.9624097E-2,8.8969894E-2,-1.4038453E-1,6.9875315E-2,-2.0413744E-1,1.1321139E0,5.555717E-2,1.3480414E-1,-8.372571E-2,-1.0290055E-1,1.1046686E-1,-4.0111467E-1,-5.0287858E-2,2.0789819E-2,-1.1194705E-1,3.509384E-1,3.5049226E-2,-3.22156E-2,2.7003834E-1,7.146734E-2,-3.504123E-1,2.1322285E-1,3.820393E-2,5.4390377E-1,1.3620071E-1,2.2249064E-1,-1.0674091E-3,-1.9142053E-1,-5.6908923E-1,-5.106472E-1,5.069036E-1],"categories":[],"categories_nodes":[],"categories_segments":[],"categories_sizes":[],"default_left":[0,0,0,0,0,0,0,0,0,0,0,0,0,0,0,0,0,0,0,0,0,0,0,0,0,0,0,0,0,0,0,0,0,0,0,0,0,0,0,0,0,0,0,0,0,0,0,0,0,0,0,0,0,0,0,0,0,0,0,0,0,0,0,0,0,0,0,0,0,0,0,0,0,0,0,0,0,0,0,0,0,0,0,0,0,0,0,0,0,0,0,0,0,0,0],"id":13,"left_children":[1,3,5,7,9,11,13,-1,15,17,19,21,23,25,27,29,31,33,35,37,39,41,43,45,47,49,-1,51,53,55,57,-1,59,-1,61,63,65,67,69,-1,71,73,75,-1,-1,77,79,81,83,85,87,89,91,-1,93,-1,-1,-1,-1,-1,-1,-1,-1,-1,-1,-1,-1,-1,-1,-1,-1,-1,-1,-1,-1,-1,-1,-1,-1,-1,-1,-1,-1,-1,-1,-1,-1,-1,-1,-1,-1,-1,-1,-1,-1],"loss_changes":[2.6263409E1,1.3592147E1,1.683401E1,1.1553011E1,1.0860283E1,7.2608724E0,1.3365238E1,0E0,1.3708205E1,9.57114E0,1.3448116E1,3.4476557E0,7.415327E0,3.3046295E1,1.955392E1,6.812976E0,2.278974E0,1.1937479E1,7.9384766E0,4.113707E1,2.7473763E1,5.9673004E0,4.935622E0,6.270956E0,1.3281711E1,7.77388E0,0E0,1.0809533E1,6.621096E1,7.9936514E0,4.1618248E1,0E0,7.355181E-1,0E0,4.1539474E0,9.231998E0,6.6090584E0,7.715415E0,9.802723E0,0E0,3.608271E0,1.6144028E0,9.938345E-1,0E0,0E0,4.5474806E0,1.6962635E1,6.774105E0,3.2991924E0,1.0949265E1,1.1821693E1,1.0454549E1,2.0568447E0,0E0,1.6215767E1,0E0,0E0,0E0,0E0,0E0,0E0,0E0,0E0,0E0,0E0,0E0,0E0,0E0,0E0,0E0,0E0,0E0,0E0,0E0,0E0,0E0,0E0,0E0,0E0,0E0,0E0,0E0,0E0,0E0,0E0,0E0,0E0,0E0,0E0,0E0,0E0,0E0,0E0,0E0,0E0],"parents":[2147483647,0,0,1,1,2,2,3,3,4,4,5,5,6,6,8,8,9,9,10,10,11,11,12,12,13,13,14,14,15,15,16,16,17,17,18,18,19,19,20,20,21,21,22,22,23,23,24,24,25,25,27,27,28,28,29,29,30,30,32,32,34,34,35,35,36,36,37,37,38,38,40,40,41,41,42,42,45,45,46,46,47,47,48,48,49,49,50,50,51,51,52,52,54,54],"right_children":[2,4,6,8,10,12,14,-1,16,18,20,22,24,26,28,30,32,34,36,38,40,42,44,46,48,50,-1,52,54,56,58,-1,60,-1,62,64,66,68,70,-1,72,74,76,-1,-1,78,80,82,84,86,88,90,92,-1,94,-1,-1,-1,-1,-1,-1,-1,-1,-1,-1,-1,-1,-1,-1,-1,-1,-1,-1,-1,-1,-1,-1,-1,-1,-1,-1,-1,-1,-1,-1,-1,-1,-1,-1,-1,-1,-1,-1,-1,-1],"split_conditions":[-4.5604438E-1,-1.7369306E0,-1.540975E-1,-1.7056762E0,8.485595E-1,-1.1359897E0,1.0701815E0,-1.8048315E-1,4.8773084E0,3.9743835E-1,-6.3421315E-1,3.7111626E0,2.0569406E-1,2.6658754E0,4.752758E0,4.1433926E0,-9.0881485E-1,-1.1865399E0,4.4270296E0,-6.278824E-1,-1.3860415E0,4.752758E0,1.0701815E0,9.309558E-1,3.7111626E0,9.309558E-1,1.313508E0,4.511138E0,7.123289E-1,-1.9496667E-1,-1.1419299E0,-2.1414341E-1,3.964125E0,5.747721E-1,4.3169394E-1,5.9254627E0,7.1929246E-1,5.4285126E0,-1.3860415E0,-8.6354023E-1,-1.0351526E0,4.1433926E0,4.184813E0,-1.4316079E-1,4.7396693E-1,8.550002E-1,-2.0878196E0,5.0350127E0,3.9743835E-1,1.0294898E-1,-2.0878196E0,3.9743835E-1,4.3011627E0,1.5149314E0,4.198878E0,-1.976094E-2,8.5638806E-2,-1.703537E-1,4.6796346E-1,-1.01178706E-1,-3.440247E-3,-3.1803794E-2,1.4345771E-1,-1.1220756E-1,4.9624097E-2,8.8969894E-2,-1.4038453E-1,6.9875315E-2,-2.0413744E-1,1.1321139E0,5.555717E-2,1.3480414E-1,-8.372571E-2,-1.0290055E-1,1.1046686E-1,-4.0111467E-1,-5.0287858E-2,2.0789819E-2,-1.1194705E-1,3.509384E-1,3.5049226E-2,-3.22156E-2,2.7003834E-1,7.146734E-2,-3.504123E-1,2.1322285E-1,3.820393E-2,5.4390377E-1,1.3620071E-1,2.2249064E-1,-1.0674091E-3,-1.9142053E-1,-5.6908923E-1,-5.106472E-1,5.069036E-1],"split_indices":[64,0,1,64,1,3,0,0,39,62,64,10,4,1,55,6,1,64,58,2,0,55,0,64,10,64,0,25,1,1,64,0,24,0,1,44,0,29,0,0,0,6,18,0,0,64,0,32,62,64,0,62,38,0,19,0,0,0,0,0,0,0,0,0,0,0,0,0,0,0,0,0,0,0,0,0,0,0,0,0,0,0,0,0,0,0,0,0,0,0,0,0,0,0,0],"split_type":[0,0,0,0,0,0,0,0,0,0,0,0,0,0,0,0,0,0,0,0,0,0,0,0,0,0,0,0,0,0,0,0,0,0,0,0,0,0,0,0,0,0,0,0,0,0,0,0,0,0,0,0,0,0,0,0,0,0,0,0,0,0,0,0,0,0,0,0,0,0,0,0,0,0,0,0,0,0,0,0,0,0,0,0,0,0,0,0,0,0,0,0,0,0,0],"sum_hessian":[2.1894111E3,1.0832153E3,1.1061957E3,3.6467322E2,7.185421E2,4.758679E2,6.303278E2,2.3789198E1,3.40884E2,5.8442584E2,1.3411627E2,4.4076153E1,4.3179175E2,3.5870776E2,2.7162006E2,2.9529987E2,4.5584152E1,8.332663E1,5.010992E2,9.243739E1,4.1678883E1,4.111905E1,2.9571016E0,2.77194E2,1.5459776E2,3.57673E2,1.0347633E0,2.6474832E2,6.871731E0,2.60022E2,3.5277863E1,1.4665281E1,3.091887E1,2.382041E0,8.094459E1,4.4825668E2,5.2842525E1,8.834892E1,4.0884686E0,3.016928E0,3.8661957E1,3.310203E1,8.017019E0,1.8118132E0,1.1452885E0,1.764482E2,1.007458E2,1.3953023E2,1.50675335E1,2.3676202E2,1.2091097E2,2.538377E2,1.0910614E1,2.290577E0,4.581154E0,1.1732225E2,1.4269975E2,1.625359E1,1.9024271E1,2.061258E1,1.030629E1,6.712604E1,1.381855E1,4.144617E2,3.3794983E1,3.7878494E1,1.4964031E1,7.886447E1,9.484448E0,3.016928E0,1.0715408E0,7.684445E0,3.097751E1,3.0367819E1,2.734211E0,6.871731E0,1.1452885E0,1.49996E2,2.6452194E1,1.7841898E1,8.290389E1,1.3350476E2,6.025456E0,1.5400642E0,1.3527469E1,3.7534378E1,1.9922765E2,5.9472995E0,1.1496367E2,1.9469904E1,2.343678E2,9.765326E0,1.1452885E0,3.4358654E0,1.1452885E0],"tree_param":{"num_deleted":"0","num_feature":"65","num_nodes":"95","size_leaf_vector":"1"}},{"base_weights":[9.779232E-3,7.6539826E-1,6.936172E-3,-6.62524E-2,1.0490148E-1,-4.5445047E-2,-3.825861E-1,1.14954025E-1,-1.2247003E0,-6.264648E-2,9.5947695E-1,-4.472396E-1,7.792215E-1,9.3679376E-2,6.097298E-1,-1.3697705E0,9.7594064E-1,-5.05074E-2,-6.1631763E-1,1.0708079E0,-5.034158E-2,-4.8544538E-1,1.962309E-1,-1.1018392E-1,5.3406674E-1,6.567076E-2,4.5406786E-1,1.2625477E0,3.305642E-1,3.330654E-1,6.359963E-2,1.9911394E-1,-1.8739063E-2,-2.9017895E-1,8.599909E-2,2.3747815E-1,4.3822762E-1,-4.731966E-1,-1.258909E-1,-5.487615E-3,-4.5214474E-2,4.665074E-2,-1.810117E-2,-1.14468E-1,1.637611E-1,1.7159826E-1,-3.9689866E-1],"categories":[],"categories_nodes":[],"categories_segments":[],"categories_sizes":[],"default_left":[0,0,0,0,0,0,0,0,0,0,0,0,0,0,0,0,0,0,0,0,0,0,0,0,0,0,0,0,0,0,0,0,0,0,0,0,0,0,0,0,0,0,0,0,0,0,0],"id":14,"left_children":[1,-1,3,5,7,9,11,13,15,17,19,21,23,25,27,-1,29,31,33,35,-1,37,-1,39,-1,41,43,-1,45,-1,-1,-1,-1,-1,-1,-1,-1,-1,-1,-1,-1,-1,-1,-1,-1,-1,-1],"loss_changes":[1.5809713E1,0E0,1.5701708E1,8.233474E0,1.2656994E1,2.0411148E1,6.1496124E0,9.735564E0,5.675363E1,7.754762E0,2.6739426E0,3.4226084E0,4.1453834E0,8.985576E0,3.6957973E1,0E0,2.8903818E-1,9.730753E0,8.124958E0,8.2782936E-1,0E0,4.504053E0,0E0,9.498764E-3,0E0,9.4035225E0,5.136203E0,0E0,1.533181E1,0E0,0E0,0E0,0E0,0E0,0E0,0E0,0E0,0E0,0E0,0E0,0E0,0E0,0E0,0E0,0E0,0E0,0E0],"parents":[2147483647,0,0,2,2,3,3,4,4,5,5,6,6,7,7,8,8,9,9,10,10,11,11,12,12,13,13,14,14,16,16,17,17,18,18,19,19,21,21,23,23,25,25,26,26,28,28],"right_children":[2,-1,4,6,8,10,12,14,16,18,20,22,24,26,28,-1,30,32,34,36,-1,38,-1,40,-1,42,44,-1,46,-1,-1,-1,-1,-1,-1,-1,-1,-1,-1,-1,-1,-1,-1,-1,-1,-1,-1],"split_conditions":[-1.8826473E0,7.6539826E-1,4.7804242E-1,1.0294898E-1,1.8435937E0,1.03035904E-1,1.6276028E1,1.4752201E0,-6.0412395E-1,6.4336076E0,3.964125E0,1.3903725E0,2.258658E-1,4.1433926E0,5.285307E-1,-1.3697705E0,8.474021E-1,-1.1973588E0,3.96274E-1,3.96274E-1,-5.034158E-2,7.1929246E-1,1.962309E-1,1.5142918E-1,5.3406674E-1,2.0569406E-1,-2.0878196E0,1.2625477E0,2.6658754E0,3.330654E-1,6.359963E-2,1.9911394E-1,-1.8739063E-2,-2.9017895E-1,8.599909E-2,2.3747815E-1,4.3822762E-1,-4.731966E-1,-1.258909E-1,-5.487615E-3,-4.5214474E-2,4.665074E-2,-1.810117E-2,-1.14468E-1,1.637611E-1,1.7159826E-1,-3.9689866E-1],"split_indices":[3,0,64,64,4,2,11,1,3,61,24,3,2,6,64,0,2,3,1,1,0,0,0,2,0,4,0,0,1,0,0,0,0,0,0,0,0,0,0,0,0,0,0,0,0,0,0],"split_type":[0,0,0,0,0,0,0,0,0,0,0,0,0,0,0,0,0,0,0,0,0,0,0,0,0,0,0,0,0,0,0,0,0,0,0,0,0,0,0,0,0,0,0,0,0,0,0],"sum_hessian":[2.1894111E3,1.4448017E0,2.1879663E3,1.2525366E3,9.354296E2,1.1763068E3,7.622979E1,9.29317E2,6.1126223E0,1.1574325E3,1.887432E1,7.279392E1,3.4358654E0,8.921454E2,3.7171635E1,2.0004947E0,4.112128E0,1.1336683E3,2.3764122E1,1.7223423E1,1.6508961E0,7.089383E1,1.9000957E0,2.290577E0,1.1452885E0,8.2890674E2,6.3238636E1,1.6626701E0,3.5508965E1,3.1118805E0,1.0002474E0,1.776777E1,1.1159006E3,1.7061821E1,6.7022996E0,1.1802519E1,5.4209046E0,2.7243526E0,6.816948E1,1.1452885E0,1.1452885E0,4.8378204E2,3.451247E2,5.9472995E0,5.7291336E1,3.1555717E1,3.953247E0],"tree_param":{"num_deleted":"0","num_feature":"65","num_nodes":"47","size_leaf_vector":"1"}},{"base_weights":[7.5704455E-3,2.9918686E-2,-2.2891687E-1,-1.3509291E-1,6.739778E-2,-6.2473007E-2,-4.0367392E-1,-2.0869842E-1,2.313103E-2,1.0320753E-1,-1.0070757E-1,-1.2459699E-1,1.0376384E0,2.0315452E-1,-4.566504E-1,-5.621984E-2,-3.3325824E-1,-9.736631E-2,4.0692124E-1,5.145869E-2,2.413693E-1,-7.955762E-2,-8.3805615E-1,-1.9280091E-1,2.2770667E-1,6.536591E-1,-1.6866023E-2,-6.136502E-1,-9.006199E-2,1.2273509E-1,-3.134102E-1,-2.0965323E-1,-5.865608E-1,-5.465421E-2,-3.6622944E-1,-1.7081377E-1,4.6850437E-1,7.8677505E-1,3.489873E-2,4.8646948E-1,1.4798422E-1,-9.906042E-1,-6.340368E-2,-4.0548444E-1,-1.8110143E-1,-1.29208E-1,-1.2396972E-1,6.3042414E-1,-1.9932875E-1,6.598301E-2,-6.4915776E-2,-6.351627E-1,9.3774475E-2,-3.3657262E-1,2.4626176E-1,3.373423E-3,2.4262373E-1,-1.103119E-1,1.6228896E-1,-4.8492316E-2,-2.3244037E-1,-1.9533612E-1,4.4196635E-2,-2.9444192E-2,1.8349652E-1,2.1428198E-1,4.3119736E-2,1.418187E-1,7.6702803E-1,1.507228E-2,-1.4718303E-1,1.2276804E-1,1.0604842E0,-1.0871948E-1,7.129592E-2,-1.3555923E-1,-4.5677614E-1,-2.2482876E-2,2.4546282E-1,-1.5707517E-1,9.0531304E-2,-1.7676521E-2,-1.3330352E-1,9.4092585E-2,2.770369E-1,-1.9620927E-1,6.4275645E-2,-1.9636787E-1,-1.9961921E-2,2.1135493E-1,-5.9595328E-2],"categories":[],"categories_nodes":[],"categories_segments":[],"categories_sizes":[],"default_left":[0,0,0,0,0,0,0,0,0,0,0,0,0,0,0,0,0,0,0,0,0,0,0,0,0,0,0,0,0,0,0,0,0,0,0,0,0,0,0,0,0,0,0,0,0,0,0,0,0,0,0,0,0,0,0,0,0,0,0,0,0,0,0,0,0,0,0,0,0,0,0,0,0,0,0,0,0,0,0,0,0,0,0,0,0,0,0,0,0,0,0],"id":15,"left_children":[1,3,5,7,9,11,13,15,17,19,21,23,25,-1,27,29,31,33,35,37,39,41,43,45,47,-1,49,51,53,55,57,59,61,63,-1,-1,65,67,69,71,73,75,77,-1,79,81,-1,83,-1,-1,-1,85,-1,87,89,-1,-1,-1,-1,-1,-1,-1,-1,-1,-1,-1,-1,-1,-1,-1,-1,-1,-1,-1,-1,-1,-1,-1,-1,-1,-1,-1,-1,-1,-1,-1,-1,-1,-1,-1,-1],"loss_changes":[1.1583338E1,1.2391509E1,5.4792147E0,4.3245687E0,9.8362665E0,6.8343043E0,5.584654E0,4.791175E0,5.5273857E0,9.611864E0,4.411373E0,2.2967312E0,6.4766283E0,0E0,5.0338917E0,5.334497E0,4.23477E0,4.3053565E0,1.9831476E0,1.1912844E1,8.317423E0,4.061577E0,2.4212174E0,1.0553007E0,6.047074E0,0E0,2.2589009E-1,1.4286919E0,2.3782694E0,5.235584E0,2.4021573E0,2.4550624E0,2.2321625E0,2.6342309E0,0E0,0E0,2.0845609E0,1.077042E1,7.764826E0,2.226205E1,1.2298406E1,6.917348E-1,2.873504E0,0E0,9.22313E-1,1.3656623E0,0E0,7.5989866E-1,0E0,0E0,0E0,1.1124153E0,0E0,1.364557E0,2.6451426E0,0E0,0E0,0E0,0E0,0E0,0E0,0E0,0E0,0E0,0E0,0E0,0E0,0E0,0E0,0E0,0E0,0E0,0E0,0E0,0E0,0E0,0E0,0E0,0E0,0E0,0E0,0E0,0E0,0E0,0E0,0E0,0E0,0E0,0E0,0E0,0E0],"parents":[2147483647,0,0,1,1,2,2,3,3,4,4,5,5,6,6,7,7,8,8,9,9,10,10,11,11,12,12,14,14,15,15,16,16,17,17,18,18,19,19,20,20,21,21,22,22,23,23,24,24,26,26,27,27,28,28,29,29,30,30,31,31,32,32,33,33,36,36,37,37,38,38,39,39,40,40,41,41,42,42,44,44,45,45,47,47,51,51,53,53,54,54],"right_children":[2,4,6,8,10,12,14,16,18,20,22,24,26,-1,28,30,32,34,36,38,40,42,44,46,48,-1,50,52,54,56,58,60,62,64,-1,-1,66,68,70,72,74,76,78,-1,80,82,-1,84,-1,-1,-1,86,-1,88,90,-1,-1,-1,-1,-1,-1,-1,-1,-1,-1,-1,-1,-1,-1,-1,-1,-1,-1,-1,-1,-1,-1,-1,-1,-1,-1,-1,-1,-1,-1,-1,-1,-1,-1,-1,-1],"split_conditions":[3.964125E0,-9.905532E-1,-3.402725E-1,1.0701815E0,6.0280216E-1,-1.7369306E0,-1.6873431E0,3.7111626E0,3.7111626E0,6.688632E-1,4.129837E0,9.309558E-1,-6.245803E-1,2.0315452E-1,-6.842636E-1,-6.842636E-1,2.0569406E-1,4.8773084E0,-1.371238E0,-1.371238E0,8.550002E-1,-1.6842875E0,3.6840346E-1,6.2673265E-1,1.0808984E0,6.536591E-1,7.1929246E-1,1.036018E1,1.22077346E-1,4.184813E0,4.9209266E0,1.0808984E0,4.6745653E0,1.4926544E0,-3.6622944E-1,-1.7081377E-1,2.345874E-1,4.1708784E0,4.511138E0,8.5069096E-1,9.309558E-1,1.8435937E0,4.4270296E0,-4.0548444E-1,7.0687973E-1,4.6745653E0,-1.2396972E-1,-2.0878196E0,-1.9932875E-1,6.598301E-2,-6.4915776E-2,4.129837E0,9.3774475E-2,-5.790156E-1,4.3915114E-1,3.373423E-3,2.4262373E-1,-1.103119E-1,1.6228896E-1,-4.8492316E-2,-2.3244037E-1,-1.9533612E-1,4.4196635E-2,-2.9444192E-2,1.8349652E-1,2.1428198E-1,4.3119736E-2,1.418187E-1,7.6702803E-1,1.507228E-2,-1.4718303E-1,1.2276804E-1,1.0604842E0,-1.0871948E-1,7.129592E-2,-1.3555923E-1,-4.5677614E-1,-2.2482876E-2,2.4546282E-1,-1.5707517E-1,9.0531304E-2,-1.7676521E-2,-1.3330352E-1,9.4092585E-2,2.770369E-1,-1.9620927E-1,6.4275645E-2,-1.9636787E-1,-1.9961921E-2,2.1135493E-1,-5.9595328E-2],"split_indices":[24,1,4,0,3,0,64,15,15,64,43,64,3,0,0,0,4,39,3,3,64,64,0,64,64,0,0,42,3,18,56,64,49,3,0,0,3,13,25,64,64,4,58,0,1,49,0,0,0,0,0,43,0,2,3,0,0,0,0,0,0,0,0,0,0,0,0,0,0,0,0,0,0,0,0,0,0,0,0,0,0,0,0,0,0,0,0,0,0,0,0],"split_type":[0,0,0,0,0,0,0,0,0,0,0,0,0,0,0,0,0,0,0,0,0,0,0,0,0,0,0,0,0,0,0,0,0,0,0,0,0,0,0,0,0,0,0,0,0,0,0,0,0,0,0,0,0,0,0,0,0,0,0,0,0,0,0,0,0,0,0,0,0,0,0,0,0,0,0,0,0,0,0,0,0,0,0,0,0,0,0,0,0,0,0],"sum_hessian":[2.1894111E3,2.0011721E3,1.8823888E2,3.6991577E2,1.6312563E3,9.7107895E1,9.113099E1,2.5225034E2,1.1766543E2,1.3451079E3,2.8614844E2,9.2756615E1,4.351283E0,3.7074218E0,8.742356E1,1.1406735E2,1.3818298E2,9.011776E1,2.7547668E1,9.795773E2,3.6553067E2,2.792465E2,6.901949E0,7.809133E1,1.4665281E1,1.5776478E0,2.7736351E0,6.0737434E1,2.6686129E1,6.757262E1,4.6494736E1,9.409484E1,4.4088146E1,8.782718E1,2.290577E0,1.1452885E0,2.6402382E1,2.0550648E1,9.590266E2,9.968537E1,2.6584528E2,3.8141484E0,2.7543234E2,3.2802773E0,3.6216717E0,6.183774E1,1.625359E1,1.030629E1,4.3589907E0,1.22149E0,1.552145E0,5.9665894E1,1.0715408E0,1.53987665E1,1.1287363E1,5.900029E1,8.572327E0,4.4252094E1,2.2426388E0,8.791226E1,6.182578E0,4.062697E1,3.4611754E0,8.3246025E1,4.581154E0,1.4346479E1,1.20559025E1,1.8529978E1,2.0206685E0,9.3270087E2,2.6325754E1,9.8328156E1,1.3572111E0,3.9272144E1,2.2657314E2,2.8139012E0,1.0002474E0,2.72777E2,2.6553237E0,2.0695267E0,1.552145E0,5.1531452E1,1.030629E1,5.9472995E0,4.3589907E0,5.8594353E1,1.0715408E0,6.4175496E0,8.981216E0,5.272875E0,6.014488E0],"tree_param":{"num_deleted":"0","num_feature":"65","num_nodes":"91","size_leaf_vector":"1"}},{"base_weights":[5.9708464E-3,6.1199176E-1,3.6963935E-3,-1.1566538E-2,2.5159404E-1,-4.504021E-3,-5.7581013E-1,3.3550093E-1,-5.323749E-1,1.1395949E-2,-2.4654453E-1,-6.688594E-1,1.4641498E-1,4.25368E-1,-5.340408E-1,-1.2741343E0,-1.1497565E-1,1.1535291E-1,-2.8008353E-2,3.1591144E-1,-2.8099725E-1,-5.432441E-1,-4.785309E-1,8.778563E-1,3.2278377E-1,-6.6814554E-1,3.572454E-1,-5.304526E-1,-8.086544E-3,1.3045675E-1,-1.7869902E-1,-1.2511136E-1,4.241729E-2,-1.6298532E-1,-5.118104E-3,1.5933138E-1,-5.5067666E-2,-4.4736303E-2,-1.2906218E-1,-2.4249952E-1,-1.3015442E-1,7.977317E-2,4.522799E-1,1.5565401E-1,2.9243793E-2,1.0210417E-1,-1.9046193E-2],"categories":[],"categories_nodes":[],"categories_segments":[],"categories_sizes":[],"default_left":[0,0,0,0,0,0,0,0,0,0,0,0,0,0,0,0,0,0,0,0,0,0,0,0,0,0,0,0,0,0,0,0,0,0,0,0,0,0,0,0,0,0,0,0,0,0,0],"id":16,"left_children":[1,-1,3,5,7,9,11,13,15,17,19,21,-1,23,25,27,29,31,33,35,37,39,-1,-1,41,-1,43,-1,-1,45,-1,-1,-1,-1,-1,-1,-1,-1,-1,-1,-1,-1,-1,-1,-1,-1,-1],"loss_changes":[1.0125829E1,0E0,8.285181E0,8.218283E0,8.532777E0,7.8477364E0,2.8501844E0,9.239863E0,3.77475E0,7.8427095E0,2.5245967E0,1.9102821E0,0E0,2.6015484E1,1.776754E1,2.7012444E0,1.1635325E0,7.353576E0,7.823918E0,9.278953E-1,2.2769222E0,3.0273294E-1,0E0,0E0,6.4771614E0,0E0,2.9490006E-1,0E0,0E0,3.0302218E-1,0E0,0E0,0E0,0E0,0E0,0E0,0E0,0E0,0E0,0E0,0E0,0E0,0E0,0E0,0E0,0E0,0E0],"parents":[2147483647,0,0,2,2,3,3,4,4,5,5,6,6,7,7,8,8,9,9,10,10,11,11,13,13,14,14,15,15,16,16,17,17,18,18,19,19,20,20,21,21,24,24,26,26,29,29],"right_children":[2,-1,4,6,8,10,12,14,16,18,20,22,-1,24,26,28,30,32,34,36,38,40,-1,-1,42,-1,44,-1,-1,46,-1,-1,-1,-1,-1,-1,-1,-1,-1,-1,-1,-1,-1,-1,-1,-1,-1],"split_conditions":[-1.8826473E0,6.1199176E-1,1.3853079E0,1.8097283E0,5.4285126E0,4.8773084E0,6.164414E0,4.772891E0,-1.0848488E0,-1.7369306E0,-1.4223789E0,1.8435937E0,1.4641498E-1,-1.3860415E0,-1.3860415E0,1.0333188E0,4.8773084E0,-1.7056762E0,-1.6934541E0,9.379184E-3,-1.3860415E0,-1.3393035E0,-4.785309E-1,8.778563E-1,4.3011627E0,-6.6814554E-1,-1.0351526E0,-5.304526E-1,-8.086544E-3,1.0701815E0,-1.7869902E-1,-1.2511136E-1,4.241729E-2,-1.6298532E-1,-5.118104E-3,1.5933138E-1,-5.5067666E-2,-4.4736303E-2,-1.2906218E-1,-2.4249952E-1,-1.3015442E-1,7.977317E-2,4.522799E-1,1.5565401E-1,2.9243793E-2,1.0210417E-1,-1.9046193E-2],"split_indices":[3,0,1,3,29,39,48,47,3,0,3,4,0,0,0,64,39,64,64,1,0,1,0,0,38,0,0,0,0,0,0,0,0,0,0,0,0,0,0,0,0,0,0,0,0,0,0],"split_type":[0,0,0,0,0,0,0,0,0,0,0,0,0,0,0,0,0,0,0,0,0,0,0,0,0,0,0,0,0,0,0,0,0,0,0,0,0,0,0,0,0,0,0,0,0,0,0],"sum_hessian":[2.1894111E3,1.4448017E0,2.1879663E3,2.0619653E3,1.2600082E2,2.0374708E3,2.4494606E1,1.1433571E2,1.1665114E1,1.9127711E3,1.2469962E2,2.2865953E1,1.6286534E0,1.04088936E2,1.0246771E1,3.461368E0,8.203746E0,5.2521484E2,1.3875563E3,6.7259617E0,1.1797366E2,2.153229E1,1.3336631E0,3.016928E0,1.0107201E2,3.016928E0,7.229843E0,2.1800518E0,1.2813164E0,5.913169E0,2.290577E0,2.3789198E1,5.0142566E2,2.7856266E1,1.3597001E3,4.656435E0,2.0695267E0,6.368572E1,5.4287945E1,4.423725E0,1.7108564E1,9.761095E1,3.4610615E0,3.8422225E0,3.3876204E0,2.4773035E0,3.4358654E0],"tree_param":{"num_deleted":"0","num_feature":"65","num_nodes":"47","size_leaf_vector":"1"}},{"base_weights":[4.124855E-3,-8.790485E-3,2.560516E-1,5.0349134E-1,-1.0766286E-2,2.1947178E-1,1.0723815E0,5.906288E-3,-1.8514079E-1,1.8492924E-1,7.142073E-1,3.7748432E-1,8.908118E-2,1.4521724E-2,-3.842452E-1,1.6120562E-1,-2.150247E-1,-3.123103E-1,2.3871978E-1,4.7968936E-1,2.4616212E-1,2.9088413E-2,-2.3824325E-1,-6.768651E-1,-1.0592588E-1,-7.8721374E-2,4.680239E-1,-9.718695E-2,-3.37748E-1,6.588988E-2,-4.5337197E-1,2.6934123E-1,-3.449375E-1,1.01513885E-1,-1.50857465E-2,1.21774515E-2,-1.3922277E-1,-4.2966673E-1,-3.8606732E-3,3.643703E-2,-2.4958512E-1,-2.998111E-3,-1.5616159E-1,6.7304894E-2,1.9380102E-1,-3.6387194E-2,1.2815498E-1,-1.2987109E-1,-2.3636444E-2,-1.9269975E-1,4.8741558E-1,6.5308295E-2,1.6610461E-1,2.5214266E-2,-1.4634812E-1],"categories":[],"categories_nodes":[],"categories_segments":[],"categories_sizes":[],"default_left":[0,0,0,0,0,0,0,0,0,0,0,0,0,0,0,0,0,0,0,0,0,0,0,0,0,0,0,0,0,0,0,0,0,0,0,0,0,0,0,0,0,0,0,0,0,0,0,0,0,0,0,0,0,0,0],"id":17,"left_children":[1,3,5,-1,7,9,11,13,15,17,19,-1,-1,21,23,25,27,29,31,-1,33,35,37,39,41,-1,43,45,47,49,-1,51,53,-1,-1,-1,-1,-1,